{
  "organisms": [
    {
      "id": 17536,
      "age": 30.049828,
      "score": 17,
      "pos": {
        "v": 1,
        "dim": [
          2
        ],
        "data": [
          656.7569,
          898.14246
        ]
      },
      "rot": -10.116896,
      "energy": 0.0069189575,
      "signal": {
        "v": 1,
        "dim": [
          4
        ],
        "data": [
          0.5918185,
          0.5878719,
          0.4329592,
          0.5473359
        ]
      },
      "memory": {
        "v": 1,
        "dim": [
          4
        ],
        "data": [
          -0.1407608,
          -0.20837724,
          0.28622192,
          0.25702193
        ]
      },
      "brain": {
        "layers": [
          {
            "weights": {
              "v": 1,
              "dim": [
                32,
                24
              ],
              "data": [
                0.2421543,
                0.076513216,
                0.20701851,
                -0.38136584,
                0.38311297,
                0.1691679,
                0.022259934,
                -0.15134144,
                0.3211646,
                -0.16921516,
                0.5355045,
                0.07908246,
                -0.2615808,
                0.015574661,
                -0.20798719,
                0.028376093,
                0.17955035,
                0.08457074,
                -0.036223277,
                0.14570662,
                0.15536371,
                0.067063175,
                -0.14306715,
                0.021347813,
                0.04779916,
                -0.02462646,
                -0.029332563,
                0.073583536,
                -0.1412193,
                -0.03400387,
                -0.31929484,
                -0.06768778,
                -0.13328041,
                -0.37840444,
                0.00087278616,
                -0.012465294,
                -0.014452372,
                -0.15696913,
                0.21863946,
                0.34990185,
                0.25468215,
                0.12471008,
                -0.16483973,
                -0.058659382,
                -0.2824151,
                -0.24600627,
                0.17446138,
                0.12153825,
                -0.041989855,
                0.23241861,
                0.16076441,
                -0.42949957,
                0.007135827,
                -0.23717842,
                -0.086101495,
                0.12145618,
                -0.34640044,
                0.035424687,
                -0.07679902,
                -0.050770644,
                -0.04851468,
                -0.23565139,
                -0.3848022,
                -0.11261775,
                0.17265326,
                -0.12219486,
                -0.2894391,
                -0.13378924,
                0.1590686,
                0.07553224,
                0.12837668,
                0.0458699,
                0.2632485,
                -0.086440146,
                -0.03634073,
                -0.044860274,
                -0.40479377,
                -0.012395291,
                0.27609336,
                0.10247409,
                0.21040685,
                0.25361675,
                0.013578709,
                0.020738343,
                0.085796036,
                -0.278203,
                -0.19326667,
                -0.21642467,
                -0.05377477,
                0.33860117,
                -0.16800898,
                -0.0794252,
                -0.071129195,
                -0.04565108,
                -0.08651634,
                -0.14851856,
                -0.2762457,
                -0.25857747,
                0.1840637,
                0.06587118,
                -0.11880766,
                0.033207785,
                0.047062013,
                -0.16812597,
                -0.07275093,
                -0.06485614,
                -0.027365336,
                0.08213974,
                0.1022493,
                -0.14221421,
                -0.13017362,
                0.048118927,
                0.18044606,
                -0.06277242,
                0.34846142,
                0.52930236,
                -0.39293852,
                -0.27187935,
                0.32856447,
                -0.2221112,
                -0.15433292,
                -0.007847115,
                0.015545053,
                0.20282754,
                -0.023175135,
                -0.35386142,
                0.13814935,
                -0.09196673,
                0.05042143,
                -0.022473957,
                -0.120299555,
                0.25281653,
                -0.08610946,
                -0.21088982,
                -0.2698415,
                -0.2625985,
                -0.28880063,
                0.19632176,
                -0.09411826,
                -0.18695402,
                -0.32857153,
                -0.11028905,
                -0.17294675,
                -0.25652716,
                0.102011874,
                0.06939334,
                -0.1648806,
                0.098513246,
                0.21455456,
                0.21495506,
                0.10979372,
                0.3703918,
                0.11902396,
                -0.1296229,
                0.13846092,
                0.30219325,
                0.18690673,
                -0.09584347,
                -0.15508361,
                0.11068401,
                -0.1354526,
                -0.25038928,
                0.082854345,
                0.37659124,
                -0.17389897,
                -0.07525256,
                -0.031885557,
                -0.2423563,
                -0.061822463,
                -0.073864765,
                -0.017690357,
                0.020665947,
                -0.21875098,
                -0.1747943,
                -0.14073104,
                -0.12682486,
                0.23110217,
                -0.09002024,
                -0.24206781,
                -0.49580228,
                -0.044937875,
                -0.6779325,
                -0.028529195,
                -0.2915675,
                0.14007047,
                -0.42235065,
                -0.25528345,
                -0.056406785,
                0.1057744,
                -0.19961421,
                -0.026940677,
                0.19655272,
                0.05561101,
                -0.23379879,
                -0.059418906,
                0.015769698,
                -0.27330455,
                -0.117332704,
                -0.25502312,
                0.11444037,
                -0.063213065,
                0.03784019,
                0.0013799183,
                0.08784901,
                0.22591096,
                0.025095873,
                -0.31600595,
                0.04527397,
                0.11788046,
                0.013707802,
                -0.04926344,
                0.28396684,
                0.15355834,
                0.06337743,
                -0.15214646,
                -0.16070035,
                0.38940525,
                -0.034975022,
                -0.23088741,
                -0.25445294,
                0.24429865,
                0.1573354,
                -0.024188168,
                -0.20981437,
                0.022426698,
                -0.1265475,
                -0.09398375,
                -0.10149775,
                0.10028646,
                -0.2624273,
                0.053375162,
                0.042606566,
                -0.02528455,
                0.11207753,
                0.14281876,
                0.15161514,
                0.20074017,
                -0.06967011,
                -0.44044062,
                0.034211572,
                0.20454514,
                -0.04763543,
                0.14785412,
                -0.058773886,
                0.17912778,
                -0.25435457,
                -0.28833437,
                -0.17022726,
                -0.080380924,
                -0.0063839797,
                -0.20020999,
                -0.31071636,
                0.07689358,
                -0.17332408,
                -0.10026834,
                -0.34592682,
                0.21059105,
                -0.2684587,
                0.04183079,
                0.028962886,
                -0.060201965,
                0.34833014,
                0.2327619,
                -0.22685799,
                -0.16877075,
                -0.07167306,
                0.28231913,
                0.050982736,
                -0.2113509,
                0.2652025,
                0.044332728,
                -0.137078,
                0.14399707,
                -0.27132052,
                -0.10772775,
                -0.13359527,
                0.09341118,
                0.18542832,
                0.12157898,
                0.029210016,
                0.36589915,
                0.5168561,
                -0.15113534,
                -0.073966205,
                -0.30831748,
                0.07179652,
                -0.28524858,
                -0.252341,
                0.16270995,
                0.1414389,
                -0.034470417,
                0.0056895744,
                0.40181288,
                -0.071534686,
                0.14558332,
                0.02796965,
                -0.17319754,
                -0.032691754,
                -0.18685739,
                -0.028796643,
                -0.08906922,
                0.37428296,
                -0.17256124,
                -0.24700364,
                -0.07704338,
                0.22773264,
                -0.15918979,
                -0.1331304,
                0.01930026,
                -0.020652238,
                -0.07837424,
                -0.13616958,
                0.16101009,
                0.06584563,
                -0.062418662,
                -0.5027996,
                0.011960801,
                -0.1762642,
                -0.2253558,
                -0.16010842,
                -0.12331414,
                0.12238075,
                -0.017573047,
                0.020403557,
                0.056201037,
                -0.17702906,
                -0.23443906,
                -0.1642875,
                -0.15091081,
                0.17287093,
                0.14935824,
                -0.402283,
                -0.18973567,
                0.06381386,
                0.21712828,
                0.08696841,
                0.19756074,
                -0.21543974,
                -0.325157,
                -0.1755928,
                -0.14480038,
                -0.053430244,
                0.38202873,
                -0.10083905,
                -0.09397519,
                0.0021631662,
                0.026617149,
                -0.118607335,
                0.05240091,
                -0.1446616,
                0.17340732,
                0.011837388,
                -0.011852417,
                -0.013091473,
                -0.12186565,
                -0.2993648,
                0.011813779,
                0.1767982,
                -0.46664104,
                0.0025822986,
                0.0598696,
                -0.2490121,
                -0.04479541,
                0.02564484,
                0.27678046,
                -0.020911364,
                0.20414633,
                -0.13894379,
                0.30685762,
                0.29013744,
                0.3048367,
                0.061000437,
                -0.085930474,
                0.009079479,
                0.026582528,
                -0.20063338,
                -0.082258016,
                0.1770616,
                0.053973693,
                0.2548565,
                0.12824744,
                -0.04066662,
                0.24954519,
                0.25843915,
                -0.2836535,
                0.15712842,
                -0.12949982,
                -0.20323697,
                -0.060647152,
                0.37870398,
                0.26571724,
                -0.06534696,
                -0.14877225,
                -0.100473925,
                -0.060744178,
                -0.156074,
                0.15748993,
                0.11013058,
                -0.17827952,
                -0.038858302,
                -0.099481024,
                -0.08726813,
                0.060710512,
                -0.14308502,
                0.20424455,
                -0.5473519,
                0.3035874,
                0.23530903,
                -0.21978928,
                0.1895829,
                0.06671305,
                0.023135314,
                0.061699823,
                0.07367566,
                -0.0006914586,
                -0.17719164,
                -0.44906667,
                -0.17046711,
                -0.023392338,
                0.2511754,
                0.100240454,
                0.04118735,
                -0.07656585,
                0.07488441,
                0.030396227,
                0.27781993,
                -0.32197404,
                -0.2860629,
                -0.23135963,
                0.44187433,
                -0.37788787,
                0.26786304,
                -0.09211436,
                0.10526545,
                0.008125095,
                0.09295318,
                -0.054000787,
                -0.07832034,
                0.055477828,
                -0.05836194,
                -0.210412,
                0.15606947,
                0.16272905,
                -0.26054427,
                0.0958545,
                -0.09443402,
                0.20986088,
                -0.019998284,
                -0.36418673,
                -0.021688811,
                -0.45069194,
                -0.39379427,
                -0.011341554,
                -0.11441038,
                0.19986147,
                -0.09064694,
                -0.28166732,
                0.23234144,
                0.008331193,
                -0.031124253,
                0.14040743,
                0.10775403,
                0.28467312,
                0.02454218,
                0.08668332,
                -0.11722773,
                0.14511056,
                -0.12736174,
                0.27135256,
                -0.018328108,
                -0.22170022,
                -0.07671496,
                0.23956041,
                -0.23616251,
                -0.05399699,
                0.09699222,
                -0.07734291,
                -0.052975908,
                0.15513836,
                -0.06796393,
                0.31060222,
                0.3271684,
                -0.29647806,
                0.08221355,
                0.013720885,
                -0.24825129,
                0.22022837,
                0.11945451,
                -0.1552087,
                0.019639246,
                0.50205654,
                -0.12938951,
                -0.17818111,
                -0.04090435,
                0.026986513,
                -0.036426216,
                0.08705995,
                0.029335342,
                -0.048912957,
                0.17426808,
                -0.45354977,
                0.16619016,
                -0.14758734,
                -0.14469913,
                -0.041983873,
                -0.025323786,
                -0.05478394,
                -0.16617256,
                -0.25794664,
                0.33837378,
                -0.17593451,
                -0.042325404,
                -0.28771138,
                0.13034274,
                -0.12719913,
                0.17721295,
                -0.1928669,
                -0.26384065,
                -0.18506195,
                0.09276699,
                -0.47264004,
                0.07792748,
                0.1566141,
                -0.15907079,
                0.40088576,
                -0.27878177,
                0.06367852,
                0.045652654,
                -0.045338895,
                -0.25755632,
                -0.110493496,
                -0.10838167,
                0.18702945,
                0.26584947,
                0.0035773683,
                0.3934196,
                0.20755474,
                -0.025357012,
                0.10954044,
                0.21520859,
                0.0389007,
                0.09010499,
                0.11386755,
                0.05917542,
                0.0791917,
                0.072230764,
                0.08565353,
                0.3272412,
                -0.09992345,
                0.15865748,
                0.039700575,
                -0.054723322,
                -0.019754875,
                -0.21463284,
                0.0030174926,
                0.22939172,
                -0.09201245,
                0.12858151,
                0.10892112,
                -0.3010205,
                0.08348445,
                -0.2492733,
                -0.13559592,
                -0.033825457,
                0.2954144,
                0.27575284,
                -0.19970883,
                -0.39242595,
                0.13040632,
                -0.18523332,
                -0.025582654,
                -0.055593085,
                -0.2930377,
                -0.13600063,
                -0.1623815,
                0.20478691,
                -0.22577421,
                -0.018322142,
                -0.1597451,
                0.313756,
                0.11981286,
                0.098705284,
                0.11353243,
                0.33312157,
                -0.3840858,
                -0.098731324,
                0.14663774,
                -0.13430315,
                -0.030296914,
                -0.46642515,
                0.13497546,
                -0.10384493,
                0.23047882,
                -0.15483597,
                -0.008563538,
                -0.122938156,
                -0.07624016,
                0.26039055,
                0.17413826,
                0.15821785,
                0.14357215,
                -0.24751438,
                -0.2568801,
                0.23119225,
                0.48498267,
                0.23139983,
                0.09727369,
                0.09763031,
                0.045550987,
                0.43246865,
                0.25703394,
                0.16165735,
                -0.14005998,
                -0.04280731,
                -0.022349862,
                -0.06332781,
                -0.24961282,
                0.25406465,
                0.08912994,
                0.29294223,
                -0.0013594823,
                0.014361892,
                -0.046390712,
                -0.04577948,
                -0.018809516,
                -0.10479895,
                0.23721683,
                -0.1199433,
                0.11063613,
                0.1735627,
                -0.03515587,
                0.22416331,
                0.11558181,
                0.027432311,
                -0.019457722,
                -0.22877993,
                0.20479651,
                -0.18037683,
                0.29866958,
                -0.12943074,
                0.019405004,
                -0.27177423,
                -0.07271156,
                0.105194665,
                0.23542976,
                0.1716143,
                0.032060273,
                -0.11973946,
                -0.3512574,
                0.43438414,
                -0.08103979,
                0.11110573,
                0.0063188113,
                -0.119995505,
                -0.292109,
                -0.1210162,
                -0.16253172,
                0.31171754,
                -0.28686288,
                0.07611052,
                0.3498636,
                0.057967678,
                -0.09352698,
                0.2822505,
                -0.04952541,
                -0.10594045,
                -0.35467613,
                0.25889283,
                0.039563708,
                0.06843633,
                -0.1617476,
                -0.20322669,
                0.09160329,
                -0.04967627,
                -0.03423741,
                0.36973086,
                -0.049998116,
                -0.059048247,
                -0.11369653,
                0.38109586,
                -0.08652687,
                0.032652635,
                0.18494722,
                0.2574436,
                -0.04527082,
                0.33593753,
                -0.05801912,
                0.0398705,
                0.38230065,
                -0.19057688,
                0.10000246,
                -0.06609416,
                0.30520466,
                -0.09289869,
                -0.059151452,
                0.1318157,
                -0.28192282,
                0.052965842,
                -0.2702995,
                -0.03293845,
                -0.019716714,
                0.2294883,
                -0.09164093,
                -0.38729587,
                0.28689894,
                0.017972399,
                0.10884018,
                0.02950125,
                0.17075512,
                -0.058772784,
                0.16326496,
                0.06962414,
                0.15582106,
                -0.052036896,
                -0.11595163,
                0.31638646,
                0.17344174,
                -0.0077853044,
                0.036305796,
                0.09723519,
                0.36872676,
                -0.14198384,
                -0.26889625,
                -0.13988963,
                -0.17229949,
                0.243071,
                -0.009381543,
                -0.36595458,
                0.56842333,
                -0.10132657,
                0.0725192,
                -0.38218123,
                -0.1279617,
                -0.106848456,
                -0.0393821,
                0.3275647,
                -0.01059928,
                -0.06525025,
                -0.063690946,
                0.24967283,
                -0.24013957,
                0.023877233,
                -0.2958718,
                0.37469232,
                0.078146614,
                0.07588828,
                0.1298941,
                0.017541155,
                0.081295386,
                -0.33864504,
                0.08680369,
                0.10037592,
                0.029814523,
                0.15993553,
                0.018425424,
                0.028540408,
                -0.096252024,
                0.24631213,
                -0.05917629,
                -0.0601001,
                -0.04426983,
                -0.09239391,
                -0.35961378,
                0.32489163,
                -0.14067431,
                0.09125761,
                -0.2964202,
                0.16457745
              ]
            },
            "biases": {
              "v": 1,
              "dim": [
                32
              ],
              "data": [
                0.115787074,
                -0.21874301,
                -0.0392805,
                0.072463125,
                -0.1129632,
                -0.012868215,
                -0.07451163,
                -0.0070064124,
                0.14815664,
                0.05635943,
                -0.15246859,
                0.1884669,
                0.2123989,
                -0.27721834,
                -0.1653853,
                -0.08286861,
                0.1578818,
                -0.01638354,
                -0.3259708,
                0.19140413,
                0.10735545,
                0.24630484,
                -0.19081724,
                0.16762093,
                -0.38155162,
                0.16210827,
                -0.18357718,
                0.14961831,
                -0.13853203,
                -0.13895026,
                -0.32176048,
                -0.11708031
              ]
            }
          },
          {
            "weights": {
              "v": 1,
              "dim": [
                16,
                32
              ],
              "data": [
                -0.010930536,
                0.20760554,
                -0.13809927,
                -0.18511766,
                -0.5076453,
                -0.18901297,
                0.16339087,
                -0.18111233,
                0.03309267,
                0.02580856,
                0.13006094,
                -0.29323485,
                0.031713348,
                0.07541337,
                -0.032648105,
                0.09477826,
                0.35280272,
                -0.18304724,
                0.2491737,
                0.19836149,
                -0.29925564,
                -0.1676116,
                0.34701493,
                -0.16982158,
                0.15276799,
                -0.10972271,
                -0.08356032,
                0.2533599,
                0.034175687,
                0.10092384,
                0.05949647,
                0.011326902,
                -0.21458739,
                0.11084071,
                -0.21061362,
                -0.17591967,
                0.12959729,
                0.2298043,
                0.064139895,
                -0.10825729,
                0.22308725,
                0.19955914,
                -0.19885483,
                -0.11678651,
                -0.10702177,
                -0.07948807,
                -0.14923404,
                0.04184573,
                0.24925144,
                0.1334905,
                -0.23789929,
                -0.07084352,
                0.15985537,
                0.13128313,
                -0.1775577,
                -0.4053341,
                -0.10929166,
                -0.0010481142,
                -0.016614085,
                -0.011410285,
                -0.17763133,
                0.0749228,
                -0.27813604,
                -0.20681934,
                -0.054978367,
                0.1007078,
                -0.09977489,
                -0.12082322,
                -0.08624755,
                0.24604495,
                -0.334421,
                0.0049489588,
                0.15254405,
                0.008268462,
                0.03736356,
                -0.055777643,
                -0.1437088,
                -0.023959834,
                -0.26653177,
                0.11872822,
                -0.069032595,
                -0.06841659,
                -0.09104154,
                -0.18991041,
                0.014233092,
                0.24670993,
                0.053135764,
                -0.14678071,
                0.14264213,
                -0.388503,
                0.085267805,
                -0.11178851,
                0.12221584,
                -0.26456106,
                0.12084975,
                0.13239218,
                0.26236153,
                -0.21472539,
                -0.35283616,
                0.14639683,
                0.18713498,
                0.07468111,
                0.09574321,
                -0.03123261,
                0.0049005356,
                0.06589346,
                0.103338644,
                -0.29031453,
                0.022253376,
                -0.088167325,
                0.08034781,
                -0.22261284,
                0.17025122,
                0.04333601,
                -0.032001078,
                0.33703664,
                0.2325011,
                0.20706666,
                -0.19279192,
                0.073041424,
                0.038650803,
                -0.2118979,
                -0.26912856,
                -0.17724803,
                0.07152623,
                0.028406132,
                0.12134104,
                0.03594152,
                0.07621344,
                -0.14544229,
                0.19893314,
                0.22594135,
                0.19329506,
                -0.051565364,
                -0.36982954,
                -0.17570117,
                -0.34965134,
                0.18944955,
                0.06745545,
                0.15311901,
                0.19938326,
                -0.12310874,
                0.3224915,
                -0.07433698,
                -0.1804374,
                0.17368704,
                -0.017569885,
                0.389522,
                -0.00036302023,
                0.27989563,
                -0.13771468,
                -0.3265908,
                0.045561936,
                -0.21453846,
                -0.0014965553,
                0.21513908,
                -0.051864,
                0.42854565,
                -0.29040578,
                -0.17796893,
                -0.036354125,
                -0.27633253,
                0.057599563,
                -0.09789465,
                0.032701172,
                -0.07100691,
                -0.11590004,
                0.028877717,
                0.055328436,
                0.0018960284,
                0.08645302,
                0.10693509,
                -0.0009359522,
                0.09928371,
                0.027667224,
                -0.070129275,
                -0.5060162,
                0.0925251,
                0.21801625,
                -0.03303498,
                -0.017056547,
                0.37773585,
                -0.25144657,
                -0.29689503,
                0.17880064,
                -0.37424907,
                0.20585862,
                0.11658341,
                -0.21791586,
                0.17174539,
                0.2493061,
                0.008861709,
                -0.24956687,
                -0.35588676,
                -0.06606596,
                0.24921845,
                -0.15585154,
                0.14814398,
                -0.06334997,
                0.25642878,
                0.23768336,
                0.124406055,
                -0.0040030126,
                -0.014632216,
                -0.2600513,
                0.08245092,
                -0.07278308,
                0.039066613,
                -0.23285422,
                -0.31453776,
                -0.08942712,
                0.28762326,
                0.021797486,
                0.112796985,
                0.1602254,
                -0.41007322,
                0.087224066,
                -0.26496577,
                -0.0069908584,
                -0.048492353,
                0.11233838,
                -0.11872928,
                0.033758506,
                -0.08370356,
                0.23675436,
                -0.26562488,
                0.12153033,
                -0.17129073,
                -0.1081762,
                0.06989868,
                -0.11674871,
                0.18006116,
                0.1922783,
                0.03476066,
                0.022615802,
                -0.05826918,
                0.13406785,
                -0.10660425,
                -0.02831074,
                0.030272039,
                -0.007138515,
                0.058626253,
                -0.0697739,
                0.16198644,
                -0.031459875,
                -0.117524624,
                0.09361099,
                -0.1553348,
                -0.087083176,
                -0.009762403,
                -0.033704717,
                -0.4570117,
                0.00043962337,
                0.079525456,
                0.38793793,
                0.000038140453,
                0.052027017,
                0.09793238,
                -0.08582822,
                -0.30700237,
                -0.100533836,
                -0.36271885,
                0.022964824,
                0.20551583,
                0.13051698,
                -0.35004526,
                -0.25733507,
                0.25193185,
                -0.21240072,
                0.10055725,
                -0.09743971,
                -0.1779325,
                0.17791681,
                0.2935366,
                -0.09585215,
                0.34876996,
                -0.47042522,
                0.04801716,
                0.06374056,
                0.07699212,
                0.29192165,
                -0.435529,
                0.15647072,
                -0.11770642,
                -0.005668089,
                0.058639623,
                0.1485152,
                -0.39904302,
                0.062775746,
                0.1101249,
                0.19080688,
                0.077691615,
                -0.054677375,
                -0.024727058,
                -0.34368032,
                0.051033545,
                0.26006892,
                0.20721047,
                0.19481067,
                0.07812969,
                -0.35797915,
                0.020491369,
                -0.45595443,
                0.2514109,
                0.14422193,
                0.12627828,
                0.14098385,
                0.050313592,
                -0.36994,
                0.3780536,
                0.21920897,
                0.16172118,
                -0.057925396,
                0.5021176,
                0.3227686,
                0.04904829,
                -0.24866092,
                -0.007813245,
                -0.008030328,
                0.3986399,
                -0.24196108,
                -0.049426526,
                -0.14976822,
                -0.23424226,
                -0.17435303,
                0.18689734,
                0.13320053,
                0.11849705,
                -0.12098338,
                -0.20734048,
                -0.051839843,
                0.16387916,
                -0.17794082,
                0.019649643,
                -0.14424987,
                -0.10268309,
                -0.014909014,
                -0.22603844,
                -0.099523425,
                -0.1232318,
                -0.16264763,
                0.04735721,
                0.1646633,
                -0.15315606,
                0.130968,
                0.004859144,
                0.1767948,
                -0.028532574,
                -0.01620908,
                -0.08844875,
                -0.2814391,
                -0.17734188,
                -0.0136509985,
                -0.04491336,
                0.07959074,
                0.036711283,
                -0.17750472,
                -0.062595256,
                -0.094735146,
                0.30277362,
                0.0048603388,
                0.026642013,
                0.005964121,
                0.18293922,
                0.119557045,
                0.20803235,
                -0.1171266,
                -0.23833323,
                0.10308566,
                0.08272632,
                0.4961451,
                -0.12612848,
                0.13333812,
                -0.03141848,
                -0.091661125,
                0.2666543,
                0.009641059,
                0.2045557,
                -0.18801351,
                -0.15412787,
                -0.13779877,
                -0.09661442,
                0.31198335,
                0.12916689,
                -0.24397008,
                -0.06117794,
                0.37978923,
                -0.22860125,
                0.039265625,
                -0.21671996,
                -0.029637123,
                0.19185825,
                -0.28063962,
                0.06591375,
                0.024002051,
                0.10438417,
                0.02999632,
                -0.03671353,
                0.15617527,
                0.19312802,
                0.13554412,
                -0.013102028,
                0.07830067,
                0.41217065,
                -0.31247354,
                -0.30370042,
                -0.022159003,
                0.51730305,
                -0.04423581,
                0.117396295,
                0.17389573,
                -0.14070867,
                -0.11003207,
                0.11960111,
                0.028831579,
                0.20796208,
                -0.24479583,
                0.23575833,
                -0.030981213,
                -0.20692892,
                -0.034940902,
                -0.14040998,
                0.24553573,
                0.24433765,
                -0.10305802,
                -0.24821176,
                -0.060172826,
                0.03580539,
                0.018477142,
                -0.08848963,
                -0.3744826,
                -0.083196014,
                -0.1433885,
                -0.011012487,
                -0.33895847,
                0.011215416,
                0.0496951,
                0.13064483,
                0.17649187,
                0.042345338,
                0.28474522,
                0.19203795,
                -0.25496536,
                0.24990466,
                0.32912648,
                0.015312974,
                -0.14535478,
                0.3532293,
                0.09560449,
                0.2873168,
                -0.12271396,
                -0.13448098,
                0.0007605264,
                0.2769524,
                -0.091466635,
                0.19404602,
                -0.02300341,
                -0.19357803,
                -0.14712715,
                -0.14559221,
                0.050321747,
                -0.10858332,
                -0.04871439,
                -0.08940532,
                -0.18924196,
                0.013914916,
                0.041626245,
                -0.26133332,
                0.17717585,
                -0.35380402,
                -0.046584312,
                0.25250813,
                -0.11305309,
                -0.3511349,
                0.039452683,
                0.10064451,
                -0.09829584,
                0.1359641,
                -0.210977,
                0.18393874,
                0.08992348,
                0.028002797,
                0.06709294,
                -0.15602309,
                -0.13250735,
                -0.069118254,
                -0.19781846,
                0.20009159,
                0.070175834,
                -0.34977207,
                -0.13014932,
                -0.08614401,
                -0.14515395,
                0.23750412,
                -0.13043876,
                0.17207794,
                -0.17700778,
                0.059868477,
                -0.0068125064,
                -0.011392554,
                0.10977383,
                -0.20673911,
                -0.082234584,
                -0.09479613,
                0.390274,
                -0.0079824915,
                0.1135171,
                0.14685953,
                -0.048800286,
                -0.13894758,
                -0.18164878,
                -0.11404973
              ]
            },
            "biases": {
              "v": 1,
              "dim": [
                16
              ],
              "data": [
                -0.0073271906,
                0.03967935,
                -0.21685567,
                0.2514864,
                -0.21329509,
                0.3033393,
                0.19558129,
                0.11060869,
                -0.09615864,
                -0.30116907,
                -0.12649423,
                0.16237293,
                -0.059959758,
                0.45473206,
                -0.13196303,
                0.08788672
              ]
            }
          },
          {
            "weights": {
              "v": 1,
              "dim": [
                11,
                16
              ],
              "data": [
                -0.75944024,
                0.23014395,
                0.28383815,
                -0.29954103,
                -0.22335956,
                0.24352384,
                0.03930235,
                0.18974358,
                -0.1327598,
                0.04482865,
                -0.28393173,
                0.28361896,
                0.025862385,
                0.10630566,
                0.15146409,
                0.14210083,
                -0.28705153,
                0.29925674,
                -0.008109978,
                -0.29113835,
                0.08993933,
                0.17630571,
                0.09664044,
                -0.2904222,
                0.11201389,
                -0.076142505,
                -0.03388612,
                -0.17949346,
                0.03400491,
                -0.17278877,
                0.068993166,
                0.25528198,
                0.021695072,
                0.02996931,
                -0.056316607,
                -0.27034125,
                -0.33116856,
                -0.0367705,
                -0.10259861,
                -0.019578256,
                0.007922663,
                -0.00518189,
                0.18997163,
                0.050722793,
                0.068405576,
                -0.18279286,
                0.27159315,
                -0.13188185,
                -0.17463768,
                -0.32975712,
                0.02945803,
                -0.011436287,
                0.20735787,
                -0.11263162,
                -0.019506508,
                -0.26849937,
                0.3252098,
                -0.004081564,
                -0.056374364,
                0.22632067,
                -0.03807022,
                0.031543434,
                0.11887614,
                -0.04880469,
                0.12306733,
                0.019602193,
                0.15088822,
                -0.07755981,
                -0.28704727,
                0.09009163,
                -0.19524476,
                -0.18665706,
                0.08437091,
                -0.07967996,
                0.19710143,
                0.3128325,
                -0.090967156,
                -0.27049324,
                -0.08488661,
                -0.1860792,
                0.14698125,
                0.07151862,
                -0.34619203,
                -0.05967821,
                0.07970294,
                0.09573593,
                -0.110236816,
                -0.03553924,
                0.0068763187,
                0.2800027,
                -0.14999555,
                -0.21494453,
                0.07137218,
                -0.10463241,
                0.16510442,
                0.15891254,
                -0.14586642,
                -0.42890617,
                -0.29732043,
                -0.28591314,
                0.19027352,
                -0.11566074,
                -0.1913907,
                0.06495339,
                -0.41260746,
                0.21403234,
                0.24071579,
                -0.165251,
                -0.3644433,
                -0.118666574,
                -0.16074489,
                0.1920001,
                -0.012295384,
                -0.09007482,
                -0.31712717,
                -0.22680156,
                -0.14705269,
                0.036455862,
                -0.3541768,
                0.34597299,
                -0.065825835,
                0.023306105,
                -0.23418052,
                -0.12618718,
                -0.012872126,
                0.25146726,
                0.07579543,
                0.100456886,
                0.24795513,
                -0.26492652,
                -0.37597167,
                0.024314685,
                0.06718477,
                0.026864182,
                -0.110127255,
                -0.093195416,
                -0.23575519,
                -0.1853633,
                -0.18005517,
                0.024873186,
                -0.044435717,
                -0.028584212,
                -0.18208586,
                0.14126824,
                -0.027996922,
                0.25406167,
                0.16874938,
                0.33171707,
                0.04271686,
                -0.1051782,
                -0.1976149,
                0.066924214,
                -0.082115114,
                -0.14927092,
                0.08926277,
                0.22536579,
                0.009549689,
                0.08777511,
                0.31606692,
                0.115991786,
                0.09459803,
                -0.061691783,
                -0.15791617,
                -0.076549284,
                -0.12402855,
                -0.10077682,
                0.17055285,
                0.020691048,
                -0.03873591,
                -0.06654414,
                0.19090268,
                0.15543899,
                0.05089798,
                0.122614026,
                0.028966008,
                -0.18511441
              ]
            },
            "biases": {
              "v": 1,
              "dim": [
                11
              ],
              "data": [
                -0.19809544,
                0.10819021,
                -0.02895603,
                0.12182311,
                0.08872968,
                -0.16752869,
                0.08650027,
                0.13350615,
                -0.059217423,
                0.4847313,
                0.029586367
              ]
            }
          }
        ]
      },
      "attack_cooldown": -0.049999993
    },
    {
      "id": 17610,
      "age": 13.450033,
      "score": 17,
      "pos": {
        "v": 1,
        "dim": [
          2
        ],
        "data": [
          403.88187,
          569.5772
        ]
      },
      "rot": -1.6304995,
      "energy": 0.29492027,
      "signal": {
        "v": 1,
        "dim": [
          4
        ],
        "data": [
          0.5164635,
          0.5325714,
          0.42239797,
          0.5345342
        ]
      },
      "memory": {
        "v": 1,
        "dim": [
          4
        ],
        "data": [
          -0.058065243,
          -0.3278834,
          -0.054968774,
          0.278563
        ]
      },
      "brain": {
        "layers": [
          {
            "weights": {
              "v": 1,
              "dim": [
                32,
                24
              ],
              "data": [
                0.22815692,
                0.11342184,
                0.19455847,
                -0.40570602,
                0.3665076,
                0.13192113,
                -0.020473236,
                -0.17366284,
                0.29404283,
                -0.13124993,
                0.5735436,
                0.05815513,
                -0.27812853,
                0.0015004622,
                -0.23590633,
                0.04250558,
                0.17904468,
                0.08278862,
                -0.038965814,
                0.12893127,
                0.15679568,
                0.031495284,
                -0.15882897,
                0.010797985,
                0.036701374,
                -0.0060682762,
                -0.0032007874,
                0.054341216,
                -0.13774535,
                -0.020169424,
                -0.30621266,
                -0.062408276,
                -0.11397302,
                -0.40337718,
                0.0415347,
                -0.020860776,
                -0.0057260403,
                -0.16728984,
                0.19773467,
                0.3731721,
                0.27605072,
                0.10737552,
                -0.17529666,
                -0.038006194,
                -0.27280486,
                -0.24057803,
                0.16644083,
                0.10227221,
                -0.052422013,
                0.1909119,
                0.16174369,
                -0.41617644,
                0.0015644422,
                -0.2554273,
                -0.07021653,
                0.10246123,
                -0.32206535,
                0.06378646,
                -0.06663265,
                -0.05128231,
                -0.01346493,
                -0.23335758,
                -0.36214063,
                -0.091961734,
                0.19572651,
                -0.131351,
                -0.30389708,
                -0.16185361,
                0.1822497,
                0.10318324,
                0.11388013,
                0.014709236,
                0.23820025,
                -0.12919037,
                -0.05215589,
                -0.041831724,
                -0.41071916,
                0.0012399135,
                0.28477526,
                0.0866518,
                0.201576,
                0.2556403,
                0.015040062,
                0.008190904,
                0.12253968,
                -0.25796598,
                -0.19171634,
                -0.21751094,
                -0.053534575,
                0.342232,
                -0.17763472,
                -0.064379565,
                -0.06732795,
                -0.059207812,
                -0.05498672,
                -0.17642102,
                -0.23582374,
                -0.20172405,
                0.20298463,
                0.067850076,
                -0.13077131,
                -0.00434642,
                0.03732842,
                -0.18206117,
                -0.08813982,
                -0.059773035,
                -0.04250381,
                0.08478225,
                0.07650106,
                -0.13988817,
                -0.13926768,
                0.054855965,
                0.15006632,
                -0.030621506,
                0.31563786,
                0.5233693,
                -0.39900535,
                -0.24916345,
                0.3451553,
                -0.23147479,
                -0.12518165,
                0.0009592541,
                0.023376891,
                0.22861981,
                -0.0102607235,
                -0.3687384,
                0.13877752,
                -0.085858,
                0.058405444,
                0.011287997,
                -0.09788318,
                0.21761033,
                -0.08015853,
                -0.2407576,
                -0.246038,
                -0.27077106,
                -0.30257487,
                0.21721722,
                -0.080855265,
                -0.16497904,
                -0.3201181,
                -0.11295666,
                -0.17001918,
                -0.21971999,
                0.098224245,
                0.06786867,
                -0.14049168,
                0.08884864,
                0.22726268,
                0.17821631,
                0.083265014,
                0.37798944,
                0.09885297,
                -0.11175975,
                0.14400426,
                0.33067352,
                0.19417681,
                -0.06879042,
                -0.13034867,
                0.10637535,
                -0.1250066,
                -0.2422446,
                0.06297333,
                0.36441648,
                -0.16134426,
                -0.06137703,
                -0.022192746,
                -0.20521373,
                -0.06674817,
                -0.053705163,
                -0.009174295,
                0.047781266,
                -0.19655108,
                -0.20292112,
                -0.15539068,
                -0.15304592,
                0.19978453,
                -0.093345,
                -0.2408958,
                -0.49904653,
                -0.06531118,
                -0.64476514,
                -0.036217533,
                -0.2642288,
                0.16153447,
                -0.41188574,
                -0.2511313,
                -0.02654178,
                0.10166317,
                -0.20210096,
                -0.011575316,
                0.16632122,
                0.05241459,
                -0.26334572,
                -0.07912405,
                0.0066213566,
                -0.3013955,
                -0.09854479,
                -0.25581956,
                0.10253641,
                -0.049061816,
                0.06162909,
                -0.016047852,
                0.079415485,
                0.22335729,
                0.06392798,
                -0.29389286,
                0.031505182,
                0.09642704,
                0.03560602,
                -0.043567292,
                0.2873476,
                0.124097034,
                0.03258356,
                -0.14197513,
                -0.14502777,
                0.3750746,
                -0.019793537,
                -0.2078694,
                -0.28036967,
                0.23965266,
                0.17038327,
                -0.04486265,
                -0.2196179,
                0.034202605,
                -0.14682999,
                -0.10292193,
                -0.07361815,
                0.09963965,
                -0.24270806,
                0.06515978,
                0.047317952,
                0.0013369282,
                0.11375654,
                0.17494941,
                0.13125342,
                0.21798448,
                -0.07640022,
                -0.43646142,
                0.019024977,
                0.18126103,
                -0.024799364,
                0.16261491,
                -0.07965267,
                0.16127872,
                -0.22511566,
                -0.26443338,
                -0.16524616,
                -0.060796894,
                -0.028846635,
                -0.21962303,
                -0.30336487,
                0.0687948,
                -0.17149761,
                -0.08021483,
                -0.32198843,
                0.19356106,
                -0.25479034,
                0.052874334,
                0.021222774,
                -0.07497659,
                0.36651075,
                0.23260027,
                -0.20570204,
                -0.1726444,
                -0.050993145,
                0.27358627,
                0.061251782,
                -0.19804488,
                0.21622667,
                0.024188168,
                -0.13210288,
                0.16449866,
                -0.26388335,
                -0.07541729,
                -0.12793702,
                0.10339895,
                0.16991171,
                0.087225676,
                0.016194265,
                0.35108995,
                0.5313001,
                -0.15736929,
                -0.07404652,
                -0.31025103,
                0.067545965,
                -0.2658109,
                -0.22816381,
                0.14330977,
                0.14177361,
                -0.03776711,
                0.018446315,
                0.36021674,
                -0.0413853,
                0.15809292,
                0.017596135,
                -0.17947951,
                -0.07406953,
                -0.16169211,
                -0.056456808,
                -0.09394157,
                0.38821113,
                -0.20432964,
                -0.2639851,
                -0.059520572,
                0.24402434,
                -0.16478124,
                -0.15179214,
                0.06289493,
                -0.01975818,
                -0.043684985,
                -0.12826976,
                0.16560952,
                0.046921797,
                -0.04166078,
                -0.5171591,
                -0.005839546,
                -0.1850524,
                -0.21580464,
                -0.16148433,
                -0.16131146,
                0.106828354,
                -0.0042190906,
                0.042544484,
                0.047677178,
                -0.143672,
                -0.23287806,
                -0.12743522,
                -0.12733984,
                0.16423349,
                0.138052,
                -0.41383672,
                -0.22750622,
                0.054473124,
                0.19127418,
                0.1060002,
                0.2017386,
                -0.19248992,
                -0.29881948,
                -0.14975818,
                -0.13696875,
                -0.059178934,
                0.3357976,
                -0.106684744,
                -0.10268826,
                0.03303416,
                0.025417656,
                -0.12051955,
                0.08030774,
                -0.13449095,
                0.15417019,
                0.06351002,
                -0.036540784,
                -0.0151701365,
                -0.09007205,
                -0.31192577,
                0.01773123,
                0.14340329,
                -0.4669894,
                0.028332,
                0.055259213,
                -0.19745414,
                -0.03710123,
                0.034338184,
                0.26699418,
                -0.031211283,
                0.19652823,
                -0.15801056,
                0.31414527,
                0.28923032,
                0.2775371,
                0.030107599,
                -0.06605545,
                0.0049922075,
                0.021122176,
                -0.19458315,
                -0.081300564,
                0.20710911,
                0.07347052,
                0.25269818,
                0.11909583,
                -0.06791349,
                0.22982295,
                0.24338308,
                -0.2550422,
                0.1674858,
                -0.13963015,
                -0.21224332,
                -0.061096475,
                0.39504105,
                0.25505188,
                -0.05655424,
                -0.13513622,
                -0.08616101,
                -0.057967808,
                -0.16101974,
                0.14827175,
                0.08590634,
                -0.1634526,
                -0.027829412,
                -0.080765925,
                -0.075315565,
                0.060864013,
                -0.12685043,
                0.23572835,
                -0.5672821,
                0.28840244,
                0.21125521,
                -0.2351619,
                0.1644083,
                0.026246935,
                0.012775544,
                0.08965468,
                0.05455541,
                -0.03405908,
                -0.18960093,
                -0.44424933,
                -0.13853984,
                -0.031522386,
                0.22215223,
                0.09040165,
                0.04756303,
                -0.057242744,
                0.09843832,
                0.023872426,
                0.27722493,
                -0.3083123,
                -0.24072416,
                -0.20265085,
                0.42690557,
                -0.3701244,
                0.26926088,
                -0.057380006,
                0.10812822,
                -0.0104733845,
                0.08478692,
                -0.07121053,
                -0.07816137,
                0.042536587,
                -0.03688871,
                -0.21706238,
                0.17956266,
                0.16206443,
                -0.24708572,
                0.09457037,
                -0.06641058,
                0.18703112,
                -0.039984673,
                -0.34691215,
                -0.015025705,
                -0.4594708,
                -0.40880337,
                0.009867653,
                -0.11137882,
                0.18396774,
                -0.10561475,
                -0.25800014,
                0.23060557,
                -0.010815613,
                -0.046261188,
                0.1428998,
                0.13245413,
                0.28999192,
                0.0205658,
                0.08269273,
                -0.141927,
                0.15820014,
                -0.14196704,
                0.24523498,
                -0.0060944944,
                -0.18542707,
                -0.07171418,
                0.2270383,
                -0.22985327,
                -0.04420482,
                0.08959147,
                -0.09314345,
                -0.021572199,
                0.1536868,
                -0.043090433,
                0.29386264,
                0.28971347,
                -0.28157353,
                0.08374693,
                0.042200163,
                -0.2793511,
                0.19843641,
                0.11494149,
                -0.15647149,
                0.029610768,
                0.5081397,
                -0.12793824,
                -0.1648623,
                -0.035626914,
                0.052504655,
                -0.023930795,
                0.099557795,
                0.034252092,
                -0.08052471,
                0.19555226,
                -0.44626817,
                0.1560084,
                -0.17201476,
                -0.12512186,
                -0.049396284,
                -0.03842371,
                -0.045476712,
                -0.13219999,
                -0.24307191,
                0.35079813,
                -0.16192129,
                -0.01482329,
                -0.3135202,
                0.122247055,
                -0.100117624,
                0.19648044,
                -0.18740585,
                -0.28143856,
                -0.15425736,
                0.09377374,
                -0.44592655,
                0.07954945,
                0.13646603,
                -0.17563109,
                0.37937295,
                -0.2723639,
                0.061974883,
                0.021709392,
                -0.021959458,
                -0.23568776,
                -0.105278194,
                -0.094332665,
                0.19471034,
                0.24058026,
                0.0012043552,
                0.39937973,
                0.22223578,
                -0.029183503,
                0.109974444,
                0.21283865,
                0.019944996,
                0.114851356,
                0.11544287,
                0.041138493,
                0.08150443,
                0.040692635,
                0.08608404,
                0.34286332,
                -0.09345657,
                0.15686318,
                0.013730926,
                -0.05286766,
                -0.02129507,
                -0.21299753,
                0.01303081,
                0.211276,
                -0.09148288,
                0.097119406,
                0.08359529,
                -0.29953343,
                0.1053226,
                -0.26207417,
                -0.13988441,
                -0.0110343695,
                0.28981537,
                0.24055198,
                -0.21082899,
                -0.37152258,
                0.13514838,
                -0.18001504,
                -0.02330977,
                -0.052509367,
                -0.28981498,
                -0.15506741,
                -0.15497105,
                0.2069856,
                -0.24224275,
                -0.012042638,
                -0.11133293,
                0.28333098,
                0.10024524,
                0.082261086,
                0.095607996,
                0.33581218,
                -0.38700068,
                -0.117359,
                0.14122021,
                -0.106214866,
                -0.060701203,
                -0.43727005,
                0.1603629,
                -0.12167379,
                0.21247132,
                -0.1245137,
                -0.009129452,
                -0.12066018,
                -0.059915453,
                0.2598483,
                0.15710422,
                0.15757638,
                0.13016166,
                -0.2534127,
                -0.2415213,
                0.21298689,
                0.48309508,
                0.20716351,
                0.11753808,
                0.1276322,
                0.02459969,
                0.42091954,
                0.2578795,
                0.16858476,
                -0.13619518,
                -0.038701452,
                -0.029294977,
                -0.08407168,
                -0.2222496,
                0.22301038,
                0.059692435,
                0.30464017,
                -0.012847493,
                -0.017293327,
                -0.07450521,
                -0.039769046,
                0.015745481,
                -0.08754557,
                0.2510762,
                -0.10026504,
                0.12361868,
                0.15034163,
                -0.011379806,
                0.21980923,
                0.12582807,
                0.023917057,
                -0.03236623,
                -0.20656767,
                0.19789794,
                -0.14138612,
                0.27736956,
                -0.13690525,
                0.05646544,
                -0.28165758,
                -0.05583789,
                0.10480374,
                0.26186284,
                0.16655937,
                0.042667516,
                -0.1310384,
                -0.3377028,
                0.43822485,
                -0.042817757,
                0.0927961,
                0.039838515,
                -0.12260224,
                -0.26668653,
                -0.1300669,
                -0.16874307,
                0.33732653,
                -0.313636,
                0.08362818,
                0.33952004,
                0.057137296,
                -0.08811185,
                0.30142567,
                -0.014905875,
                -0.11456057,
                -0.37200922,
                0.23466228,
                0.021465871,
                0.06930959,
                -0.16250548,
                -0.18322453,
                0.08482361,
                -0.04966268,
                -0.033173766,
                0.37882423,
                -0.05939862,
                -0.080942,
                -0.090993434,
                0.37774515,
                -0.080014884,
                0.07327695,
                0.16584027,
                0.25179026,
                -0.05456335,
                0.3553663,
                -0.048665613,
                0.06430831,
                0.3841185,
                -0.2048145,
                0.13413998,
                -0.096886404,
                0.29655674,
                -0.08853569,
                -0.09546573,
                0.13121787,
                -0.28981107,
                0.0080100335,
                -0.2896846,
                -0.053325377,
                0.008146962,
                0.25312132,
                -0.1115769,
                -0.38513193,
                0.25225654,
                0.019120019,
                0.110372275,
                0.020619355,
                0.19614679,
                -0.08671807,
                0.18903494,
                0.057524472,
                0.16869566,
                -0.06318574,
                -0.1189997,
                0.3287958,
                0.18978591,
                0.005411164,
                0.06505966,
                0.102643,
                0.37436205,
                -0.14183512,
                -0.28860778,
                -0.15584534,
                -0.17513889,
                0.24767056,
                -0.007508235,
                -0.35083193,
                0.55736923,
                -0.096563525,
                0.0800699,
                -0.389414,
                -0.11710529,
                -0.12139806,
                -0.04337683,
                0.34049684,
                0.0056676725,
                -0.05287396,
                -0.08771006,
                0.24686457,
                -0.23812935,
                0.01842545,
                -0.31620246,
                0.3746403,
                0.06206336,
                0.09951112,
                0.12856257,
                0.022440057,
                0.081726134,
                -0.33325213,
                0.117038086,
                0.11610603,
                0.032558553,
                0.13785654,
                0.044968132,
                0.038961165,
                -0.07983611,
                0.25965613,
                -0.032562178,
                -0.07481226,
                -0.041517287,
                -0.10624079,
                -0.3802991,
                0.31533718,
                -0.1341336,
                0.09220248,
                -0.29157245,
                0.14866686
              ]
            },
            "biases": {
              "v": 1,
              "dim": [
                32
              ],
              "data": [
                0.116814405,
                -0.16599986,
                -0.002562923,
                0.07904313,
                -0.09760776,
                -0.03206054,
                -0.10960963,
                0.0027690153,
                0.12864383,
                0.052468576,
                -0.15926343,
                0.1809034,
                0.24482274,
                -0.26960492,
                -0.13961492,
                -0.06756615,
                0.18287647,
                0.0021717998,
                -0.32632568,
                0.22174987,
                0.066434115,
                0.20278504,
                -0.1742371,
                0.16711566,
                -0.38937384,
                0.17171767,
                -0.17851716,
                0.1269241,
                -0.17355132,
                -0.119527064,
                -0.32136515,
                -0.14729762
              ]
            }
          },
          {
            "weights": {
              "v": 1,
              "dim": [
                16,
                32
              ],
              "data": [
                -0.0251864,
                0.17207907,
                -0.108236894,
                -0.16081756,
                -0.47275513,
                -0.23184979,
                0.1484245,
                -0.17110854,
                -0.003459421,
                0.008926246,
                0.13670821,
                -0.2531075,
                0.021662913,
                0.07437196,
                -0.010431299,
                0.07716176,
                0.3784078,
                -0.17154408,
                0.22667278,
                0.18973023,
                -0.2938696,
                -0.17811581,
                0.32459438,
                -0.14666194,
                0.1385727,
                -0.0828519,
                -0.096808754,
                0.21838567,
                0.08225852,
                0.122362986,
                0.086430654,
                -0.0050842874,
                -0.19813919,
                0.08422929,
                -0.1807943,
                -0.18384714,
                0.14304769,
                0.22390887,
                0.029609637,
                -0.11650038,
                0.21223298,
                0.2080395,
                -0.18927279,
                -0.109349534,
                -0.08562589,
                -0.044696473,
                -0.13588461,
                0.0073833507,
                0.24729574,
                0.10487375,
                -0.21496767,
                -0.061805215,
                0.17074159,
                0.094930485,
                -0.18603984,
                -0.37218398,
                -0.106340766,
                -0.0027834442,
                -0.0036895492,
                -0.0024534443,
                -0.1578317,
                0.063598916,
                -0.26995558,
                -0.17348212,
                -0.040022627,
                0.1241706,
                -0.08862862,
                -0.10677529,
                -0.059814878,
                0.2348882,
                -0.32583475,
                -0.017616082,
                0.12574637,
                -0.012681251,
                0.033092998,
                -0.05307828,
                -0.11694859,
                -0.07124391,
                -0.2425767,
                0.09920193,
                -0.057243064,
                -0.07763251,
                -0.09911601,
                -0.17242277,
                -0.007111738,
                0.23389621,
                0.05237961,
                -0.14646101,
                0.1408162,
                -0.3565961,
                0.08228926,
                -0.08816679,
                0.10339029,
                -0.26372832,
                0.13948661,
                0.1562455,
                0.2702217,
                -0.19115749,
                -0.34729514,
                0.1186997,
                0.15052369,
                0.032135464,
                0.095158435,
                -0.051417448,
                0.0014935988,
                0.06125618,
                0.07708734,
                -0.29849622,
                0.045368575,
                -0.109063834,
                0.06601653,
                -0.21786374,
                0.18661481,
                0.058181264,
                -0.03649514,
                0.31597733,
                0.23659825,
                0.18721169,
                -0.21353997,
                0.08491135,
                0.013086377,
                -0.2153107,
                -0.23181525,
                -0.1892046,
                0.04708916,
                0.0048679593,
                0.12612638,
                0.03131873,
                0.07982312,
                -0.15023388,
                0.21263552,
                0.25109303,
                0.23447628,
                -0.09090619,
                -0.36171997,
                -0.1513233,
                -0.32742226,
                0.17394891,
                0.102886975,
                0.15431637,
                0.18402877,
                -0.11031953,
                0.3323447,
                -0.090379104,
                -0.17841013,
                0.17140192,
                0.016917609,
                0.40686274,
                0.009398811,
                0.25473297,
                -0.167735,
                -0.3441739,
                0.037149247,
                -0.22015834,
                0.012363953,
                0.23490906,
                -0.056876134,
                0.41845214,
                -0.29342556,
                -0.1621067,
                -0.0236049,
                -0.24962884,
                0.030824792,
                -0.10910614,
                0.05794991,
                -0.101725586,
                -0.07581767,
                0.0080749765,
                0.046394702,
                -0.0019632776,
                0.111685544,
                0.09503687,
                -0.031840876,
                0.08139506,
                0.024249088,
                -0.10968642,
                -0.47285977,
                0.07537237,
                0.19190438,
                0.0091228355,
                -0.00906052,
                0.35051176,
                -0.22284055,
                -0.3108933,
                0.1935824,
                -0.3659475,
                0.1633051,
                0.12695335,
                -0.2400124,
                0.17283025,
                0.27658015,
                -0.016530707,
                -0.23737212,
                -0.32743037,
                -0.030498171,
                0.23836458,
                -0.14117333,
                0.1505757,
                -0.06277978,
                0.23521636,
                0.1992422,
                0.11344151,
                -0.0059805037,
                0.008579135,
                -0.24450633,
                0.07798979,
                -0.09306578,
                0.026021883,
                -0.21704894,
                -0.32061288,
                -0.06142688,
                0.29973,
                0.028172918,
                0.098354176,
                0.17151025,
                -0.43514377,
                0.07558842,
                -0.23669633,
                -0.0034128588,
                -0.058641385,
                0.13184321,
                -0.13352174,
                0.023435343,
                -0.07466871,
                0.22427016,
                -0.28899,
                0.11602705,
                -0.19104925,
                -0.12336393,
                0.091040075,
                -0.115111336,
                0.20017591,
                0.21151225,
                0.02591935,
                0.028100204,
                -0.079819724,
                0.13788523,
                -0.13463193,
                -0.035226673,
                0.006145031,
                -0.010630818,
                0.073849976,
                -0.09627594,
                0.13162974,
                -0.009128052,
                -0.1316787,
                0.10799436,
                -0.16418889,
                -0.097149834,
                -0.015666317,
                -0.010696484,
                -0.44195443,
                -0.008449715,
                0.05178767,
                0.37929448,
                0.004869695,
                0.05298239,
                0.09549663,
                -0.10466607,
                -0.30660295,
                -0.09836017,
                -0.38057792,
                0.035783768,
                0.1740546,
                0.12693192,
                -0.36253494,
                -0.25395006,
                0.26722118,
                -0.21085185,
                0.09562503,
                -0.12042363,
                -0.16375801,
                0.18449454,
                0.3000098,
                -0.07811944,
                0.32272446,
                -0.4461211,
                0.05104502,
                0.05172568,
                0.068848014,
                0.28260002,
                -0.39679945,
                0.13244414,
                -0.08539418,
                -0.003998172,
                0.03713836,
                0.156179,
                -0.4109421,
                0.05269284,
                0.08050869,
                0.17852288,
                0.058037117,
                -0.055598516,
                0.011027878,
                -0.3545313,
                0.04433976,
                0.23016946,
                0.21095547,
                0.20338452,
                0.09799369,
                -0.33814403,
                0.010009926,
                -0.43130636,
                0.24733448,
                0.16467497,
                0.089346275,
                0.15861279,
                0.053610396,
                -0.40212125,
                0.3717267,
                0.2192888,
                0.13133171,
                -0.033590995,
                0.4670307,
                0.34389123,
                0.048039936,
                -0.2143659,
                -0.015176974,
                -0.00538096,
                0.41864794,
                -0.23279637,
                -0.016027976,
                -0.15466335,
                -0.22988734,
                -0.16385823,
                0.15321703,
                0.1206931,
                0.12078119,
                -0.11762257,
                -0.18775257,
                -0.057904914,
                0.12917712,
                -0.21232367,
                0.005196686,
                -0.16935116,
                -0.08849901,
                0.012918945,
                -0.24476439,
                -0.12102142,
                -0.12117179,
                -0.16588163,
                0.01428243,
                0.17135152,
                -0.12937388,
                0.104498446,
                0.020969128,
                0.17985569,
                -0.010758461,
                -0.051178508,
                -0.08089921,
                -0.27975738,
                -0.1791984,
                -0.042630278,
                -0.029430676,
                0.0879591,
                0.06374708,
                -0.18778521,
                -0.06872095,
                -0.10233604,
                0.3121723,
                0.04881385,
                0.04820212,
                -0.030858835,
                0.18443736,
                0.12926802,
                0.24727121,
                -0.11133028,
                -0.25382283,
                0.12252931,
                0.066555604,
                0.51277494,
                -0.10500792,
                0.11740178,
                0.0027259772,
                -0.10893007,
                0.23372078,
                -0.009826599,
                0.23925142,
                -0.19732264,
                -0.1873203,
                -0.1293962,
                -0.06797461,
                0.30634785,
                0.106723346,
                -0.25560373,
                -0.04984848,
                0.38727114,
                -0.20714487,
                0.02055011,
                -0.19517362,
                -0.023163648,
                0.18264565,
                -0.31707245,
                0.07448269,
                0.024000378,
                0.08673462,
                0.024799258,
                -0.041080534,
                0.14463219,
                0.17494899,
                0.11275241,
                -0.015204838,
                0.09845933,
                0.38514358,
                -0.2936368,
                -0.2921371,
                -0.03367232,
                0.51960504,
                -0.014405606,
                0.09065916,
                0.1761301,
                -0.14271477,
                -0.11755806,
                0.081104904,
                0.024324903,
                0.18205416,
                -0.24564743,
                0.22105113,
                -0.027656393,
                -0.17321302,
                -0.023416998,
                -0.1500273,
                0.21785554,
                0.23858163,
                -0.09524636,
                -0.23684943,
                -0.06799428,
                0.038215604,
                0.0018712096,
                -0.10633338,
                -0.38319528,
                -0.05380535,
                -0.15504763,
                -0.012860476,
                -0.3170997,
                0.031511858,
                0.07758352,
                0.15781891,
                0.19203769,
                0.07674849,
                0.2898547,
                0.21423456,
                -0.29040653,
                0.2653011,
                0.33432704,
                0.053368952,
                -0.1580057,
                0.36757416,
                0.091383666,
                0.28096727,
                -0.11201418,
                -0.15938093,
                0.022052005,
                0.23109327,
                -0.091491565,
                0.17770058,
                0.018624907,
                -0.18089151,
                -0.14359279,
                -0.15048182,
                0.051597808,
                -0.14028202,
                -0.045160923,
                -0.043945283,
                -0.1708093,
                -0.015179429,
                0.048662204,
                -0.2610265,
                0.16679853,
                -0.33244804,
                -0.04004303,
                0.26043582,
                -0.07755567,
                -0.3188131,
                0.026400339,
                0.107243896,
                -0.0861776,
                0.12423711,
                -0.18879485,
                0.16551726,
                0.09645936,
                0.03341259,
                0.044098713,
                -0.17150733,
                -0.117093414,
                -0.03287284,
                -0.20836774,
                0.18553907,
                0.049220677,
                -0.347413,
                -0.10122603,
                -0.08895238,
                -0.1723105,
                0.25917864,
                -0.15293795,
                0.1743143,
                -0.20495574,
                0.050760422,
                0.015217128,
                0.024730895,
                0.14096141,
                -0.20312661,
                -0.097243465,
                -0.07230952,
                0.37979248,
                -0.0022487969,
                0.11049741,
                0.16204652,
                -0.050420042,
                -0.1555299,
                -0.18299058,
                -0.08777583
              ]
            },
            "biases": {
              "v": 1,
              "dim": [
                16
              ],
              "data": [
                -0.006802854,
                0.04302937,
                -0.19013979,
                0.23628558,
                -0.20442194,
                0.33217812,
                0.18654323,
                0.090640426,
                -0.12873125,
                -0.28988507,
                -0.13890044,
                0.19006523,
                -0.07125911,
                0.46392733,
                -0.12190899,
                0.08763816
              ]
            }
          },
          {
            "weights": {
              "v": 1,
              "dim": [
                11,
                16
              ],
              "data": [
                -0.7352015,
                0.23418227,
                0.28496778,
                -0.28208113,
                -0.20894042,
                0.27062708,
                0.04748219,
                0.18706107,
                -0.11425677,
                0.054610513,
                -0.2322848,
                0.28803384,
                0.021553533,
                0.058493905,
                0.16383329,
                0.152729,
                -0.29860127,
                0.2931469,
                0.014177233,
                -0.271587,
                0.09474462,
                0.18856126,
                0.115168706,
                -0.31162825,
                0.11434743,
                -0.057884675,
                -0.05496631,
                -0.16157968,
                0.0054958016,
                -0.16148852,
                0.049728923,
                0.25257364,
                0.037562616,
                0.0022414085,
                -0.060767487,
                -0.22988442,
                -0.30447942,
                -0.008821707,
                -0.08381368,
                -0.010913033,
                -0.01560904,
                -0.029299315,
                0.19658464,
                0.053341188,
                0.05090202,
                -0.18778661,
                0.30242229,
                -0.12967575,
                -0.20240451,
                -0.3124991,
                0.019536598,
                -0.04214467,
                0.19129209,
                -0.13366264,
                -0.027240386,
                -0.2821126,
                0.33142996,
                -0.017979613,
                -0.05095025,
                0.24817286,
                -0.020136397,
                0.03750825,
                0.13687491,
                -0.031099841,
                0.15100335,
                0.026779251,
                0.15348329,
                -0.0839739,
                -0.2768088,
                0.08302463,
                -0.15352009,
                -0.21602616,
                0.12316213,
                -0.061870545,
                0.19383043,
                0.27503848,
                -0.10292166,
                -0.27020437,
                -0.07349906,
                -0.19025645,
                0.12859549,
                0.049789835,
                -0.31501025,
                -0.05528595,
                0.10675995,
                0.09983638,
                -0.13449013,
                -0.025086798,
                0.011040311,
                0.25583693,
                -0.11743423,
                -0.17276168,
                0.09427118,
                -0.08328879,
                0.17620969,
                0.16357999,
                -0.1347825,
                -0.41989005,
                -0.29198223,
                -0.27428442,
                0.18456,
                -0.10190457,
                -0.20402074,
                0.052204594,
                -0.4205019,
                0.212518,
                0.260499,
                -0.16241777,
                -0.3876385,
                -0.116481125,
                -0.15413478,
                0.193373,
                -0.04451086,
                -0.119801685,
                -0.31391934,
                -0.22984818,
                -0.11586026,
                0.012136795,
                -0.34896636,
                0.35027188,
                -0.07689931,
                0.042794302,
                -0.2549988,
                -0.13659313,
                0.005708327,
                0.2533206,
                0.091603935,
                0.09676996,
                0.23536512,
                -0.27853793,
                -0.35328203,
                -0.008383349,
                0.062258534,
                0.02290769,
                -0.1041749,
                -0.07814093,
                -0.24359348,
                -0.18481752,
                -0.19179504,
                0.014683861,
                -0.061219804,
                -0.03787619,
                -0.18917769,
                0.12087113,
                -0.033590037,
                0.2651015,
                0.14717276,
                0.34148157,
                0.056774635,
                -0.1159571,
                -0.20688224,
                0.07735443,
                -0.120961286,
                -0.13821678,
                0.112471014,
                0.20800048,
                -0.03667365,
                0.11648543,
                0.3029425,
                0.14814207,
                0.07699284,
                -0.08905992,
                -0.16854614,
                -0.07764254,
                -0.1205703,
                -0.06272191,
                0.18679012,
                0.037149437,
                -0.061589353,
                -0.035313137,
                0.18352458,
                0.13729015,
                0.024950419,
                0.09935187,
                0.0487594,
                -0.18292685
              ]
            },
            "biases": {
              "v": 1,
              "dim": [
                11
              ],
              "data": [
                -0.1572491,
                0.10261312,
                -0.060321026,
                0.13821566,
                0.09711505,
                -0.17629014,
                0.11165179,
                0.16374907,
                -0.050856613,
                0.46456403,
                0.03087637
              ]
            }
          }
        ]
      },
      "attack_cooldown": 0.2
    },
    {
      "id": 17587,
      "age": 17.050026,
      "score": 17,
      "pos": {
        "v": 1,
        "dim": [
          2
        ],
        "data": [
          27.01838,
          936.8409
        ]
      },
      "rot": -8.804553,
      "energy": 0.32512903,
      "signal": {
        "v": 1,
        "dim": [
          4
        ],
        "data": [
          0.49810198,
          0.49148795,
          0.44627672,
          0.5211187
        ]
      },
      "memory": {
        "v": 1,
        "dim": [
          4
        ],
        "data": [
          -0.047046736,
          -0.28711945,
          -0.21555954,
          0.2748698
        ]
      },
      "brain": {
        "layers": [
          {
            "weights": {
              "v": 1,
              "dim": [
                32,
                24
              ],
              "data": [
                0.23350635,
                0.096893966,
                0.20236251,
                -0.39647222,
                0.37514567,
                0.14770237,
                -0.0026280163,
                -0.16575578,
                0.30529583,
                -0.14562847,
                0.5588548,
                0.06621203,
                -0.27074546,
                0.0056530987,
                -0.22546396,
                0.037694257,
                0.17851709,
                0.08308695,
                -0.03901188,
                0.13279179,
                0.15537423,
                0.04537984,
                -0.1506145,
                0.016277488,
                0.039055593,
                -0.013792089,
                -0.014295323,
                0.062246658,
                -0.13820422,
                -0.0244526,
                -0.31107068,
                -0.06359593,
                -0.1212496,
                -0.39272445,
                0.024204897,
                -0.0154557265,
                -0.0085885925,
                -0.16190422,
                0.20384029,
                0.36461487,
                0.26714897,
                0.11394943,
                -0.17154229,
                -0.04417506,
                -0.27712637,
                -0.2466183,
                0.17148602,
                0.11143026,
                -0.050506137,
                0.20820266,
                0.16323045,
                -0.42119813,
                0.0028021252,
                -0.24913844,
                -0.077093035,
                0.11096163,
                -0.33382028,
                0.05360998,
                -0.069258645,
                -0.050134964,
                -0.028307552,
                -0.2327289,
                -0.37016296,
                -0.10001869,
                0.18447998,
                -0.12506557,
                -0.30093092,
                -0.15175131,
                0.17277211,
                0.09254832,
                0.117431775,
                0.027708884,
                0.24715987,
                -0.11113322,
                -0.04724013,
                -0.04632175,
                -0.41026717,
                -0.0066588945,
                0.2849073,
                0.09323925,
                0.20507589,
                0.25435925,
                0.014612718,
                0.010140942,
                0.10662392,
                -0.26428428,
                -0.1899368,
                -0.21568829,
                -0.05181475,
                0.33925772,
                -0.17127937,
                -0.0678886,
                -0.07176413,
                -0.05638873,
                -0.06802519,
                -0.16467005,
                -0.25187302,
                -0.22633089,
                0.19626687,
                0.06586811,
                -0.12773028,
                0.0120645,
                0.040882334,
                -0.17720288,
                -0.08475223,
                -0.06391461,
                -0.037343584,
                0.08310647,
                0.08684159,
                -0.14092374,
                -0.13500121,
                0.051787496,
                0.16160733,
                -0.04342615,
                0.32933378,
                0.52500695,
                -0.40028775,
                -0.2580539,
                0.3399614,
                -0.22946274,
                -0.13788432,
                -0.0016691643,
                0.021182152,
                0.2194111,
                -0.014221167,
                -0.3632118,
                0.13703999,
                -0.09192638,
                0.057643574,
                -0.0031831134,
                -0.10569148,
                0.23170301,
                -0.0825033,
                -0.22969916,
                -0.25695744,
                -0.26522276,
                -0.29724622,
                0.20736016,
                -0.083775595,
                -0.17330751,
                -0.3222216,
                -0.110277124,
                -0.16918606,
                -0.23476677,
                0.09985258,
                0.07150549,
                -0.14997885,
                0.09139218,
                0.22043136,
                0.19267975,
                0.094089024,
                0.3725652,
                0.10813142,
                -0.116401784,
                0.1416719,
                0.3181936,
                0.18834499,
                -0.07908517,
                -0.13898277,
                0.10596058,
                -0.12904394,
                -0.24452858,
                0.07189932,
                0.36957872,
                -0.16968015,
                -0.06546808,
                -0.027473062,
                -0.22065362,
                -0.06180551,
                -0.06342055,
                -0.009229038,
                0.035563968,
                -0.20546138,
                -0.19000763,
                -0.14753287,
                -0.14223409,
                0.211317,
                -0.0949029,
                -0.24154454,
                -0.49450746,
                -0.057720155,
                -0.6572679,
                -0.031031467,
                -0.27475658,
                0.15417784,
                -0.4176372,
                -0.25466543,
                -0.03757683,
                0.1029927,
                -0.20381448,
                -0.01854423,
                0.17847276,
                0.05219867,
                -0.2529208,
                -0.071221024,
                0.0083908,
                -0.29027718,
                -0.10463667,
                -0.2564542,
                0.1046983,
                -0.05378902,
                0.051033497,
                -0.0070406483,
                0.082110286,
                0.2247639,
                0.048608784,
                -0.30398077,
                0.039415862,
                0.10440367,
                0.026266158,
                -0.045518603,
                0.28883976,
                0.13584514,
                0.04379873,
                -0.14522931,
                -0.15210319,
                0.37991267,
                -0.0248591,
                -0.21650133,
                -0.27115315,
                0.24088636,
                0.16412072,
                -0.03641322,
                -0.21691066,
                0.029000336,
                -0.13788989,
                -0.10100746,
                -0.08406484,
                0.10052773,
                -0.2500593,
                0.06060442,
                0.044861555,
                -0.009660261,
                0.11166076,
                0.16283612,
                0.13991402,
                0.20964763,
                -0.07489924,
                -0.43676955,
                0.022600938,
                0.18876168,
                -0.032790076,
                0.15777333,
                -0.072131746,
                0.16735359,
                -0.2372973,
                -0.2727479,
                -0.1649689,
                -0.06911333,
                -0.018636059,
                -0.21403617,
                -0.30796742,
                0.070520185,
                -0.17225336,
                -0.08821486,
                -0.33002418,
                0.20212784,
                -0.26126945,
                0.049889542,
                0.023117084,
                -0.069547296,
                0.35897323,
                0.23419467,
                -0.21436888,
                -0.17199945,
                -0.058181673,
                0.27634114,
                0.05903739,
                -0.20220709,
                0.23655824,
                0.031396955,
                -0.13343199,
                0.15601984,
                -0.26712862,
                -0.0878966,
                -0.12870032,
                0.09935232,
                0.17709586,
                0.101275,
                0.01878488,
                0.35876933,
                0.5256066,
                -0.15591538,
                -0.07432096,
                -0.31080103,
                0.069356,
                -0.27163225,
                -0.2388702,
                0.15157369,
                0.1425859,
                -0.039451912,
                0.014639896,
                0.37762737,
                -0.0538816,
                0.15528649,
                0.019680455,
                -0.17824367,
                -0.05735296,
                -0.17033035,
                -0.045973696,
                -0.09306153,
