{
  "organisms": [
    {
      "id": 3958,
      "age": 63.29932,
      "score": 20,
      "pos": {
        "v": 1,
        "dim": [
          2
        ],
        "data": [
          621.11237,
          360.13818
        ]
      },
      "rot": -49.92937,
      "energy": 0.211744,
      "signal": {
        "v": 1,
        "dim": [
          3
        ],
        "data": [
          0.4959232,
          0.50555664,
          0.48591325
        ]
      },
      "memory": {
        "v": 1,
        "dim": [
          3
        ],
        "data": [
          -0.031443555,
          0.02564397,
          -0.12278289
        ]
      },
      "brain": {
        "layers": [
          {
            "weights": {
              "v": 1,
              "dim": [
                10,
                16
              ],
              "data": [
                -0.0713746,
                0.054520123,
                -0.025004752,
                -0.02436342,
                -0.056421667,
                -0.026276454,
                -0.09648514,
                -0.025219511,
                -0.11282271,
                -0.034880865,
                -0.16994858,
                0.25484642,
                -0.0046563447,
                -0.20960233,
                0.0268435,
                -0.09520791,
                -0.14536202,
                0.027596742,
                -0.042059455,
                0.027873244,
                -0.27916795,
                0.12842283,
                0.03611072,
                -0.01689943,
                0.16859466,
                0.028970964,
                0.11077946,
                0.012644343,
                -0.04606077,
                0.001352109,
                -0.10800392,
                -0.14050807,
                0.112708256,
                0.057064343,
                0.031919792,
                -0.23831224,
                0.016213454,
                0.004838437,
                -0.03510138,
                0.09904881,
                -0.0054029226,
                0.03808211,
                0.24352983,
                -0.009779647,
                -0.055723988,
                -0.021057375,
                -0.19014093,
                0.24859303,
                -0.17815122,
                0.025962362,
                -0.051991515,
                -0.13224822,
                -0.13130197,
                -0.0046132356,
                -0.045959614,
                -0.080856815,
                -0.16473725,
                0.22128618,
                -0.026665263,
                -0.080314085,
                0.08859077,
                0.21454805,
                -0.15543067,
                -0.07738432,
                0.04443216,
                0.12712318,
                -0.22942394,
                0.023974963,
                -0.08002892,
                0.048274774,
                0.14555204,
                0.12867442,
                0.050172105,
                -0.020531185,
                0.09611686,
                -0.016231462,
                0.0066591064,
                -0.013293289,
                0.2249141,
                0.053985223,
                0.21300122,
                0.0655487,
                0.048111916,
                0.20399389,
                0.0064957663,
                0.114039026,
                -0.047996197,
                0.1307274,
                0.08067872,
                0.14004973,
                -0.046196423,
                -0.076103024,
                -0.038589932,
                0.112889156,
                0.03924904,
                -0.06379643,
                0.03263931,
                0.08507769,
                0.115922876,
                0.013064355,
                -0.18391244,
                -0.16914357,
                0.07043078,
                0.13755032,
                -0.0005902536,
                -0.04776463,
                0.033872124,
                0.044920444,
                0.068997756,
                -0.06372648,
                0.0038165376,
                0.15453348,
                0.061067343,
                -0.02538634,
                -0.14807388,
                0.027992103,
                0.022086322,
                -0.018200718,
                -0.12942502,
                -0.03466498,
                -0.07717464,
                -0.06624041,
                0.024481632,
                0.11967599,
                0.006481938,
                -0.015869625,
                0.0067785643,
                0.044845685,
                0.12544137,
                0.06798117,
                0.09190753,
                -0.15323952,
                0.1981118,
                -0.044255376,
                0.1283132,
                0.117996044,
                -0.21024542,
                -0.10763456,
                -0.11277819,
                -0.021572154,
                -0.01120694,
                -0.12471547,
                0.10287691,
                0.08306034,
                -0.011156529,
                0.04189341,
                0.06893871,
                -0.05452939,
                -0.16510932,
                -0.029031403,
                -0.00974546,
                0.10296389,
                0.027152643,
                0.005946383,
                0.17045239,
                0.021272015,
                0.06346456,
                -0.1279733,
                -0.03393141,
                0.06023886
              ]
            },
            "biases": {
              "v": 1,
              "dim": [
                10
              ],
              "data": [
                -0.051648263,
                -0.068815015,
                0.013512939,
                0.13422076,
                0.05518832,
                -0.033710025,
                -0.11331719,
                0.103464186,
                -0.1714247,
                -0.17264491
              ]
            }
          },
          {
            "weights": {
              "v": 1,
              "dim": [
                8,
                10
              ],
              "data": [
                0.049793355,
                0.018294169,
                -0.032842856,
                -0.13418686,
                -0.0052059675,
                -0.024928968,
                -0.030665703,
                -0.1404475,
                -0.0746894,
                -0.014007308,
                -0.15013072,
                0.11915234,
                0.20932853,
                0.031118978,
                0.0066883266,
                0.12239751,
                0.16664515,
                -0.019799456,
                0.05970665,
                0.11185601,
                0.13039073,
                0.15421349,
                0.025661288,
                -0.17015967,
                -0.12239671,
                -0.006111428,
                -0.13508844,
                0.030490376,
                -0.05674701,
                0.050763078,
                0.011005234,
                0.027473575,
                0.25380653,
                -0.08044845,
                0.03677329,
                -0.049738385,
                -0.043678924,
                0.01834128,
                0.078238405,
                -0.028404444,
                0.040857248,
                0.24225241,
                -0.13632356,
                -0.04983858,
                0.09948774,
                0.05034016,
                0.06373219,
                0.064475276,
                -0.051927786,
                -0.06468448,
                -0.026606925,
                0.021195084,
                -0.065704845,
                0.107905835,
                -0.035006173,
                0.05216866,
                0.13463125,
                0.062228933,
                0.022269145,
                0.03186083,
                0.19464722,
                -0.011292525,
                0.19550371,
                -0.0058562234,
                -0.03419838,
                -0.19744217,
                0.16224033,
                0.11503669,
                -0.053800337,
                0.0046674367,
                0.06963271,
                0.13323417,
                0.1791437,
                0.043763477,
                -0.006262988,
                -0.0073994175,
                0.07188405,
                -0.058149245,
                -0.13711369,
                0.08901936
              ]
            },
            "biases": {
              "v": 1,
              "dim": [
                8
              ],
              "data": [
                0.008084826,
                0.046547078,
                -0.023536839,
                -0.041145034,
                0.046334527,
                -0.115635216,
                -0.11453281,
                0.14046139
              ]
            }
          }
        ]
      }
    },
    {
      "id": 3971,
      "age": 62.64933,
      "score": 16,
      "pos": {
        "v": 1,
        "dim": [
          2
        ],
        "data": [
          293.9307,
          249.31969
        ]
      },
      "rot": -111.09082,
      "energy": 0.9803282,
      "signal": {
        "v": 1,
        "dim": [
          3
        ],
        "data": [
          0.4728618,
          0.49677265,
          0.4628055
        ]
      },
      "memory": {
        "v": 1,
        "dim": [
          3
        ],
        "data": [
          -0.18953349,
          0.057154126,
          0.038999315
        ]
      },
      "brain": {
        "layers": [
          {
            "weights": {
              "v": 1,
              "dim": [
                10,
                16
              ],
              "data": [
                -0.14845759,
                0.15488926,
                -0.11825703,
                -0.021609504,
                -0.111984596,
                0.13371749,
                0.11627854,
                0.19332209,
                0.074851304,
                -0.092538096,
                0.026874777,
                0.020920414,
                -0.027406206,
                -0.19004911,
                0.10818497,
                -0.112700716,
                -0.16478825,
                -0.038289808,
                0.08241871,
                0.043727607,
                -0.17088586,
                0.00013007969,
                0.016420644,
                0.06863433,
                0.15629941,
                0.0057494715,
                0.1824967,
                0.04207184,
                0.12506172,
                -0.007015083,
                -0.15985537,
                -0.17958501,
                -0.028423771,
                0.019905187,
                0.026670642,
                -0.007890724,
                0.13386106,
                0.1695508,
                0.034604818,
                -0.012866795,
                0.00023398548,
                -0.009525184,
                0.11406575,
                0.06482419,
                0.07401026,
                0.036580525,
                0.032380328,
                0.08117933,
                -0.094284594,
                -0.042392146,
                0.037276607,
                0.09660909,
                0.044273257,
                0.04476993,
                0.047029458,
                0.0781783,
                -0.17254156,
                0.11071475,
                0.0609591,
                -0.1639303,
                0.034403853,
                -0.032352224,
                0.08721562,
                0.016274989,
                -0.06214897,
                -0.023766171,
                -0.21471184,
                -0.17797479,
                -0.12819439,
                0.11042153,
                -0.080848426,
                0.30639583,
                0.0837455,
                0.04134512,
                0.023650423,
                -0.062251896,
                -0.12662949,
                0.04249059,
                0.18035828,
                -0.05744464,
                0.17603847,
                -0.16647992,
                -0.08991482,
                0.13254112,
                0.1645611,
                -0.029635817,
                0.0039403737,
                0.00039806962,
                -0.0050718635,
                0.037787385,
                -0.09856431,
                -0.023956947,
                0.12551309,
                0.037579406,
                -0.013809962,
                -0.00868661,
                -0.016325988,
                -0.069144115,
                0.13300589,
                0.021637693,
                -0.12585011,
                0.03375612,
                0.1845925,
                0.15990283,
                0.07168545,
                0.05155968,
                -0.009123027,
                -0.08673136,
                0.08519974,
                -0.082206175,
                -0.3448415,
                0.049262937,
                -0.018039253,
                -0.19266918,
                -0.048502408,
                -0.13628645,
                0.12330187,
                -0.24472836,
                -0.1467329,
                -0.04143258,
                -0.18476094,
                -0.12280806,
                -0.0032276623,
                0.30001718,
                0.098811194,
                0.030127104,
                0.08257713,
                -0.107302755,
                0.023971606,
                0.1571281,
                -0.1590443,
                -0.1795222,
                0.014299236,
                0.007661313,
                0.16831014,
                -0.047290154,
                0.008479133,
                0.053411134,
                0.050141476,
                -0.0751714,
                0.03737103,
                -0.07873459,
                -0.008372806,
                -0.034674406,
                -0.008362442,
                -0.013832174,
                0.10387565,
                -0.05013816,
                -0.06427661,
                0.12198873,
                0.05974561,
                0.07990901,
                0.04764971,
                0.12255009,
                0.1817373,
                0.13239111,
                -0.009126708,
                0.114397004,
                -0.110275745,
                0.055627298
              ]
            },
            "biases": {
              "v": 1,
              "dim": [
                10
              ],
              "data": [
                0.05658172,
                -0.07994081,
                -0.20765412,
                0.08017566,
                -0.04439584,
                0.0070241615,
                0.036959413,
                -0.07242873,
                -0.076631695,
                -0.06487307
              ]
            }
          },
          {
            "weights": {
              "v": 1,
              "dim": [
                8,
                10
              ],
              "data": [
                0.024962753,
                -0.011078693,
                0.048173063,
                -0.115008205,
                0.23236428,
                0.20594312,
                -0.094647706,
                -0.20797756,
                -0.073754236,
                0.15507971,
                0.046784468,
                0.078497425,
                0.10942735,
                -0.023031533,
                0.018249625,
                -0.13493194,
                0.024981856,
                0.02623751,
                0.02703897,
                0.1330537,
                -0.08133511,
                0.054752227,
                -0.03506978,
                -0.1792791,
                0.10424269,
                -0.027902283,
                -0.20539662,
                -0.015278205,
                -0.08384006,
                -0.030794948,
                0.16036242,
                -0.05366543,
                0.22359043,
                0.15396339,
                0.10873778,
                -0.15987913,
                0.065329194,
                -0.10277716,
                0.16297626,
                -0.07568216,
                0.025182456,
                0.22184159,
                -0.03204549,
                -0.03474042,
                0.06877355,
                0.023056563,
                -0.08528029,
                0.005274566,
                0.030551694,
                -0.0072727744,
                0.013065502,
                -0.14646819,
                0.0023026597,
                0.15493543,
                -0.10315882,
                0.11875028,
                0.18231855,
                0.30545855,
                -0.1543487,
                -0.13328826,
                0.09515098,
                -0.01354068,
                0.1402888,
                -0.037736017,
                -0.036133163,
                -0.1731334,
                0.046844892,
                0.19674242,
                -0.0043717045,
                0.08900346,
                -0.03566236,
                0.11229065,
                0.019758984,
                -0.09545344,
                0.18280986,
                -0.107203275,
                0.26695254,
                0.055442028,
                -0.02378983,
                0.113015965
              ]
            },
            "biases": {
              "v": 1,
              "dim": [
                8
              ],
              "data": [
                -0.115771666,
                0.034618326,
                -0.12439512,
                -0.18101153,
                0.13351935,
                0.009821065,
                -0.09742806,
                0.1065798
              ]
            }
          }
        ]
      }
    },
    {
      "id": 3959,
      "age": 63.24932,
      "score": 14,
      "pos": {
        "v": 1,
        "dim": [
          2
        ],
        "data": [
          542.9935,
          264.7403
        ]
      },
      "rot": -33.048416,
      "energy": 0.85755074,
      "signal": {
        "v": 1,
        "dim": [
          3
        ],
        "data": [
          0.5058552,
          0.531419,
          0.5061437
        ]
      },
      "memory": {
        "v": 1,
        "dim": [
          3
        ],
        "data": [
          0.06084918,
          -0.009971173,
          -0.092186645
        ]
      },
      "brain": {
        "layers": [
          {
            "weights": {
              "v": 1,
              "dim": [
                10,
                16
              ],
              "data": [
                -0.026206493,
                0.005853452,
                -0.07131968,
                0.005137302,
                -0.049126625,
                0.006429649,
                0.009191275,
                0.10268311,
                0.06360612,
                -0.1018642,
                0.14642707,
                -0.14569771,
                -0.08054358,
                -0.085797496,
                0.009590685,
                -0.12639259,
                -0.20585094,
                -0.085977644,
                0.100302756,
                0.029275693,
                -0.1409029,
                -0.093410894,
                0.16337445,
                0.09717281,
                0.007951349,
                -0.033977497,
                0.14196026,
                0.14855033,
                0.07074196,
                -0.05349697,
                -0.0089697335,
                -0.05832263,
                0.016962294,
                -0.10239097,
                0.08732489,
                0.17543013,
                0.056646377,
                0.13205779,
                -0.12739593,
                -0.12695986,
                -0.058484394,
                0.05825758,
                0.12553048,
                -0.10183178,
                -0.12113884,
                -0.11069094,
                -0.15559831,
                0.025057286,
                -0.03855581,
                0.05993761,
                0.15278368,
                0.07521217,
                -0.14674625,
                -0.07112368,
                0.055917412,
                0.15776414,
                -0.03672558,
                -0.10859553,
                0.062354445,
                0.040932313,
                0.050833926,
                0.080693334,
                -0.008108325,
                0.014397277,
                0.027623225,
                0.016249923,
                -0.09430728,
                -0.20083918,
                -0.2232776,
                -0.05887217,
                0.05326403,
                0.09333951,
                0.011195354,
                -0.14197174,
                -0.0010696873,
                -0.015471544,
                -0.16670975,
                0.06784377,
                0.056611862,
                -0.04138983,
                0.020300414,
                -0.012495145,
                0.06520236,
                0.17533422,
                -0.065921396,
                0.118562095,
                -0.06345834,
                -0.017526671,
                -0.021455117,
                0.12930068,
                -0.15486269,
                -0.19170548,
                0.12556002,
                0.0038889572,
                -0.014562916,
                0.028039977,
                0.0081251,
                -0.06829811,
                0.07769421,
                -0.054863725,
                -0.09868293,
                -0.089879245,
                0.12625065,
                -0.017291032,
                0.098203376,
                -0.039694678,
                0.0946555,
                0.096216656,
                -0.070421904,
                -0.07212278,
                -0.19818263,
                0.08555341,
                -0.12468237,
                -0.06509521,
                -0.12686047,
                0.063670196,
                -0.05872121,
                -0.10869174,
                -0.091431364,
                0.020322312,
                -0.13058428,
                -0.13311252,
                -0.010396522,
                0.047756236,
                -0.045489576,
                -0.060826644,
                0.22530201,
                0.0213928,
                0.094312035,
                0.14598373,
                0.05532664,
                -0.21728772,
                -0.032978952,
                0.023538845,
                0.14800867,
                0.111798145,
                0.060090404,
                -0.01810059,
                -0.042173427,
                -0.00029706955,
                -0.15804057,
                0.1551124,
                -0.049394146,
                -0.013698474,
                0.010951437,
                0.0034917742,
                -0.10187724,
                -0.081315935,
                -0.10796589,
                0.00085189193,
                0.14620563,
                0.019961089,
                0.04794269,
                0.09022889,
                0.083736256,
                0.04983785,
                0.14872836,
                0.05619202,
                -0.11416711,
                0.015857764
              ]
            },
            "biases": {
              "v": 1,
              "dim": [
                10
              ],
              "data": [
                0.044127762,
                -0.028524837,
                -0.1267311,
                0.030871525,
                0.12622067,
                0.0066022538,
                -0.21323822,
                0.073191024,
                0.06725234,
                -0.11107001
              ]
            }
          },
          {
            "weights": {
              "v": 1,
              "dim": [
                8,
                10
              ],
              "data": [
                0.0825298,
                -0.09134085,
                -0.060215436,
                -0.16654669,
                0.016478747,
                0.12954366,
                0.04668641,
                0.06737057,
                0.075136244,
                0.12138796,
                0.016584877,
                0.14076719,
                0.023423277,
                0.11377024,
                -0.06596984,
                0.076278575,
                -0.022478253,
                0.14392754,
                -0.056556486,
                0.14201894,
                0.012752615,
                -0.0077307597,
                0.02439785,
                0.029228225,
                0.10552576,
                -0.012744211,
                -0.1761932,
                -0.017184794,
                -0.14705983,
                0.1456943,
                0.051658932,
                -0.07076031,
                0.050637107,
                0.08728769,
                0.06824581,
                -0.0056801923,
                0.04101168,
                0.08088993,
                0.011617154,
                -0.04089438,
                0.05764962,
                -0.002707433,
                -0.022370476,
                0.09496998,
                0.00018994696,
                -0.11916119,
                -0.054441113,
                0.1228796,
                -0.01439482,
                0.055045336,
                -0.033352405,
                0.03645753,
                -0.092552796,
                0.008742601,
                -0.09683123,
                -0.010792881,
                0.2506762,
                0.09823539,
                0.020101003,
                -0.026691481,
                0.04797127,
                0.06761998,
                -0.100580096,
                0.07678434,
                0.21790615,
                -0.21566507,
                0.0028360132,
                0.069948144,
                -0.030490171,
                -0.046046454,
                -0.20550314,
                0.19489944,
                0.03329082,
                -0.088793516,
                0.14728744,
                -0.06466985,
                -0.012691282,
                0.13877696,
                -0.0658095,
                -0.04505737
              ]
            },
            "biases": {
              "v": 1,
              "dim": [
                8
              ],
              "data": [
                0.038129847,
                0.10762961,
                0.023982871,
                0.04075935,
                -0.065250784,
                -0.06747452,
                -0.093891285,
                0.18242678
              ]
            }
          }
        ]
      }
    },
    {
      "id": 4783,
      "age": 22.04995,
      "score": 14,
      "pos": {
        "v": 1,
        "dim": [
          2
        ],
        "data": [
          927.00507,
          551.86743
        ]
      },
      "rot": 5.462153,
      "energy": 0.9839462,
      "signal": {
        "v": 1,
        "dim": [
          3
        ],
        "data": [
          0.46212533,
          0.48066095,
          0.49357992
        ]
      },
      "memory": {
        "v": 1,
        "dim": [
          3
        ],
        "data": [
          -0.011689637,
          -0.24189062,
          0.03916076
        ]
      },
      "brain": {
        "layers": [
          {
            "weights": {
              "v": 1,
              "dim": [
                10,
                16
              ],
              "data": [
                0.03502731,
                -0.0918112,
                -0.18797153,
                0.021373294,
                0.11754575,
                -0.123411216,
                0.059648123,
                0.10630352,
                0.08837573,
                -0.05762323,
                0.08409248,
                -0.011690985,
                0.012757063,
                -0.02208003,
                0.16130674,
                -0.14963417,
                -0.09522741,
                -0.07189694,
                -0.021402564,
                0.20331405,
                -0.07769603,
                -0.058298413,
                0.3382403,
                0.13367532,
                0.10406904,
                -0.14254743,
                0.17090225,
                0.11839335,
                -0.016381934,
                -0.07323344,
                -0.035883095,
                -0.14670455,
                -0.0033683367,
                -0.15703867,
                -0.010591537,
                0.054502904,
                -0.04042251,
                0.09543574,
                0.00022745878,
                -0.08033772,
                0.004409075,
                -0.058312174,
                0.15588142,
                0.031274483,
                -0.051517863,
                -0.19025378,
                -0.09388614,
                -0.034294352,
                0.041868143,
                -0.017575197,
                0.13165833,
                -0.13124643,
                -0.22523533,
                0.023094933,
                0.073417336,
                -0.07349186,
                0.025748085,
                0.09810969,
                -0.109790474,
                0.026925083,
                0.06505254,
                0.14481936,
                0.017833594,
                -0.1668451,
                -0.0025499314,
                -0.0965393,
                -0.15793712,
                -0.16801468,
                0.03253618,
                -0.028557854,
                -0.0031391382,
                0.106898524,
                0.053506017,
                -0.10175218,
                -0.104580015,
                -0.1210433,
                -0.040675662,
                0.0069015883,
                0.086236686,
                -0.13822046,
                0.11589532,
                0.14000574,
                -0.042795476,
                0.086683795,
                -0.047408227,
                0.22375977,
                -0.021256573,
                -0.03455729,
                -0.04127603,
                0.15191889,
                -0.13772218,
                -0.22156252,
                0.03635205,
                -0.077644296,
                0.090651885,
                -0.11688723,
                -0.0070177056,
                -0.017059773,
                0.21221748,
                -0.020484112,
                0.0382673,
                -0.14063573,
                0.14979732,
                0.0070993043,
                0.12767379,
                0.019100778,
                0.11046913,
                0.0004264526,
                -0.024766173,
                0.047726862,
                0.0016484521,
                0.12910102,
                0.07071994,
                -0.02938443,
                -0.034019582,
                -0.037870713,
                0.00084833056,
                -0.046278257,
                -0.091789335,
                -0.14437841,
                -0.06873731,
                -0.102569714,
                -0.06566402,
                0.12801318,
                -0.050955564,
                0.1682822,
                0.15979804,
                -0.060003284,
                0.074821755,
                0.10606688,
                0.10259837,
                -0.15546177,
                -0.09898924,
                -0.14373732,
                0.116238266,
                0.18506998,
                0.23688525,
                -0.0857273,
                -0.07229728,
                -0.13960189,
                -0.12451033,
                -0.016883098,
                0.078457445,
                -0.020239886,
                0.15492098,
                0.017458748,
                -0.06831996,
                -0.118589014,
                -0.21631502,
                -0.030347925,
                0.050678756,
                -0.003312081,
                0.12301038,
                0.06849642,
                -0.013819918,
                0.02072417,
                0.075521216,
                -0.07424802,
                -0.10476514,
                -0.017762147
              ]
            },
            "biases": {
              "v": 1,
              "dim": [
                10
              ],
              "data": [
                -0.09864718,
                0.05814494,
                -0.12332389,
                -0.01606195,
                -0.10154156,
                -0.031774346,
                -0.23290905,
                0.14731404,
                0.052302055,
                -0.07037479
              ]
            }
          },
          {
            "weights": {
              "v": 1,
              "dim": [
                8,
                10
              ],
              "data": [
                0.10951874,
                -0.07898581,
                -0.010156909,
                -0.08887154,
                -0.0049989484,
                0.12466439,
                0.221175,
                0.027562708,
                -0.06688309,
                0.13987085,
                -0.030633364,
                0.20603204,
                0.051696785,
                0.1808551,
                -0.023597516,
                -0.005344562,
                -0.12484774,
                0.09769854,
                -0.013885524,
                0.08203384,
                0.07989074,
                0.12506263,
                -0.048288453,
                0.079119325,
                -0.013380285,
                -0.020498227,
                -0.16300385,
                0.07459906,
                -0.29542568,
                0.07017922,
                -0.07032843,
                -0.08860625,
                0.11240646,
                0.0045849904,
                0.050637975,
                0.030422945,
                0.05429964,
                0.17544648,
                -0.009731799,
                0.027482491,
                0.028431568,
                -0.08795707,
                0.029723417,
                0.12405403,
                0.10549007,
                0.07075601,
                -0.058611177,
                0.11581664,
                0.034315865,
                -0.08518574,
                -0.010855328,
                -0.0013901405,
                -0.042725693,
                0.012403186,
                -0.18499857,
                -0.084478036,
                0.14839885,
                0.24406075,
                -0.18113127,
                0.018268872,
                0.08683198,
                0.1069149,
                -0.091866136,
                0.06712894,
                0.0832412,
                -0.2872702,
                0.045554273,
                0.040842317,
                -0.22713573,
                0.08121493,
                -0.003991667,
                0.14375922,
                0.10202059,
                -0.010253955,
                0.16282547,
                -0.060982473,
                0.09306568,
                0.02145141,
                0.0052159578,
                -0.04694651
              ]
            },
            "biases": {
              "v": 1,
              "dim": [
                8
              ],
              "data": [
                -0.1014851,
                -0.045222584,
                0.0014255755,
                -0.00557971,
                -0.20434663,
                -0.006125776,
                0.018962268,
                0.2254102
              ]
            }
          }
        ]
      }
    },
    {
      "id": 4301,
      "age": 46.149582,
      "score": 12,
      "pos": {
        "v": 1,
        "dim": [
          2
        ],
        "data": [
          636.10455,
          499.81906
        ]
      },
      "rot": -27.537935,
      "energy": 0.77770877,
      "signal": {
        "v": 1,
        "dim": [
          3
        ],
        "data": [
          0.47366035,
          0.47199443,
          0.48698878
        ]
      },
      "memory": {
        "v": 1,
        "dim": [
          3
        ],
        "data": [
          -0.0029559515,
          -0.21104749,
          0.030941864
        ]
      },
      "brain": {
        "layers": [
          {
            "weights": {
              "v": 1,
              "dim": [
                10,
                16
              ],
              "data": [
                0.08048169,
                -0.068102404,
                -0.19473039,
                0.02900526,
                0.08099684,
                -0.07644719,
                0.02349098,
                0.16271007,
                0.11557906,
                -0.03671126,
                0.108024746,
                -0.05753772,
                0.016778186,
                -0.059731573,
                0.10618436,
                -0.13735503,
                -0.09760014,
                -0.02623497,
                -0.07247935,
                0.16898736,
                -0.029526494,
                -0.060955055,
                0.30295166,
                0.089409165,
                0.11294114,
                -0.11103648,
                0.12526554,
                0.14047502,
                -0.012203816,
                -0.018195555,
                -0.042902082,
                -0.114507645,
                -0.046087712,
                -0.10429627,
                -0.0036473945,
                0.06553925,
                -0.066081256,
                0.12994017,
                0.036821816,
                -0.067952015,
                0.04740589,
                -0.045904074,
                0.14794624,
                0.04250212,
                -0.100033626,
                -0.13855392,
                -0.06745062,
                -0.0011595488,
                0.012851175,
                -0.028313566,
                0.12086285,
                -0.081291154,
                -0.23252338,
                0.008327074,
                0.10064364,
                -0.04173417,
                -0.0062016323,
                0.08735011,
                -0.053347073,
                0.037444785,
                0.09803376,
                0.17100966,
                0.012478549,
                -0.161374,
                0.026618123,
                -0.045465875,
                -0.19220477,
                -0.20670103,
                -0.0086525865,
                0.0018585958,
                0.010627329,
                0.13920836,
                0.011645447,
                -0.057968877,
                -0.04960922,
                -0.10744523,
                -0.0011740997,
                -0.016669452,
                0.061562583,
                -0.15010473,
                0.14165294,
                0.09953976,
                -0.020849086,
                0.12573856,
                -0.001487352,
                0.24026647,
                0.010073703,
                -0.05695164,
                -0.049523484,
                0.11302558,
                -0.16678111,
                -0.19248565,
                0.037312426,
                -0.026446983,
                0.11213447,
                -0.06231028,
                -0.04691513,
                0.016117048,
                0.22201395,
                -0.0034163855,
                0.011170272,
                -0.13442513,
                0.1544427,
                -0.04123944,
                0.120482974,
                0.019089606,
                0.08583261,
                -0.04878775,
                0.017003633,
                0.001607608,
                -0.016169459,
                0.12521826,
                0.017630339,
                -0.077400014,
                -0.004831638,
                0.01478098,
                0.012356214,
                -0.06177985,
                -0.06087285,
                -0.19864324,
                -0.02985835,
                -0.06569911,
                -0.031569682,
                0.08518779,
                -0.022269221,
                0.12770493,
                0.21524617,
                -0.10108653,
                0.020347666,
                0.101993985,
                0.051910177,
                -0.2038065,
                -0.060920507,
                -0.1091775,
                0.10747164,
                0.13591632,
                0.19534387,
                -0.08816387,
                -0.070128545,
                -0.09640615,
                -0.15132943,
                0.019068763,
                0.08514944,
                0.015603859,
                0.12078409,
                -0.029890291,
                -0.06618627,
                -0.17257886,
                -0.19056821,
                -0.042180784,
                0.07022259,
                0.042878002,
                0.14299443,
                0.0328786,
                -0.018797774,
                0.042724095,
                0.12086422,
                -0.045620263,
                -0.07706144,
                0.036230106
              ]
            },
            "biases": {
              "v": 1,
              "dim": [
                10
              ],
              "data": [
                -0.06294545,
                0.025923714,
                -0.098314635,
                -0.028337367,
                -0.095835716,
                -0.05906611,
                -0.24602702,
                0.1888197,
                0.0007287003,
                -0.11452095
              ]
            }
          },
          {
            "weights": {
              "v": 1,
              "dim": [
                8,
                10
              ],
              "data": [
                0.05444731,
                -0.09327409,
                0.011566294,
                -0.046641417,
                -0.053150885,
                0.16374108,
                0.18800387,
                0.050012924,
                -0.033186443,
                0.09292,
                -0.042672545,
                0.24965611,
                0.073095135,
                0.18444136,
                -0.01056052,
                0.01758305,
                -0.080990985,
                0.12780538,
                -0.022233881,
                0.105013534,
                0.09885499,
                0.075301684,
                -0.07150777,
                0.060685106,
                -0.021356829,
                -0.037016995,
                -0.13145179,
                0.027917426,
                -0.27390444,
                0.08272214,
                -0.06695984,
                -0.13162439,
                0.111352846,
                -0.030209478,
                0.058399707,
                -0.0011479557,
                0.02147796,
                0.21659642,
                0.025374554,
                -0.0069812983,
                -0.014139511,
                -0.07141631,
                -0.025356293,
                0.13012296,
                0.10519149,
                0.10332448,
                -0.027458392,
                0.152386,
                -0.019176349,
                -0.06754045,
                0.01906164,
                -0.044120662,
                -0.043593243,
                -0.013792276,
                -0.13778368,
                -0.06969669,
                0.1560533,
                0.26448017,
                -0.12946872,
                -0.013206579,
                0.1109455,
                0.12127795,
                -0.103523344,
                0.06263529,
                0.12333144,
                -0.23427299,
                0.021000583,
                0.06013626,
                -0.19360882,
                0.13089128,
                -0.05709511,
                0.17399135,
                0.06478032,
                -0.03528028,
                0.17966595,
                -0.03343413,
                0.07251331,
                0.07389315,
                0.026976548,
                -0.01898656
              ]
            },
            "biases": {
              "v": 1,
              "dim": [
                8
              ],
              "data": [
                -0.07473017,
                -0.0794037,
                -0.046307765,
                -0.0241278,
                -0.1893102,
                -0.00960782,
                -0.0048196837,
                0.22407475
              ]
            }
          }
        ]
      }
    },
    {
      "id": 4228,
      "age": 49.799526,
      "score": 10,
      "pos": {
        "v": 1,
        "dim": [
          2
        ],
        "data": [
          687.4668,
          694.335
        ]
      },
      "rot": -95.750084,
      "energy": 0.24398915,
      "signal": {
        "v": 1,
        "dim": [
          3
        ],
        "data": [
          0.5085682,
          0.53681576,
          0.51804537
        ]
      },
      "memory": {
        "v": 1,
        "dim": [
          3
        ],
        "data": [
          -0.067305215,
          0.08091843,
          -0.09123044
        ]
      },
      "brain": {
        "layers": [
          {
            "weights": {
              "v": 1,
              "dim": [
                10,
                16
              ],
              "data": [
                -0.011693239,
                0.09045304,
                -0.041031063,
                -0.0065735243,
                -0.11091812,
                0.108502135,
                0.042530708,
                0.009323861,
                -0.022508137,
                0.06332997,
                -0.11044483,
                0.19648856,
                -0.03198935,
                -0.081068575,
                -0.044192716,
                -0.107970305,
                -0.22017795,
                0.012166508,
                -0.0068532377,
                0.008056909,
                -0.15784328,
                0.055127166,
                0.01094963,
                -0.20029159,
                0.18470126,
                0.14798038,
                0.1343151,
                0.05733378,
                0.05821289,
                0.015292767,
                -0.034298003,
                -0.0660448,
                0.055337463,
                -0.049759656,
                0.017212883,
                -0.07159833,
                -0.16149962,
                -0.024474185,
                -0.02436576,
                0.038262576,
                -0.025048733,
                -0.17996709,
                0.13837434,
                0.14722085,
                -0.017003704,
                -0.08223279,
                -0.006217569,
                0.13849127,
                -0.04261847,
                0.1107063,
                -0.044670537,
                -0.024072308,
                -0.18595693,
                -0.18792985,
                -0.121546045,
                -0.056373492,
                -0.0433062,
                0.18052655,
                0.075353675,
                -0.0011875331,
                0.10373025,
                0.111761175,
                -0.112123996,
                0.10799327,
                0.0005352292,
                0.03844018,
                -0.01184082,
                -0.054109767,
                -0.1226287,
                0.08849163,
                0.043318048,
                0.2095754,
                0.01627139,
                0.14065608,
                0.06574273,
                -0.06103564,
                0.081699215,
                0.038498685,
                0.07459968,
                0.012786307,
                0.18416777,
                0.055384807,
                -0.0055425465,
                0.030188203,
                0.10436805,
                0.094461404,
                -0.033648185,
                0.036759116,
                0.038912557,
                0.15517423,
                0.024565179,
                -0.12319031,
                -0.13107994,
                0.029077493,
                0.036784906,
                -0.033076655,
                0.017992347,
                -0.032263525,
                0.041643556,
                -0.010996394,
                -0.13805167,
                -0.21101648,
                0.016414851,
                0.091970444,
                -0.0530847,
                -0.040959857,
                0.072207086,
                0.02351737,
                0.06561379,
                -0.2436907,
                0.07258477,
                0.17762922,
                0.07177515,
                -0.14272842,
                -0.21944782,
                0.035227876,
                0.0020920038,
                -0.09251949,
                -0.054893713,
                0.009003371,
                -0.1858519,
                -0.0019275993,
                0.081730396,
                -0.04380345,
                -0.12356986,
                0.007684253,
                0.005162716,
                -0.020527646,
                0.08776146,
                0.19120978,
                0.009882376,
                -0.34100428,
                0.28011096,
                -0.09438755,
                0.18418908,
                0.107029885,
                -0.12696007,
                -0.018399008,
                -0.13070376,
                0.029968163,
                0.1024845,
                -0.17141248,
                0.08980922,
                0.12191153,
                -0.08217728,
                0.030902404,
                0.132635,
                -0.22681716,
                -0.00901559,
                0.13079618,
                -0.05440368,
                -0.047982626,
                0.047060132,
                0.13232166,
                0.084704444,
                0.03388933,
                0.17559463,
                -0.11132671,
                -0.044355877,
                0.04916228
              ]
            },
            "biases": {
              "v": 1,
              "dim": [
                10
              ],
              "data": [
                -0.014034007,
                0.058461215,
                -0.018728707,
                0.0081048235,
                0.117047474,
                0.029584572,
                0.071099564,
                0.006145552,
                -0.15312031,
                -0.11354459
              ]
            }
          },
          {
            "weights": {
              "v": 1,
              "dim": [
                8,
                10
              ],
              "data": [
                -0.042634126,
                0.027860362,
                0.12427096,
                -0.2294966,
                0.044927455,
                -0.015704796,
                0.031920187,
                -0.031665355,
                -0.15370376,
                0.058957573,
                -0.08260954,
                0.028930098,
                0.027720287,
                0.02605322,
                0.19029522,
                0.098364845,
                0.12102934,
                -0.11819387,
                0.1680212,
                0.05990859,
                0.13271572,
                0.12484256,
                -0.06210166,
                -0.0637898,
                -0.053988397,
                0.012869351,
                0.020307004,
                0.0029904768,
                -0.16881979,
                -0.1330077,
                0.025362369,
                -0.034814835,
                0.18584168,
                0.052625105,
                0.05671157,
                -0.0029748082,
                -0.074143656,
                -0.042929675,
                -0.020056587,
                -0.08325271,
                -0.13536994,
                0.073753625,
                -0.13076204,
                0.07612783,
                0.12460001,
                0.13487229,
                0.18704885,
                0.0628227,
                -0.027280442,
                -0.09343353,
                0.00069881976,
                0.12756103,
                -0.05992675,
                0.20207994,
                -0.16713475,
                0.06499472,
                -0.12771066,
                0.13302723,
                0.058542438,
                0.124114506,
                0.22397625,
                0.040952697,
                0.07183829,
                0.18690374,
                -0.0754112,
                -0.106786065,
                0.06562846,
                -0.029970214,
                -0.08881108,
                -0.021131594,
                0.05713279,
                -0.01737855,
                0.09438525,
                0.052348692,
                0.060097106,
                -0.116063744,
                0.183049,
                0.0064736307,
                -0.16138126,
                0.009938102
              ]
            },
            "biases": {
              "v": 1,
              "dim": [
                8
              ],
              "data": [
                0.01770226,
                0.14193207,
                0.03885317,
                -0.081674576,
                0.021066435,
                -0.05629938,
                -0.1334481,
                0.0032732114
              ]
            }
          }
        ]
      }
    },
    {
      "id": 4399,
      "age": 41.249657,
      "score": 10,
      "pos": {
        "v": 1,
        "dim": [
          2
        ],
        "data": [
          686.7134,
          666.2474
        ]
      },
      "rot": -46.44689,
      "energy": 0.4879075,
      "signal": {
        "v": 1,
        "dim": [
          3
        ],
        "data": [
          0.47752723,
          0.519757,
          0.49264914
        ]
      },
      "memory": {
        "v": 1,
        "dim": [
          3
        ],
        "data": [
          -0.013542308,
          -0.22426374,
          -0.09056891
        ]
      },
      "brain": {
        "layers": [
          {
            "weights": {
              "v": 1,
              "dim": [
                10,
                16
              ],
              "data": [
                0.0073769875,
                -0.037323672,
                -0.03255464,
                -0.005440019,
                0.070726305,
                -0.07372027,
                0.03267778,
                0.09900711,
                0.0041114036,
                -0.06635924,
                -0.09885414,
                -0.029333383,
                0.032748826,
                -0.10739362,
                -0.017926537,
                -0.05730971,
                -0.15776551,
                -0.10002856,
                -0.054845735,
                0.12848213,
                -0.08283989,
                -0.055877123,
                0.12865296,
                0.13724679,
                0.28997087,
                0.06856017,
                0.12849298,
                0.08405431,
                -0.10946494,
                0.1580205,
                0.036950495,
                -0.10536835,
                -0.010605097,
                -0.043070085,
                -0.003281504,
                -0.037073627,
                0.04615376,
                0.2538519,
                -0.0911555,
                0.06221968,
                0.033152334,
                0.14956263,
                0.06426449,
                -0.016193524,
                -0.0035894103,
                -0.01347708,
                -0.08580256,
                0.08100284,
                -0.13593243,
                -0.059801973,
                0.03274209,
                -0.053599358,
                -0.16716579,
                -0.08151059,
                0.0917409,
                -0.1116687,
                0.029824391,
                0.13041186,
                0.077641256,
                -0.02696032,
                0.15988083,
                -0.008899786,
                0.099831395,
                -0.083788976,
                -0.11492989,
                -0.03926252,
                -0.25231123,
                -0.058588967,
                0.01608314,
                0.112078376,
                0.03382401,
                0.11163915,
                0.080282606,
                0.07445104,
                -0.043233104,
                -0.046377767,
                -0.022114623,
                -0.1897059,
                0.07807505,
                -0.07526241,
                -0.00771033,
                -0.048333958,
                0.109984614,
                0.09473052,
                0.13092661,
                0.18962538,
                0.061406925,
                0.035359614,
                0.0138437,
                0.10454397,
                -0.2238505,
                -0.08681754,
                0.054863855,
                -0.07508365,
                -0.012253456,
                -0.056388475,
                0.027102768,
                -0.14566976,
                0.28923732,
                0.12483332,
                0.043879487,
                -0.064985596,
                0.16945137,
                0.037505005,
                0.05088777,
                0.09473647,
                0.09568648,
                0.12385206,
                0.095397994,
                0.020730272,
                -0.09639914,
                0.14307724,
                0.06355824,
                -0.10480012,
                -0.1421659,
                -0.023973152,
                0.21151775,
                -0.046239175,
                0.005685985,
                -0.2128871,
                -0.023278203,
                -0.028581828,
                0.022665702,
                0.10974255,
                0.11373444,
                0.14636418,
                0.003098987,
                -0.0001520887,
                -0.16747805,
                0.006019078,
                0.035254486,
                -0.07600761,
                -0.02563506,
                -0.08714779,
                0.17553517,
                0.108991474,
                0.09314807,
                0.047466964,
                -0.10434084,
                -0.13832575,
                -0.17504206,
                0.060091063,
                0.122718975,
                0.0025638714,
                0.11788133,
                0.14331394,
                0.034916773,
                -0.14117645,
                -0.21002555,
                -0.10371706,
                0.02196677,
                0.06670269,
                0.1284855,
                0.20094842,
                0.070880175,
                0.06202662,
                0.11027544,
                -0.17724788,
                0.14485148,
                -0.032996334
              ]
            },
            "biases": {
              "v": 1,
              "dim": [
                10
              ],
              "data": [
                0.12085513,
                0.08876678,
                -0.011371851,
                0.077964574,
                -0.12760863,
                -0.119837426,
                -0.2015465,
                0.13720912,
                0.018179432,
                -0.055496894
              ]
            }
          },
          {
            "weights": {
              "v": 1,
              "dim": [
                8,
                10
              ],
              "data": [
                -0.01469034,
                -0.023466136,
                0.09182425,
                0.069105044,
                -0.17493199,
                0.13891289,
                0.12465345,
                -0.0021746513,
                0.10819486,
                -0.01636459,
                0.085202426,
                0.09489787,
                0.06765817,
                0.06355659,
                -0.034535393,
                0.07247131,
                0.105485976,
                0.093054816,
                0.12652972,
                -0.035731744,
                0.017096471,
                0.0028480217,
                0.025292441,
                0.043444373,
                -0.15952355,
                -0.02408152,
                -0.061515383,
                0.06617095,
                -0.2188747,
                -0.045946203,
                0.047938168,
                0.13736549,
                0.018625278,
                -0.14480358,
                0.06193181,
                0.051319268,
                -0.0837428,
                0.040397726,
                -0.079526134,
                0.13757455,
                -0.11837987,
                0.013985619,
                -0.085351534,
                0.0379258,
                0.10634987,
                0.1989289,
                0.089775495,
                0.10836509,
                0.06436558,
                -0.06753595,
                -0.053135008,
                -0.19132812,
                0.07486531,
                -0.0077907406,
                0.028471217,
                -0.014037475,
                0.19211808,
                0.09519512,
                -0.14924642,
                0.06753903,
                0.077732995,
                0.08844468,
                0.12356218,
                0.08639357,
                0.11832697,
                -0.19309513,
                0.0867876,
                0.14753038,
                -0.12493918,
                0.053428374,
                0.011712812,
                0.10874071,
                0.08839868,
                -0.08644263,
                0.23695284,
                0.0131498985,
                0.18364063,
                -0.15328291,
                -0.022082701,
                0.12310291
              ]
            },
            "biases": {
              "v": 1,
              "dim": [
                8
              ],
              "data": [
                -0.082659476,
                0.072481886,
                -0.07452259,
                -0.009970769,
                -0.17510268,
                -0.06789283,
                -0.098051794,
                0.14216578
              ]
            }
          }
        ]
      }
    },
    {
      "id": 4110,
      "age": 55.699436,
      "score": 8,
      "pos": {
        "v": 1,
        "dim": [
          2
        ],
        "data": [
          545.9848,
          143.61292
        ]
      },
      "rot": 24.67251,
      "energy": 0.000027425122,
      "signal": {
        "v": 1,
        "dim": [
          3
        ],
        "data": [
          0.46935955,
          0.5340461,
          0.47848776
        ]
      },
      "memory": {
        "v": 1,
        "dim": [
          3
        ],
        "data": [
          0.051697172,
          0.1507556,
          0.114785716
        ]
      },
      "brain": {
        "layers": [
          {
            "weights": {
              "v": 1,
              "dim": [
                10,
                16
              ],
              "data": [
                -0.0021998305,
                -0.041076757,
                -0.045095883,
                -0.044286825,
                -0.084871545,
                -0.14759977,
                -0.110226475,
                -0.078699365,
                0.011007162,
                -0.018129295,
                -0.13043098,
                0.14370579,
                -0.061229564,
                -0.036359616,
                0.16835818,
                0.094047904,
                -0.16405444,
                -0.017993825,
                -0.062447857,
                0.077393815,
                -0.029711314,
                0.045049198,
                0.12813447,
                0.09625745,
                0.23858085,
                0.032769345,
                -0.0080669,
                -0.07245367,
                -0.03009189,
                0.15760925,
                -0.121835805,
                -0.17282814,
                -0.019629875,
                -0.08490479,
                -0.053422805,
                0.07431811,
                -0.10156843,
                0.1460651,
                -0.106516816,
                0.054082464,
                -0.042550694,
                -0.038763642,
                0.19122352,
                0.09359834,
                0.019522002,
                0.034303352,
                -0.09915582,
                0.11442002,
                -0.2226409,
                0.010319555,
                -0.1617613,
                -0.112215996,
                0.062912144,
                0.06993098,
                -0.06508808,
                0.031242987,
                -0.02376009,
                0.20600161,
                -0.04613331,
                -0.11531328,
                0.0059325546,
                0.24030277,
                -0.2657531,
                -0.15221088,
                -0.035979405,
                -0.030088915,
                -0.091614954,
                -0.047761768,
                -0.037416913,
                0.018765537,
                -0.004884327,
                0.17268327,
                0.06988789,
                -0.04831577,
                0.0532417,
                0.032654315,
                -0.0085762665,
                -0.05723221,
                0.11849448,
                -0.119630486,
                0.06887141,
                0.00786615,
                -0.0038077496,
                0.13936003,
                0.11760258,
                0.03382854,
                0.059142143,
                0.027548457,
                0.117915094,
                0.05343113,
                -0.10815356,
                0.05974693,
                0.13611044,
                0.0691803,
                0.04882986,
                -0.065096475,
                0.13529791,
                -0.055812147,
                0.053778425,
                -0.033255894,
                -0.15508021,
                0.09780531,
                0.08534386,
                0.030222306,
                -0.027589845,
                0.09016432,
                0.06537586,
                -0.13912994,
                -0.075917296,
                -0.026846973,
                -0.09776959,
                0.099233374,
                0.064681694,
                -0.10573454,
                -0.058789648,
                -0.008361282,
                -0.023330446,
                0.012717733,
                -0.049394093,
                -0.0318393,
                -0.005080236,
                -0.23866113,
                0.06277477,
                0.14296037,
                0.0050463397,
                0.037013512,
                -0.007189965,
                -0.1316467,
                0.05652981,
                0.05141656,
                -0.00993097,
                -0.080531925,
                0.06210963,
                -0.07009293,
                0.21061713,
                0.10411793,
                0.0733645,
                -0.08388258,
                0.04210023,
                -0.08972885,
                -0.09109079,
                -0.1260903,
                0.14194827,
                0.03670065,
                -0.040942315,
                0.11036976,
                -0.04276572,
                0.012385828,
                -0.08973764,
                0.035226144,
                -0.04952719,
                0.14676647,
                0.21380633,
                0.016981274,
                -0.107183546,
                -0.03943559,
                -0.03893455,
                0.035259046,
                0.07054694,
                0.10276797
              ]
            },
            "biases": {
              "v": 1,
              "dim": [
                10
              ],
              "data": [
                -0.16715068,
                -0.042243622,
                0.000777578,
                0.1128019,
                -0.022703426,
                -0.13933817,
                -0.07551785,
                -0.010373069,
                0.016191835,
                -0.021071298
              ]
            }
          },
          {
            "weights": {
              "v": 1,
              "dim": [
                8,
                10
              ],
              "data": [
                0.02733067,
                0.0298133,
                -0.09580408,
                0.115954,
                -0.09925957,
                0.049394406,
                0.04847283,
                -0.110017024,
                -0.029932076,
                -0.0028128996,
                -0.052335285,
                0.082718335,
                0.14122137,
                -0.03605389,
                -0.022904364,
                -0.05813737,
                0.10150254,
                -0.119385794,
                0.06519478,
                0.07447952,
                0.10059977,
                -0.015767917,
                -0.0101332255,
                0.019975075,
                0.0468369,
                -0.14703894,
                -0.008141253,
                0.09716869,
                -0.11128496,
                -0.00037684664,
                -0.07311943,
                0.12094292,
                0.042825893,
                -0.013873868,
                0.06994252,
                0.09447475,
                0.035873562,
                -0.011481514,
                0.0008054543,
                -0.08066996,
                -0.047241926,
                0.03355085,
                0.03707892,
                0.008760465,
                0.13247979,
                0.075594686,
                0.015746763,
                0.019086152,
                -0.06579295,
                -0.0112455,
                -0.14090994,
                0.035376206,
                -0.024686249,
                0.110620655,
                -0.11035017,
                -0.026520932,
                0.14189373,
                0.092772044,
                -0.056975074,
                0.023409637,
                -0.07178761,
                -0.006586915,
                0.085758984,
                -0.04124198,
                -0.077125765,
                -0.13305224,
                0.017283797,
                0.11649993,
                0.0519657,
                -0.031772267,
                -0.022483077,
                0.020030955,
                0.046141997,
                -0.0013623573,
                0.027458059,
                -0.036915906,
                0.08931651,
                -0.03833685,
                -0.10535187,
                -0.0041182116
              ]
            },
            "biases": {
              "v": 1,
              "dim": [
                8
              ],
              "data": [
                -0.104744546,
                0.018584216,
                0.006441582,
                -0.03167048,
                0.09720665,
                0.075827345,
                -0.01027008,
                0.112873405
              ]
            }
          }
        ]
      }
    },
    {
      "id": 4310,
      "age": 45.69959,
      "score": 8,
      "pos": {
        "v": 1,
        "dim": [
          2
        ],
        "data": [
          942.0213,
          247.59264
        ]
      },
      "rot": -7.667242,
      "energy": 0.5147198,
      "signal": {
        "v": 1,
        "dim": [
          3
        ],
        "data": [
          0.46850833,
          0.49594992,
          0.5494606
        ]
      },
      "memory": {
        "v": 1,
        "dim": [
          3
        ],
        "data": [
          0.17929557,
          0.009430314,
          -0.4047288
        ]
      },
      "brain": {
        "layers": [
          {
            "weights": {
              "v": 1,
              "dim": [
                10,
                16
              ],
              "data": [
                0.12291383,
                0.15944952,
                -0.043597795,
                0.070896715,
                0.08028771,
                -0.15088609,
                0.14924853,
                0.18160701,
                -0.13575631,
                -0.04930529,
                0.09447102,
                -0.14041531,
                -0.052216485,
                -0.000057403,
                0.10263802,
                -0.20021519,
                -0.12992986,
                -0.21921203,
                0.016673941,
                -0.04558517,
                -0.12594415,
                0.0042500272,
                0.07621297,
                0.29344302,
                0.03854367,
                -0.0066453367,
                -0.1473568,
                0.1997696,
                -0.019548882,
                0.13588628,
                0.06448056,
                -0.014148876,
                -0.018174179,
                -0.10497616,
                0.030966565,
                0.26534224,
                0.118683495,
                -0.037407488,
                -0.09088048,
                -0.2292579,
                0.18626499,
                -0.19608724,
                -0.08550329,
                -0.12571982,
                -0.12291746,
                -0.13816401,
                -0.2403982,
                0.114169806,
                -0.15568133,
                0.11280466,
                0.20453116,
                0.003354624,
                -0.22998907,
                0.17162472,
                -0.0083918795,
                0.1679047,
                -0.0028926544,
                0.008263275,
                -0.050730485,
                -0.08939564,
                -0.12908424,
                0.09627829,
                -0.04144372,
                -0.07889749,
                -0.0067640953,
                0.033716403,
                -0.06092466,
                -0.040197417,
                -0.31168643,
                -0.09539942,
                0.15981762,
                -0.28500125,
                -0.12166489,
                -0.20617981,
                0.1981927,
                0.12352026,
                -0.13791308,
                0.027749904,
                -0.015419893,
                -0.19693631,
                -0.034769252,
                0.101029396,
                0.10000072,
                0.26089334,
                -0.13693309,
                0.19588464,
                0.03912831,
                -0.059688374,
                0.06865689,
                0.15509403,
                -0.05796033,
                -0.20691463,
                0.16212425,
                -0.05022174,
                0.036012203,
                -0.14943203,
                -0.033029817,
                -0.16651954,
                0.11471957,
                0.051947474,
                -0.061709173,
                -0.07567865,
                0.19144894,
                -0.18654476,
                0.046838954,
                -0.21012506,
                -0.061003495,
                -0.00833834,
                0.022289805,
                0.24830493,
                0.03978713,
                0.2325824,
                -0.03900282,
                -0.18852493,
                -0.0030853972,
                -0.0135261305,
                -0.17193392,
                -0.044460453,
                0.12538062,
                -0.016565524,
                0.07454313,
                -0.028789055,
                0.053023733,
                -0.04134011,
                0.1344562,
                -0.20350161,
                0.11243843,
                0.02559872,
                0.05261211,
                0.019109905,
                0.1842089,
                0.03851677,
                -0.06558886,
                -0.027194899,
                -0.08632013,
                0.010503203,
                0.050570674,
                0.17422807,
                -0.010852486,
                -0.16329749,
                -0.22633857,
                0.05174777,
                -0.1941046,
                -0.0062836576,
                0.023389451,
                -0.036436357,
                -0.12390654,
                -0.0796318,
                -0.050704643,
                0.0973188,
                0.15457776,
                -0.059490427,
                0.072397545,
                -0.05123195,
                0.116667375,
                0.0039638653,
                0.0006699264,
                -0.022936687,
                -0.16868563,
                0.12146418
              ]
            },
            "biases": {
              "v": 1,
              "dim": [
                10
              ],
              "data": [
                -0.13469362,
                -0.026082892,
                0.11875164,
                -0.007441163,
                0.20378704,
                0.016927913,
                -0.1744075,
                0.056413718,
                -0.045334183,
                -0.016312405
              ]
            }
          },
          {
            "weights": {
              "v": 1,
              "dim": [
                8,
                10
              ],
              "data": [
                0.07686739,
                -0.25057027,
                -0.22833796,
                -0.050480887,
                0.0014859885,
                0.18484083,
                0.14721718,
                0.0867859,
                0.04403328,
                0.11099263,
                0.041782737,
                0.0696326,
                -0.0054150373,
                0.12188034,
                -0.12582521,
                0.21839117,
                -0.014112107,
                -0.01750987,
                0.063909195,
                0.0130839795,
                -0.28793922,
                0.051835407,
                0.266802,
                0.033707395,
                0.027534664,
                -0.18387407,
                0.1095861,
                -0.076756924,
                -0.06586888,
                -0.022065103,
                -0.080906376,
                -0.053694155,
                0.020038612,
                0.03327329,
                0.08891006,
                -0.019895412,
                -0.046093613,
                0.15589939,
                0.099238716,
                0.051270686,
                -0.116663545,
                -0.09799881,
                -0.07764493,
                0.05144927,
                -0.07241177,
                -0.032708053,
                0.0093369335,
                0.2299124,
                -0.015189372,
                0.17965917,
                0.0017601922,
                0.0329649,
                0.12155518,
                -0.19714485,
                0.20317441,
                0.0146841705,
                0.29308087,
                -0.0005808547,
                0.05837162,
                0.046644494,
                -0.1032531,
                0.18641661,
                0.00745631,
                0.23703635,
                0.19813633,
                -0.0988981,
                -0.114114955,
                -0.081251204,
                -0.047201432,
                0.050670527,
                -0.12281738,
                0.16717342,
                -0.12793949,
                0.06540011,
                0.110149704,
                0.10119153,
                0.0041974224,
                0.16132745,
                0.021079883,
                -0.31760484
              ]
            },
            "biases": {
              "v": 1,
              "dim": [
                8
              ],
              "data": [
                0.01954516,
                -0.13078648,
                0.2860804,
                0.24625614,
                -0.0125432685,
                -0.14515822,
                -0.09986915,
                0.09617791
              ]
            }
          }
        ]
      }
    },
    {
      "id": 4381,
      "age": 42.149643,
      "score": 8,
      "pos": {
        "v": 1,
        "dim": [
          2
        ],
        "data": [
          42.316536,
          687.7126
        ]
      },
      "rot": -89.93956,
      "energy": 0.6164999,
      "signal": {
        "v": 1,
        "dim": [
          3
        ],
        "data": [
          0.4987799,
          0.5117068,
          0.49509346
        ]
      },
      "memory": {
        "v": 1,
        "dim": [
          3
        ],
        "data": [
          -0.1674887,
          -0.1415029,
          -0.15605757
        ]
      },
      "brain": {
        "layers": [
          {
            "weights": {
              "v": 1,
              "dim": [
                10,
                16
              ],
              "data": [
                -0.015278928,
                0.022721099,
                -0.22379208,
                -0.13001068,
                0.107680544,
                -0.05727116,
                -0.03926582,
                0.007002387,
                -0.07720946,
                0.019646384,
                0.18062654,
                0.016732814,
                -0.035107534,
                -0.081122756,
                -0.03367784,
                -0.15302147,
                -0.17117354,
                0.06491692,
                0.14417425,
                -0.12479563,
                -0.17400621,
                0.07062355,
                0.06410667,
                -0.10930182,
                0.08433551,
                0.07523249,
                0.045896783,
                0.13609174,
                -0.058676824,
                -0.046906427,
                0.04235387,
                0.013691574,
                -0.07369147,
                0.010587413,
                -0.04995504,
                -0.06389861,
                0.085075185,
                0.032430828,
                0.1520622,
                0.10225509,
                0.17712027,
                0.06778836,
                -0.08153015,
                -0.06855616,
                -0.06901717,
                0.03444601,
                -0.092459306,
                0.035650596,
                -0.009048648,
                -0.116515934,
                0.07721809,
                0.072534546,
                0.057422914,
                0.033703703,
                -0.1265684,
                0.1427135,
                -0.051992945,
                0.024434136,
                0.056801714,
                0.049805395,
                0.18526725,
                -0.06209809,
                -0.026791614,
                -0.10279448,
                0.03561716,
                0.09650238,
                0.13989943,
                -0.03225136,
                -0.055069823,
                -0.0015921071,
                0.1164476,
                0.018306166,
                -0.17196813,
                -0.149016,
                0.06521112,
                0.047798894,
                -0.016697217,
                -0.0030070134,
                0.04996234,
                0.047557738,
                0.15008193,
                -0.027720992,
                -0.11520675,
                0.1785698,
                -0.02455223,
                0.14346592,
                -0.050340757,
                -0.025486575,
                -0.007464636,
                -0.07268719,
                -0.03519246,
                -0.115297124,
                0.30625162,
                -0.004197696,
                -0.06695567,
                -0.13783604,
                -0.1235792,
                -0.06720978,
                -0.07862933,
                0.18865258,
                -0.070134155,
                -0.056339547,
                0.05645957,
                0.163279,
                0.107522435,
                0.045091562,
                -0.012529787,
                0.20050834,
                0.092918426,
                0.020638242,
                -0.11610863,
                -0.10400255,
                0.016507052,
                -0.15849099,
                -0.09224621,
                -0.06806056,
                -0.043387234,
                -0.061177466,
                0.11605732,
                -0.03414095,
                -0.035980225,
                -0.22368005,
                0.066180505,
                0.08150696,
                -0.071749434,
                -0.017263338,
                -0.10961818,
                0.01952117,
                0.11248922,
                -0.019709792,
                -0.11604118,
                -0.13392977,
                0.019590668,
                0.008253612,
                0.13224451,
                -0.15330042,
                -0.03453321,
                -0.18371408,
                -0.2353496,
                -0.042645402,
                -0.062187362,
                -0.06442682,
                0.0810229,
                0.035663076,
                -0.008935887,
                -0.05997861,
                0.10172768,
                0.015630208,
                -0.03188546,
                0.013883605,
                -0.058699824,
                0.052242532,
                0.15024374,
                0.13715549,
                0.24748074,
                0.074768,
                0.13837802,
                -0.01745626,
                -0.14303035,
                0.113843165
              ]
            },
            "biases": {
              "v": 1,
              "dim": [
                10
              ],
              "data": [
                -0.12772651,
                -0.10286186,
                0.051787805,
                0.08766711,
                -0.14150721,
                -0.020420024,
                0.10743401,
                0.08214787,
                -0.19034465,
                0.08680278
              ]
            }
          },
          {
            "weights": {
              "v": 1,
              "dim": [
                8,
                10
              ],
              "data": [
                -0.1353806,
                0.029801562,
                -0.012458924,
                -0.037247468,
                0.012750894,
                -0.10281975,
                -0.04247394,
                0.045023747,
                -0.003041301,
                -0.08943243,
                -0.087037496,
                -0.035713173,
                0.10806799,
                0.022101048,
                0.039693948,
                -0.02667167,
                0.031856395,
                0.15515727,
                -0.23426738,
                0.16492778,
                -0.028451115,
                -0.040480673,
                -0.048823982,
                0.0006986223,
                0.010348447,
                -0.06812686,
                -0.1826875,
                0.023291655,
                -0.11151826,
                0.017153326,
                -0.01975578,
                0.09891117,
                0.06568831,
                -0.02892553,
                -0.014139607,
                0.0031977147,
                -0.05597054,
                -0.06265777,
                0.12121599,
                0.031300947,
                0.1406739,
                0.049218655,
                -0.0043085255,
                0.06910953,
                0.022680938,
                -0.07195254,
                -0.010114392,
                0.026217032,
                -0.12848324,
                0.11072132,
                0.17505124,
                -0.039391335,
                -0.058103647,
                0.09446756,
                -0.13495095,
                0.21353596,
                0.025528913,
                0.06826083,
                0.16896766,
                -0.051716357,
                0.051283706,
                -0.11832769,
                0.08771628,
                0.023957454,
                -0.19470915,
                -0.046844766,
                0.16515313,
                0.08452223,
                0.11346531,
                0.12262043,
                -0.0077337734,
                0.035443082,
                -0.013656357,
                0.038827937,
                -0.046224803,
                -0.19218662,
                0.08560928,
                0.045157317,
                -0.023035914,
                -0.032343607
              ]
            },
            "biases": {
              "v": 1,
              "dim": [
                8
              ],
              "data": [
                -0.031298496,
                -0.06718403,
                -0.048370704,
                -0.14716706,
                -0.15922327,
                -0.08037577,
                -0.1711087,
                0.16987045
              ]
            }
          }
        ]
      }
    },
    {
      "id": 4116,
      "age": 55.39944,
      "score": 8,
      "pos": {
        "v": 1,
        "dim": [
          2
        ],
        "data": [
          213.70572,
          237.1487
        ]
      },
      "rot": 10.549021,
      "energy": 0.8068311,
      "signal": {
        "v": 1,
        "dim": [
          3
        ],
        "data": [
          0.5160427,
          0.5406714,
          0.4906444
        ]
      },
      "memory": {
        "v": 1,
        "dim": [
          3
        ],
        "data": [
          -0.003640794,
          0.016547667,
          0.113474645
        ]
      },
      "brain": {
        "layers": [
          {
            "weights": {
              "v": 1,
              "dim": [
                10,
                16
              ],
              "data": [
                0.12264764,
                0.0013165884,
                -0.13973959,
                0.05363538,
                0.1681698,
                -0.028644847,
                0.09824529,
                0.015754942,
                0.089778356,
                -0.11747713,
                0.15978935,
                -0.13447335,
                -0.025308244,
                -0.004921254,
                0.025681868,
                -0.1994591,
                -0.30789262,
                -0.20157947,
                0.028606387,
                -0.04948151,
                -0.036610372,
                -0.056611642,
                0.16801777,
                0.07189844,
                0.13786204,
                0.09801668,
                0.15942201,
                0.22168672,
                0.07534039,
                0.05898272,
                -0.007736061,
                -0.07297541,
                0.015853792,
                -0.16747385,
                0.00021749735,
                0.15248795,
                0.1890401,
                0.18747577,
                -0.10179407,
                -0.09198991,
                0.00039334223,
                -0.06485462,
                0.12836711,
                -0.09239282,
                -0.08308918,
                -0.035402738,
                -0.18615535,
                0.12785974,
                0.031907395,
                0.072920546,
                0.17807522,
                0.04729073,
                -0.17192459,
                -0.07594527,
                -0.053164825,
                0.067785695,
                -0.040850107,
                -0.037367877,
                0.017990198,
                -0.09392454,
                0.0150741115,
                0.11413057,
                0.089839846,
                0.09767351,
                -0.0038239304,
                -0.07957019,
                0.0033919215,
                -0.23983794,
                -0.087260105,
                -0.12179433,
                0.09325098,
                -0.073747426,
                -0.014100622,
                -0.07839883,
                -0.009621944,
                0.0902578,
                -0.2275365,
                0.00421793,
                0.12401995,
                -0.11068551,
                -0.0024873521,
                -0.025009446,
                0.07188503,
                0.27758738,
                -0.19821435,
                0.13133314,
                0.07188461,
                -0.003168583,
                0.079062834,
                0.06792839,
                -0.15013486,
                -0.13938242,
                0.2200388,
                0.013144642,
                -0.07015235,
                -0.06812456,
                -0.11781015,
                -0.14051715,
                0.25140917,
                0.027069809,
                -0.035230123,
                -0.07917026,
                0.2602865,
                -0.10795636,
                0.19778997,
                -0.19709352,
                -0.06655124,
                0.22505853,
                -0.0031078681,
                -0.07354236,
                -0.15611562,
                0.14498152,
                -0.09831252,
                -0.090499766,
                -0.13025048,
                -0.06406714,
                -0.029000469,
                -0.09756348,
                -0.076466314,
                0.054979883,
                0.049954094,
                -0.15196249,
                0.18320432,
                0.10356742,
                0.09948007,
                -0.10693584,
                -0.035883676,
                0.19916949,
                0.13638309,
                0.026424892,
                0.17131752,
                -0.11771419,
                0.19171244,
                0.16131425,
                0.020449966,
                0.04933876,
                0.17404184,
                -0.063573495,
                -0.113279335,
                -0.14093283,
                -0.076864086,
                0.105900735,
                -0.14783746,
                -0.11149353,
                0.015315775,
                0.07266543,
                -0.076544456,
                0.008756742,
                -0.109297924,
                -0.058015432,
                0.12531887,
                0.035612896,
                0.11647417,
                0.26695335,
                0.14989382,
                0.097653456,
                -0.020805538,
                0.024195492,
                -0.15803978,
                -0.095843256
              ]
            },
            "biases": {
              "v": 1,
              "dim": [
                10
              ],
              "data": [
                -0.15455103,
                0.096393324,
                0.076660775,
                0.18889502,
                0.14583811,
                0.069395356,
                -0.053054325,
                0.02080673,
                0.090420954,
                -0.041997366
              ]
            }
          },
          {
            "weights": {
              "v": 1,
              "dim": [
                8,
                10
              ],
              "data": [
                0.12226411,
                -0.21686694,
                -0.1537393,
                -0.066148914,
                -0.16195844,
                0.30775434,
                0.13119616,
                0.118369944,
                0.18494871,
                0.04666289,
                0.14613998,
                0.094351485,
                0.06041111,
                0.022681583,
                -0.16649362,
                0.08741777,
                -0.10037755,
                0.2319243,
                0.035087086,
                0.11335403,
                -0.08289696,
                -0.09752268,
                0.18118688,
                0.020912727,
                0.099870086,
                -0.07072066,
                -0.14773372,
                0.083749115,
                -0.07680897,
                -0.043521244,
                -0.115423635,
                -0.07992771,
                -0.018150728,
                0.09956041,
                0.054579157,
                -0.07346323,
                -0.026984043,
                0.020252258,
                0.0582761,
                0.05227668,
                0.0061357804,
                -0.024569234,
                0.031560227,
                0.1571928,
                -0.117728375,
                0.055357978,
                -0.20186803,
                0.27968106,
                -0.096194655,
                0.093841895,
                0.14797214,
                -0.09525689,
                0.10048938,
                0.07500711,
                -0.05219753,
                -0.026120685,
                0.24873997,
                0.16787498,
                0.12311979,
                -0.14037648,
                -0.04866222,
                0.24433473,
                -0.21203694,
                0.12832119,
                0.14846107,
                -0.14561164,
                -0.10128081,
                0.019134425,
                -0.20896064,
                0.012460165,
                -0.22980651,
                0.12004406,
                -0.11810301,
                -0.12714978,
                0.0073270947,
                -0.057636265,
                -0.049459618,
                0.11589237,
                -0.07260237,
                -0.20873374
              ]
            },
            "biases": {
              "v": 1,
              "dim": [
                8
              ],
              "data": [
                -0.088201135,
                0.12442036,
                -0.029636815,
                0.009529866,
                -0.06931423,
                -0.015147854,
                0.017333038,
                0.04056803
              ]
            }
          }
        ]
      }
    },
    {
      "id": 4281,
      "age": 47.149567,
      "score": 8,
      "pos": {
        "v": 1,
        "dim": [
          2
        ],
        "data": [
          643.668,
          118.03342
        ]
      },
      "rot": -192.00516,
      "energy": 0.5553709,
      "signal": {
        "v": 1,
        "dim": [
          3
        ],
        "data": [
          0.4991054,
          0.47613898,
          0.49202195
        ]
      },
      "memory": {
        "v": 1,
        "dim": [
          3
        ],
        "data": [
          0.031008018,
          -0.11289669,
          -0.07611271
        ]
      },
      "brain": {
        "layers": [
          {
            "weights": {
              "v": 1,
              "dim": [
                10,
                16
              ],
              "data": [
                -0.10915004,
                0.16972888,
                -0.11959785,
                0.10266466,
                -0.07220366,
                0.20972894,
                -0.047475725,
                0.20739076,
                -0.106140986,
                -0.030293167,
                0.0497733,
                -0.025692407,
                -0.18581931,
                -0.046120197,
                0.13214183,
                0.09577462,
                -0.22148845,
                -0.21088904,
                -0.037613675,
                0.025227899,
                -0.2567587,
                0.24176072,
                0.1329307,
                0.08333184,
                0.10083956,
                -0.09949458,
                0.08332861,
                0.14123699,
                0.087549716,
                0.082514875,
                -0.18501732,
                -0.23467875,
                -0.15950045,
                -0.037073202,
                0.012905806,
                0.034378596,
                -0.051188573,
                -0.10468019,
                -0.0582961,
                -0.021018878,
                -0.096193604,
                0.010228906,
                0.08044199,
                0.0052363984,
                -0.050146773,
                0.055675566,
                0.063914254,
                -0.06285089,
                -0.12871519,
                0.10740865,
                0.09020634,
                0.032469384,
                0.020122658,
                0.047111686,
                -0.08258207,
                0.1488031,
                -0.12894036,
                0.090428255,
                0.094573796,
