{
  "organisms": [
    {
      "id": 3902,
      "age": 57.899403,
      "score": 20,
      "pos": {
        "v": 1,
        "dim": [
          2
        ],
        "data": [
          591.3658,
          489.17386
        ]
      },
      "rot": -10.725684,
      "energy": 0.08437482,
      "signal": {
        "v": 1,
        "dim": [
          8
        ],
        "data": [
          0.3626017,
          0.5286872,
          0.41841158,
          0.55341125,
          0.4217246,
          0.3743241,
          0.41541365,
          0.539846
        ]
      },
      "memory": {
        "v": 1,
        "dim": [
          8
        ],
        "data": [
          -0.54338616,
          -0.5505238,
          -0.13357651,
          0.3812869,
          0.5338737,
          -0.31663892,
          0.11163244,
          -0.015518087
        ]
      },
      "brain": {
        "layers": [
          {
            "weights": {
              "v": 1,
              "dim": [
                16,
                44
              ],
              "data": [
                -0.22102427,
                -0.43155777,
                -0.3001839,
                0.25086516,
                0.044454504,
                -0.048106182,
                0.13813336,
                0.011489354,
                -0.23410808,
                0.09248778,
                -0.18693049,
                -0.06849088,
                -0.2392243,
                0.01394123,
                0.040545005,
                -0.079392865,
                0.44878003,
                -0.23842952,
                -0.26213804,
                -0.13753384,
                0.033020448,
                -0.32827646,
                0.1914285,
                -0.091551185,
                0.09953597,
                -0.22056109,
                -0.08476989,
                -0.07737176,
                0.02577287,
                -0.066967085,
                -0.30584094,
                0.013230421,
                -0.086521745,
                0.17062859,
                0.0729219,
                -0.11717774,
                -0.21646394,
                -0.101625815,
                -0.1556614,
                0.39580336,
                -0.039372303,
                0.41879958,
                -0.12027258,
                0.0060918536,
                0.070949614,
                -0.093300804,
                -0.15063465,
                0.2668576,
                -0.041313086,
                -0.2856929,
                -0.18538994,
                -0.023106497,
                -0.1046443,
                -0.18648219,
                0.19114216,
                -0.056016896,
                0.07489711,
                -0.22201252,
                0.06377633,
                0.059167318,
                -0.17923453,
                0.25574654,
                0.032084614,
                0.011362424,
                0.10997546,
                -0.35664657,
                -0.18852267,
                0.21016517,
                0.1419558,
                -0.29145274,
                -0.20369513,
                -0.17399514,
                -0.20320162,
                0.025605628,
                0.21129759,
                -0.33183903,
                -0.019672427,
                -0.35164726,
                -0.116903424,
                0.114170924,
                -0.13734391,
                -0.014506415,
                -0.12654395,
                0.03695448,
                -0.6726514,
                0.09248893,
                -0.10663438,
                0.0017026924,
                -0.18797833,
                0.009459708,
                0.105071165,
                -0.06892851,
                0.4094333,
                0.10269449,
                -0.22378309,
                0.012539299,
                0.24158953,
                0.42642108,
                -0.073330626,
                -0.24680202,
                0.0078088753,
                0.007281274,
                0.31742823,
                -0.23183209,
                0.15112339,
                0.4787456,
                0.33441654,
                0.48325524,
                0.053459633,
                0.18622066,
                -0.079943255,
                0.1864368,
                -0.38899282,
                -0.005243901,
                0.46302518,
                0.16368872,
                0.07862367,
                0.32131046,
                0.056263983,
                -0.18721296,
                -0.28848892,
                0.22898471,
                0.18916465,
                0.22788367,
                -0.050473694,
                -0.20163307,
                0.23108344,
                0.22649497,
                0.07733364,
                -0.1654891,
                -0.12397072,
                -0.15766911,
                0.48823783,
                0.4410676,
                -0.0685118,
                -0.04302577,
                -0.17074649,
                -0.2990426,
                -0.08197692,
                0.14678885,
                -0.060974255,
                0.091096476,
                -0.0957515,
                0.19766694,
                -0.3210212,
                0.30352286,
                -0.28078967,
                -0.044644527,
                0.004393397,
                -0.19503951,
                -0.09402673,
                0.1048498,
                0.25123346,
                0.043118887,
                0.3489252,
                -0.2119233,
                0.6826646,
                0.020633321,
                0.23613104,
                0.22946493,
                -0.14226642,
                -0.029844414,
                0.19706607,
                0.27332002,
                -0.45427886,
                -0.4974448,
                -0.025191842,
                -0.0494308,
                0.13889173,
                0.32273793,
                0.16496077,
                0.13910326,
                0.024620583,
                0.13424774,
                -0.0155771,
                0.050550118,
                0.24667932,
                0.22532824,
                -0.07399614,
                -0.13397475,
                0.268121,
                -0.07313308,
                -0.12553425,
                0.10614711,
                0.21352895,
                0.11597074,
                0.2387391,
                0.3074219,
                0.15940762,
                -0.2935902,
                -0.059014462,
                0.006758148,
                -0.4729459,
                0.38118017,
                0.15779638,
                -0.08374035,
                -0.42411742,
                -0.073253654,
                0.04789072,
                0.11305137,
                0.26290125,
                0.11755535,
                -0.21317782,
                -0.15054962,
                0.031322338,
                -0.14819753,
                0.15979059,
                0.15268391,
                -0.21027122,
                0.17314401,
                -0.19597754,
                0.14857748,
                0.23481148,
                -0.077339604,
                -0.07318933,
                0.033545192,
                -0.07092935,
                -0.18082675,
                0.18993036,
                0.07292326,
                -0.09047009,
                -0.055951227,
                0.1254417,
                0.096021205,
                0.20782124,
                0.08178981,
                0.25869048,
                -0.06329446,
                -0.23145434,
                -0.059293393,
                -0.26614803,
                -0.16326776,
                0.09197484,
                -0.12147567,
                0.103918105,
                0.21707204,
                0.072613984,
                0.02724697,
                -0.26614767,
                -0.049161445,
                -0.17725801,
                -0.08951472,
                0.064466834,
                0.16235806,
                -0.07783547,
                -0.13697676,
                0.1712093,
                0.5455891,
                -0.2061642,
                -0.3440112,
                0.20818733,
                -0.03240595,
                0.21457845,
                0.3488593,
                0.38325205,
                -0.2730492,
                -0.30870703,
                0.5683104,
                0.25354484,
                0.47764024,
                -0.6845324,
                0.2645955,
                0.20560092,
                -0.27663937,
                0.5458278,
                -0.106362075,
                0.089261256,
                0.120798096,
                -0.18150865,
                0.37512448,
                -0.50690365,
                0.2664344,
                -0.040227044,
                0.054378998,
                -0.6036663,
                0.116863236,
                0.17176975,
                0.20214345,
                0.5390872,
                -0.15464053,
                0.60170025,
                0.22577468,
                -0.00919326,
                0.2928724,
                0.2811607,
                0.07257891,
                -0.116810426,
                -0.17092966,
                -0.07636723,
                0.088869706,
                0.0986896,
                0.108989015,
                0.026090167,
                -0.16332628,
                0.11532317,
                0.06989932,
                -0.42206854,
                0.24898043,
                -0.0364586,
                0.109619185,
                0.23208274,
                0.043287374,
                -0.19365254,
                0.0489886,
                0.050668616,
                0.42033494,
                -0.055119112,
                0.110191196,
                0.17770796,
                -0.115771756,
                -0.49804175,
                0.38414732,
                -0.20439859,
                -0.014518339,
                -0.49513674,
                0.3432631,
                0.2930633,
                0.12630722,
                -0.31113163,
                -0.11793247,
                0.06923644,
                -0.029625468,
                -0.010745656,
                0.3569522,
                0.030752476,
                -0.24515039,
                -0.04303791,
                0.10472758,
                0.14417365,
                0.043281328,
                0.38570258,
                0.41433117,
                -0.04543707,
                0.07082321,
                0.45853606,
                -0.16201627,
                0.078984074,
                0.031373814,
                -0.24930073,
                0.15348782,
                -0.45015383,
                -0.14780748,
                -0.10785271,
                -0.37527996,
                -0.44682705,
                0.2716701,
                -0.29816604,
                0.28351524,
                -0.29991528,
                0.05750362,
                -0.207394,
                0.07983363,
                -0.12969527,
                -0.24820766,
                -0.10733506,
                0.14317867,
                0.2165142,
                -0.3045254,
                -0.030091528,
                0.61543316,
                -0.35544795,
                -0.3597407,
                0.09775719,
                0.0953621,
                0.28615,
                0.3576079,
                0.103862904,
                -0.0041245036,
                -0.21104285,
                -0.26187667,
                0.3633197,
                0.16149835,
                -0.36532927,
                -0.20151097,
                0.0954348,
                -0.34884194,
                -0.11804193,
                -0.023397729,
                -0.13613807,
                0.13964385,
                -0.34417602,
                -0.02606501,
                0.038296815,
                0.36699668,
                0.22066909,
                0.24732268,
                0.3765976,
                -0.1891812,
                0.17964447,
                -0.07760632,
                -0.21773355,
                0.009496074,
                0.29279748,
                -0.283272,
                0.1234833,
                0.47439095,
                0.17496358,
                0.4506642,
                0.60316765,
                -0.41897124,
                -0.13515179,
                0.00680897,
                -0.6205023,
                -0.03169385,
                -0.309023,
                -0.13234816,
                -0.10983892,
                -0.101309165,
                -0.2414723,
                -0.026519813,
                -0.04330375,
                -0.027618472,
                -0.13168369,
                0.43581828,
                0.22136949,
                0.0835582,
                0.29519734,
                0.22504734,
                0.32593295,
                -0.22359969,
                -0.15733212,
                0.46973577,
                0.009269275,
                -0.19728434,
                0.060479242,
                0.29760242,
                0.24174806,
                0.07784198,
                0.0799782,
                0.117593005,
                0.21484487,
                -0.08736079,
                -0.037687358,
                -0.067376085,
                -0.00047673285,
                0.15505448,
                -0.27271563,
                0.065459445,
                -0.16430746,
                0.32732052,
                -0.23443009,
                -0.020858381,
                -0.2711211,
                0.044846117,
                -0.09812096,
                0.07169624,
                -0.007854637,
                -0.24880801,
                0.31391454,
                -0.05748639,
                0.058369577,
                -0.109998494,
                0.407112,
                -0.11781645,
                -0.29234946,
                0.22647817,
                -0.16996588,
                -0.5198431,
                0.057757806,
                0.022768307,
                -0.024135627,
                -0.27628037,
                0.38501555,
                0.20567974,
                0.22357112,
                -0.021449309,
                0.11884941,
                -0.061416406,
                0.2424985,
                0.10033022,
                0.2706152,
                -0.2092251,
                0.22253694,
                0.29595852,
                0.045792133,
                0.49315673,
                0.29358885,
                0.21988992,
                0.28038993,
                -0.030409459,
                -0.21443921,
                0.25466424,
                -0.106865525,
                -0.147503,
                0.030238256,
                -0.1526144,
                0.13557158,
                -0.45632994,
                0.034077246,
                -0.11918129,
                -0.124466635,
                -0.41732293,
                0.11082174,
                0.59790325,
                -0.05678959,
                -0.053651307,
                0.045852423,
                0.11165875,
                -0.16987742,
                0.16611701,
                0.036790494,
                -0.15348527,
                -0.18074085,
                0.17011906,
                -0.14186627,
                -0.29163343,
                -0.12019039,
                0.04728706,
                -0.17917222,
                0.32561314,
                -0.38262245,
                0.46977144,
                -0.08397168,
                0.5724609,
                -0.11277814,
                0.17137276,
                0.0643111,
                0.44675148,
                -0.0154080875,
                -0.2439643,
                -0.19194995,
                -0.27185017,
                0.011891345,
                -0.13789578,
                0.32897094,
                -0.330922,
                0.4598245,
                0.31534898,
                -0.120879695,
                0.19775571,
                -0.09099337,
                -0.2925363,
                -0.083029896,
                0.05918266,
                -0.19247764,
                0.0022545084,
                0.14843139,
                -0.058075935,
                -0.21979652,
                -0.15123904,
                0.3331241,
                0.021116115,
                0.13194606,
                0.20954818,
                0.26361516,
                0.20809531,
                -0.069569334,
                0.2536133,
                -0.19664349,
                -0.06940441,
                0.22930036,
                0.41687438,
                -0.4710639,
                0.42012274,
                0.123822376,
                0.1390095,
                -0.27522466,
                0.11382418,
                -0.14818014,
                0.054340955,
                0.046906784,
                0.13880005,
                0.27533767,
                -0.06177662,
                0.121188,
                0.19535722,
                0.17168413,
                0.19929257,
                -0.22734824,
                0.058234368,
                -0.099911645,
                -0.0491185,
                -0.40113312,
                -0.18644664,
                -0.014368851,
                0.31434283,
                0.07147892,
                -0.30603147,
                -0.28191274,
                0.013347808,
                -0.50758785,
                0.27564496,
                -0.20005402,
                0.10793153,
                -0.53959084,
                0.24060819,
                0.024012037,
                -0.000008605421,
                0.045346115,
                0.0036310144,
                -0.040054638,
                -0.20463246,
                -0.075622454,
                0.24273166,
                0.20714495,
                0.2660554,
                -0.13440171,
                -0.20399907,
                -0.38099885,
                0.15733775,
                0.4177366,
                0.044022124,
                -0.022992145,
                -0.006694963,
                0.18397778,
                0.051050153,
                0.40283838,
                0.16669083,
                0.09033923,
                0.3804476,
                0.17979461,
                0.02370079,
                -0.14567785,
                0.41434985,
                0.029151548,
                0.394469,
                0.05436603,
                0.025907751,
                -0.31449756,
                0.21695462,
                0.1686803,
                -0.2262577,
                -0.10993424,
                -0.14658563,
                0.44138122,
                0.2945407,
                0.028134007,
                0.012807146,
                -0.079523236,
                0.15273765,
                -0.15919513,
                -0.5458898,
                0.16508664,
                -0.093053944,
                0.1414636,
                -0.03460266,
                -0.07574613,
                -0.0072569735,
                0.05561335,
                -0.4606091,
                0.18191105,
                0.0889249,
                0.074884586,
                0.25733188,
                0.33422443,
                0.35300323,
                0.24462439,
                -0.15691942,
                0.010888241,
                -0.016732004,
                -0.38330358,
                -0.5001067,
                -0.118186,
                0.11810711,
                -0.10955808,
                -0.40907153,
                0.0022338144,
                0.39633515,
                0.012448572,
                0.056923818,
                -0.25283253,
                0.18453759,
                -0.08632116,
                0.05740486,
                -0.44757652,
                0.08298355,
                -0.1952254,
                0.0016935878,
                -0.30461094,
                -0.10208805,
                0.4583598,
                -0.020611703,
                0.16349293,
                0.3569246,
                0.037922826,
                0.33717063,
                0.17071943,
                -0.19795464,
                -0.28606686,
                -0.16187264,
                -0.6803398,
                -0.15345131,
                0.08474718,
                -0.3291862,
                -0.0046801576,
                -0.20538595,
                0.286374,
                0.22330132,
                -0.12467478,
                -0.09432736,
                0.27398545,
                -0.48209935,
                0.2848457,
                -0.19312556,
                0.049222723,
                -0.07467346,
                -0.10588638,
                0.23562253,
                0.41368538,
                0.22006604,
                -0.12214112,
                -0.21451417,
                -0.3714893,
                0.036446877
              ]
            },
            "biases": {
              "v": 1,
              "dim": [
                16
              ],
              "data": [
                -0.018846776,
                0.28380826,
                -0.1486181,
                0.17693198,
                0.0869507,
                0.35891816,
                -0.1539728,
                0.47896928,
                0.04933483,
                -0.19878206,
                -0.10993652,
                -0.1496593,
                -0.21248773,
                0.19909176,
                -0.113537826,
                -0.03436486
              ]
            }
          },
          {
            "weights": {
              "v": 1,
              "dim": [
                16,
                16
              ],
              "data": [
                0.12030068,
                -0.25829095,
                -0.19564408,
                0.089686446,
                0.1166315,
                -0.08081481,
                -0.06998816,
                0.04745178,
                0.07959162,
                -0.2709109,
                0.20825776,
                -0.24902473,
                -0.11903362,
                -0.45720014,
                -0.3796108,
                -0.14961654,
                0.16679838,
                -0.06411207,
                0.14117682,
                0.19417314,
                0.31353673,
                0.07398008,
                0.5509043,
                0.054395467,
                0.006538324,
                0.27908134,
                -0.31499845,
                0.27970198,
                0.3287551,
                -0.052424267,
                0.083418,
                0.35114896,
                -0.12948754,
                -0.35539287,
                -0.1962995,
                -0.13937268,
                0.023903027,
                0.0065813456,
                -0.110588714,
                0.3060321,
                0.036287885,
                -0.08686562,
                0.2424384,
                -0.046824276,
                -0.17525116,
                0.23240286,
                -0.20322545,
                -0.15204611,
                0.11526117,
                0.036482733,
                -0.2865093,
                -0.011012848,
                0.56783557,
                0.19988142,
                0.055225316,
                -0.34839666,
                -0.21059838,
                -0.08498257,
                -0.61284935,
                -0.3894473,
                0.027331024,
                -0.3132799,
                0.23107153,
                -0.1835896,
                -0.3968615,
                0.25579965,
                0.17183334,
                -0.05023526,
                0.3915122,
                -0.15889037,
                0.044724636,
                -0.10693812,
                0.25787267,
                -0.25452185,
                -0.1845986,
                0.254078,
                0.53239524,
                -0.055382166,
                0.03326633,
                -0.0059827976,
                -0.4311592,
                0.16439605,
                0.3494925,
                0.06222891,
                -0.20508614,
                -0.071721554,
                -0.116293445,
                -0.012413062,
                -0.2628625,
                0.13100468,
                0.31123155,
                -0.49714282,
                -0.110125326,
                -0.10048491,
                0.17537436,
                -0.3648403,
                -0.028766967,
                0.0958513,
                -0.04193098,
                -0.17992546,
                0.09263721,
                -0.29135743,
                0.36884227,
                0.78115624,
                -0.38803014,
                0.21549423,
                0.06014122,
                -0.1486797,
                0.14699875,
                0.07290399,
                -0.0480669,
                -0.13950807,
                -0.5136145,
                0.067161985,
                0.063440084,
                0.14460894,
                0.18039551,
                0.12407035,
                -0.24739249,
                -0.093668066,
                -0.20250763,
                -0.114409,
                -0.17088723,
                -0.13444304,
                0.12176728,
                0.14123026,
                -0.41660053,
                -0.2149001,
                0.20577933,
                0.06546122,
                -0.04284205,
                -0.09231579,
                -0.05536579,
                0.2658842,
                -0.105014205,
                -0.10159676,
                -0.087556094,
                -0.44713038,
                0.3141115,
                0.14429528,
                -0.008937603,
                -0.16091327,
                0.29929575,
                -0.10893469,
                -0.2529033,
                -0.014182273,
                0.575105,
                -0.014659531,
                0.0094287675,
                0.1170534,
                0.4730517,
                -0.25749165,
                0.5402268,
                -0.06409928,
                -0.17122272,
                -0.36485392,
                -0.12799622,
                -0.0497099,
                -0.2956514,
                0.10280593,
                0.19727042,
                -0.2251318,
                0.25853238,
                -0.4717343,
                -0.17801169,
                -0.16980281,
                0.051415402,
                -0.12813549,
                -0.16933821,
                0.09985714,
                0.124451526,
                -0.100746095,
                -0.3826951,
                -0.019291703,
                0.009627175,
                0.43108642,
                -0.10183209,
                0.30312893,
                0.007853655,
                -0.0358289,
                0.13757531,
                -0.0025286824,
                0.47904286,
                0.048392177,
                -0.15423457,
                -0.17733452,
                -0.5321993,
                0.051464085,
                0.28596935,
                -0.3421892,
                -0.34855855,
                -0.2890564,
                0.25692323,
                -0.11226695,
                0.023906574,
                -0.35934478,
                0.21733727,
                -0.2087827,
                -0.45371953,
                -0.3359973,
                -0.24617027,
                -0.103714354,
                0.13412426,
                -0.19963574,
                0.14317815,
                -0.11332062,
                -0.6173153,
                0.08584996,
                -0.24812411,
                0.09747116,
                -0.113368735,
                0.18574551,
                0.08329789,
                0.4481735,
                -0.040328804,
                -0.13361876,
                -0.043098994,
                -0.19586305,
                -0.4548084,
                0.11630738,
                -0.031223355,
                0.045627452,
                -0.21231444,
                0.054349042,
                -0.42014313,
                0.17226669,
                -0.13549629,
                0.06737587,
                -0.5791221,
                0.21962008,
                -0.16998392,
                -0.16878954,
                0.01141981,
                -0.4275993,
                -0.32656145,
                0.08263223,
                -0.078089476,
                0.053546023,
                0.20030014,
                0.24927324,
                -0.28400543,
                -0.2812516,
                -0.63980794,
                0.5563735,
                -0.12178749,
                0.014535458,
                -0.076143846,
                -0.101420656,
                0.0065210164,
                0.56002784,
                0.32212788,
                -0.11773352,
                -0.008392682,
                0.103174776,
                -0.19168654,
                0.09871133
              ]
            },
            "biases": {
              "v": 1,
              "dim": [
                16
              ],
              "data": [
                0.07732469,
                -0.32852742,
                -0.280251,
                -0.28596306,
                -0.054151725,
                -0.073705494,
                0.07026516,
                -0.14631543,
                -0.3855291,
                0.014127182,
                -0.13112429,
                -0.34238356,
                -0.01719613,
                -0.28906912,
                -0.11266658,
                0.27175894
              ]
            }
          },
          {
            "weights": {
              "v": 1,
              "dim": [
                19,
                16
              ],
              "data": [
                0.18497786,
                0.13611768,
                0.08080093,
                0.16222242,
                -0.016737703,
                -0.3378823,
                -0.03070395,
                0.10677479,
                0.45267373,
                0.03005049,
                0.0004765503,
                -0.041731145,
                0.13574369,
                0.07601623,
                -0.24280648,
                -0.13189247,
                -0.09826638,
                -0.4960236,
                -0.031904012,
                0.10609521,
                0.0915099,
                0.16618729,
                -0.32677266,
                -0.29025733,
                -0.19003926,
                -0.0026869276,
                -0.13351844,
                -0.40216675,
                0.08770749,
                -0.43078947,
                -0.2844942,
                -0.08197023,
                0.14811355,
                -0.024644721,
                0.20370997,
                0.33170578,
                0.459411,
                0.02426961,
                0.30331206,
                -0.2326419,
                0.40425402,
                0.13218309,
                0.05887431,
                -0.2432731,
                -0.52590793,
                0.22486685,
                -0.092368044,
                0.23933172,
                -0.1558793,
                0.07968369,
                -0.2769027,
                -0.18678625,
                -0.06592175,
                0.17220165,
                0.1524371,
                -0.18354636,
                0.015006242,
                0.26400054,
                0.3997473,
                -0.0668243,
                -0.08954435,
                -0.116597176,
                0.09893847,
                -0.20212284,
                -0.07592837,
                -0.46407348,
                -0.21670973,
                0.15359978,
                0.060589552,
                -0.016356003,
                -0.19002678,
                -0.26361898,
                0.22600617,
                0.145514,
                0.036180697,
                0.1417408,
                0.34423098,
                0.03659993,
                -0.022093069,
                0.0645964,
                0.20461196,
                0.11225024,
                -0.25193292,
                0.53144914,
                0.2287992,
                -0.0438616,
                -0.26964453,
                0.3792069,
                -0.047568243,
                0.3053775,
                0.15214185,
                -0.42503583,
                -0.013465714,
                0.13244247,
                -0.07400702,
                -0.079435766,
                -0.17416665,
                0.07198647,
                0.67166764,
                0.15743247,
                0.6092765,
                -0.25332168,
                -0.34661758,
                -0.046374794,
                0.2863876,
                -0.039914276,
                -0.73518354,
                0.2515944,
                -0.34090334,
                -0.13131197,
                -0.034197066,
                -0.20776358,
                -0.06774852,
                -0.26320407,
                -0.0834143,
                -0.19010603,
                0.02199966,
                -0.5333186,
                0.1669061,
                -0.5063293,
                -0.1909232,
                -0.07000981,
                -0.012335863,
                0.19045755,
                0.34062976,
                -0.0019028932,
                0.1286672,
                -0.039549824,
                0.49570832,
                0.014628999,
                0.016346723,
                0.08879568,
                -0.055469748,
                0.017325228,
                -0.18299228,
                0.32313913,
                0.38063854,
                0.028683245,
                -0.39574817,
                -0.22130296,
                0.16087928,
                -0.05877574,
                0.004111074,
                0.22857155,
                0.14906567,
                -0.26641098,
                0.040795267,
                -0.19916105,
                0.15063393,
                -0.22184268,
                0.40582436,
                0.14495118,
                0.42195964,
                -0.21639514,
                0.30344683,
                0.47704616,
                0.37715638,
                -0.14825818,
                -0.062902495,
                -0.077616766,
                0.22841112,
                0.29017583,
                -0.0585473,
                0.13724953,
                -0.30924284,
                0.4019936,
                -0.10770792,
                0.13627438,
                0.15399632,
                -0.09283947,
                -0.22184569,
                -0.21247004,
                -0.105298385,
                0.35484737,
                0.3797579,
                0.049751386,
                -0.12443307,
                -0.38320637,
                -0.13185698,
                -0.123397246,
                -0.5558395,
                0.0006804839,
                -0.102423556,
                0.06082451,
                -0.043542203,
                0.28232566,
                -0.34583405,
                -0.2604835,
                0.011934288,
                0.15601593,
                0.034605037,
                0.1406922,
                -0.020213986,
                0.05238721,
                -0.3683974,
                -0.18333238,
                0.04882419,
                -0.15736112,
                -0.062409073,
                -0.0009351503,
                0.53916854,
                0.08114952,
                -0.13585573,
                -0.0058322437,
                -0.52553,
                0.19903629,
                0.35416165,
                -0.15068331,
                0.090504214,
                -0.11064267,
                0.3000861,
                -0.09758441,
                -0.31480616,
                0.24087913,
                -0.06731221,
                0.13705933,
                0.31513986,
                0.022163348,
                0.21603824,
                0.08850238,
                -0.10915032,
                -0.10252491,
                0.08596282,
                -0.08147675,
                -0.5011725,
                0.11726248,
                0.023763712,
                -0.14525893,
                0.3525263,
                -0.2817929,
                0.03871293,
                0.37198043,
                -0.078834444,
                -0.11575316,
                -0.37097293,
                0.047851287,
                0.34505528,
                0.19551204,
                0.21926159,
                0.31441456,
                0.029501256,
                -0.08520019,
                -0.101736665,
                0.016022805,
                -0.255455,
                0.25184864,
                0.1302787,
                0.19673826,
                0.2005968,
                -0.24736282,
                -0.22146976,
                0.21509254,
                0.06657988,
                0.24771948,
                0.12873226,
                0.10476126,
                0.13858303,
                0.037998546,
                0.13755949,
                -0.17076272,
                0.153063,
                0.05696072,
                0.30706677,
                0.40663943,
                0.15357599,
                -0.3273999,
                0.31556088,
                0.059697893,
                -0.17090216,
                -0.22540516,
                0.0740088,
                0.366759,
                -0.2404615,
                0.01911466,
                -0.20140596,
                -0.25992474,
                0.071773514,
                -0.22725126,
                -0.16292974,
                -0.3975227,
                -0.071975395,
                -0.025492439,
                0.14573628,
                0.15290724,
                0.054386005,
                -0.028468855,
                -0.17928988,
                0.10279441,
                -0.21936408,
                0.07589215,
                0.4437611,
                0.40851763,
                0.5529355,
                0.52294666,
                0.2785382,
                0.09752315,
                0.1912761,
                0.00440792,
                0.22997509,
                0.30811596,
                -0.17874554,
                -0.1487409,
                -0.48830983,
                -0.07551423
              ]
            },
            "biases": {
              "v": 1,
              "dim": [
                19
              ],
              "data": [
                -0.1831554,
                -0.12357381,
                -0.22303444,
                -0.03039662,
                0.034434028,
                0.045437917,
                -0.05637211,
                -0.18941173,
                -0.13967934,
                -0.182529,
                -0.11852946,
                -0.029985912,
                0.1582279,
                -0.06768318,
                -0.070715725,
                -0.02406941,
                -0.006973214,
                0.33308953,
                0.03564389
              ]
            }
          }
        ]
      },
      "attack_cooldown": 0.14999984
    },
    {
      "id": 3962,
      "age": 28.349854,
      "score": 12,
      "pos": {
        "v": 1,
        "dim": [
          2
        ],
        "data": [
          434.71,
          58.109474
        ]
      },
      "rot": -8.48799,
      "energy": 0.90359855,
      "signal": {
        "v": 1,
        "dim": [
          8
        ],
        "data": [
          0.36453462,
          0.55049914,
          0.40869114,
          0.5254175,
          0.42503837,
          0.3701576,
          0.47542793,
          0.57960963
        ]
      },
      "memory": {
        "v": 1,
        "dim": [
          8
        ],
        "data": [
          -0.6820205,
          -0.7744365,
          -0.13005859,
          0.17326595,
          0.35022408,
          -0.34606728,
          0.12676829,
          -0.29889286
        ]
      },
      "brain": {
        "layers": [
          {
            "weights": {
              "v": 1,
              "dim": [
                16,
                44
              ],
              "data": [
                -0.22142054,
                -0.46629536,
                -0.41383457,
                0.26661378,
                0.06908323,
                -0.03611648,
                0.17979164,
                0.09702611,
                -0.40211326,
                0.24901138,
                -0.21914187,
                -0.1293327,
                -0.24731807,
                0.1019081,
                0.13945876,
                -0.1217778,
                0.5013523,
                -0.19177416,
                -0.28509685,
                -0.19861695,
                -0.011659391,
                -0.29385322,
                0.09711173,
                -0.057680503,
                -0.034016717,
                -0.21433873,
                -0.12920798,
                -0.086820856,
                -0.017416175,
                -0.03411712,
                -0.15376166,
                0.17863409,
                -0.06642811,
                0.16863008,
                0.08033024,
                -0.079433076,
                -0.18192771,
                -0.09969944,
                -0.23455669,
                0.27723977,
                0.03969337,
                0.27868465,
                -0.103885815,
                -0.012373757,
                0.053373028,
                0.035558548,
                -0.30233565,
                0.17793153,
                -0.13995479,
                -0.25774887,
                -0.18903105,
                -0.060402714,
                -0.0016639605,
                -0.30118504,
                0.19676034,
                -0.020486832,
                0.031132136,
                -0.34488985,
                -0.03310701,
                0.05672358,
                -0.2973345,
                0.109410584,
                -0.08686909,
                -0.07995713,
                0.12896958,
                -0.36433044,
                -0.2784835,
                0.21365526,
                0.07331291,
                -0.2563415,
                -0.2996814,
                -0.0061512627,
                -0.21183413,
                0.095695585,
                0.21887046,
                -0.30222064,
                -0.00903948,
                -0.43701848,
                -0.08428571,
                0.1254879,
                -0.17436412,
                -0.12965721,
                0.018501963,
                0.09198873,
                -0.68559855,
                0.060984872,
                0.01932564,
                0.01907463,
                -0.24947909,
                -0.039490562,
                0.16337559,
                -0.090568766,
                0.33374786,
                0.12389016,
                -0.28179687,
                -0.0070027784,
                0.22395328,
                0.4154586,
                -0.0822756,
                -0.23320282,
                -0.050291892,
                -0.07912813,
                0.15775438,
                -0.082285404,
                0.23509382,
                0.5840548,
                0.30613312,
                0.4417222,
                -0.07758488,
                0.18372144,
                -0.024689559,
                0.1675519,
                -0.3347854,
                0.011552993,
                0.30948818,
                0.10573725,
                0.0007467717,
                0.35916355,
                0.10322957,
                -0.20931876,
                -0.28295594,
                0.28570354,
                0.30225587,
                0.2149223,
                -0.007924344,
                -0.12953939,
                0.30893698,
                0.23067811,
                0.14573146,
                -0.19525455,
                -0.13385154,
                -0.011481095,
                0.45288324,
                0.50469154,
                -0.11494715,
                -0.013285518,
                -0.21979573,
                -0.25067014,
                0.09285249,
                0.08929072,
                0.023175364,
                -0.009689316,
                0.040265102,
                0.07436253,
                -0.44289893,
                0.26174527,
                -0.3192478,
                0.057354107,
                -0.010453958,
                -0.21912688,
                -0.2231588,
                0.17345871,
                0.2866872,
                -0.0478423,
                0.3145437,
                -0.15413958,
                0.5746947,
                -0.05642007,
                0.1877277,
                0.26261717,
                -0.288749,
                -0.13697338,
                0.11544396,
                0.24223866,
                -0.43727756,
                -0.55753434,
                -0.088307455,
                -0.035880614,
                0.083121255,
                0.30742732,
                0.033573184,
                0.14485347,
                -0.090394855,
                0.12311782,
                -0.040907048,
                0.036681417,
                0.16857585,
                0.23869504,
                -0.051698443,
                -0.1558551,
                0.39525285,
                -0.13702936,
                -0.018490087,
                0.19860977,
                0.20442095,
                0.16330826,
                0.12612844,
                0.3151593,
                0.23092067,
                -0.27398607,
                -0.090867154,
                0.011767099,
                -0.44646147,
                0.2531057,
                0.103708535,
                -0.1867874,
                -0.37480482,
                0.049800612,
                0.049771484,
                -0.0062005855,
                0.23640656,
                0.107580245,
                -0.2514599,
                -0.22506179,
                0.17033803,
                -0.0676799,
                -0.015203655,
                0.104774654,
                -0.16599338,
                0.1632775,
                -0.3002475,
                0.09411763,
                0.20829856,
                0.013999965,
                -0.052261814,
                0.038883127,
                -0.08489629,
                -0.20740944,
                0.099666655,
                0.04674495,
                0.06596629,
                -0.14969243,
                0.25559637,
                0.068586946,
                0.3430043,
                0.26421392,
                0.10598928,
                -0.03645094,
                -0.24915098,
                -0.004003864,
                -0.38528705,
                -0.10248178,
                0.097909406,
                0.024307486,
                0.19209628,
                0.26614037,
                0.08383317,
                0.035749413,
                -0.23831053,
                -0.11816776,
                -0.09321596,
                -0.19238955,
                -0.013526365,
                0.18292929,
                -0.13803877,
                -0.085666984,
                0.18634106,
                0.47846156,
                -0.26126888,
                -0.27199304,
                0.26289207,
                -0.020800458,
                0.27023864,
                0.37143686,
                0.39861515,
                -0.27748778,
                -0.42752203,
                0.51131344,
                0.25389063,
                0.40302503,
                -0.65321726,
                0.28793967,
                0.11691983,
                -0.25278592,
                0.5476868,
                -0.046022926,
                0.16352683,
                0.14224112,
                -0.16096956,
                0.451834,
                -0.48441154,
                0.18326673,
                -0.14688997,
                0.06553972,
                -0.6965903,
                -0.014281742,
                0.23793854,
                0.1289072,
                0.53155106,
                -0.03642034,
                0.67772406,
                0.3123106,
                0.047308005,
                0.2779267,
                0.39171064,
                0.023973677,
                -0.0049923584,
                -0.1745218,
                -0.070840314,
                0.095448405,
                0.11314903,
                0.1210345,
                -0.011304382,
                -0.3199118,
                0.17888752,
                0.16964792,
                -0.42096442,
                0.22249912,
                -0.040749814,
                0.17020044,
                0.26356062,
                -0.06509917,
                -0.1614715,
                0.028207948,
                0.052030932,
                0.35038534,
                -0.019083645,
                -0.032247767,
                0.05323824,
                -0.1445378,
                -0.5138713,
                0.37161937,
                -0.21861282,
                -0.14635685,
                -0.50180715,
                0.2776372,
                0.32527065,
                0.2210106,
                -0.29728428,
                0.006234672,
                0.18068129,
                0.05357621,
                -0.065793544,
                0.32703665,
                0.104326524,
                -0.06273681,
                0.06618049,
                -0.0069286525,
                0.21720546,
                -0.029647127,
                0.46391764,
                0.4747076,
                -0.047177043,
                0.012311708,
                0.46536237,
                -0.12267387,
                0.14657803,
                -0.046830233,
                -0.36225688,
                0.09204136,
                -0.52154124,
                -0.0494757,
                -0.102518916,
                -0.28153473,
                -0.36946127,
                0.17830059,
                -0.23926263,
                0.3006105,
                -0.29712912,
                -0.012132723,
                -0.21522275,
                0.08957197,
                -0.09432488,
                -0.35288283,
                -0.21914424,
                0.10457631,
                0.28237468,
                -0.19168189,
                0.018954199,
                0.6499773,
                -0.30805495,
                -0.40352207,
                0.12575077,
                0.18628098,
                0.3139731,
                0.37028188,
                0.2208851,
                0.020393401,
                -0.15521386,
                -0.32603276,
                0.29413524,
                0.15504473,
                -0.29760876,
                -0.2781362,
                0.04986281,
                -0.26788336,
                -0.19200146,
                0.11182703,
                -0.10810052,
                0.10495001,
                -0.34348178,
                -0.021503016,
                -0.020682724,
                0.42005065,
                0.12780242,
                0.3919916,
                0.31897253,
                -0.1846935,
                0.0641411,
                0.036278136,
                -0.10889685,
                -0.009400547,
                0.2572825,
                -0.26508948,
                0.16906375,
                0.44808748,
                0.018008158,
                0.26667687,
                0.56373066,
                -0.33524027,
                -0.17282772,
                -0.040021066,
                -0.467711,
                -0.012374807,
                -0.44346768,
                -0.20287251,
                -0.11842924,
                -0.11518417,
                -0.09245129,
                -0.05097006,
                -0.0018364154,
                0.0052963775,
                -0.119275615,
                0.43897495,
                0.11793772,
                0.051832754,
                0.21467856,
                0.052806076,
                0.31444943,
                -0.15555617,
                -0.18502963,
                0.62324554,
                0.040266193,
                -0.24590538,
                0.042419348,
                0.29115903,
                0.21195671,
                -0.035555992,
                0.11804503,
                0.07411434,
                0.27399892,
                0.05852321,
                -0.12637082,
                -0.041538876,
                0.114619315,
                0.082004026,
                -0.17866582,
                0.03470517,
                -0.0978584,
                0.38934183,
                -0.26209682,
                -0.102981284,
                -0.2158871,
                0.05301944,
                -0.091185965,
                -0.011783887,
                -0.08011287,
                -0.28984582,
                0.2571989,
                -0.07624471,
                0.029607873,
                -0.2032999,
                0.3346576,
                -0.19373585,
                -0.2134639,
                0.054997876,
                -0.14093164,
                -0.6298994,
                -0.047826815,
                0.02580132,
                -0.13300174,
                -0.21402407,
                0.32475343,
                0.28394037,
                0.19089499,
                0.06586038,
                0.04891419,
                -0.10586198,
                0.15489946,
                0.056755614,
                0.3900311,
                -0.3514277,
                0.35890058,
                0.25024447,
                -0.019397255,
                0.55207783,
                0.3176308,
                0.23032884,
                0.2993068,
                -0.16669966,
                -0.21462801,
                0.17075837,
                -0.14215986,
                -0.23397027,
                0.03397126,
                -0.17074604,
                0.10163586,
                -0.4320218,
                0.094347835,
                -0.1810631,
                -0.13099587,
                -0.31101033,
                -0.05465821,
                0.6282908,
                -0.10990034,
                -0.16054793,
                -0.04981513,
                0.18448591,
                -0.21024856,
                0.11342609,
                0.0008901544,
                -0.14998151,
                -0.1767255,
                0.16464043,
                -0.07459759,
                -0.2709719,
                -0.1595289,
                0.017272059,
                -0.090657234,
                0.2277247,
                -0.24405769,
                0.4943573,
                0.03497843,
                0.48765212,
                -0.09690134,
                0.1877931,
                0.043006603,
                0.50110936,
                -0.13974832,
                -0.3399394,
                -0.13625094,
                -0.28094864,
                0.06696625,
                -0.1120016,
                0.16410035,
                -0.42857942,
                0.40438363,
                0.30027983,
                -0.10314046,
                0.14471695,
                -0.00456997,
                -0.3584495,
                -0.04974329,
                0.037379563,
                -0.21642753,
                0.043717112,
                0.12829372,
                -0.029654726,
                -0.25491855,
                -0.073674455,
                0.31756985,
                0.17920117,
                0.15570258,
                0.33163214,
                0.24999006,
                0.21787058,
                -0.08071691,
                0.14433332,
                -0.36283207,
                -0.08674272,
                0.22975135,
                0.34645224,
                -0.6219419,
                0.4039971,
                0.049538743,
                0.15212399,
                -0.27456465,
                0.15208632,
                -0.15485719,
                0.057755496,
                -0.0020601712,
                0.14481995,
                0.16428253,
                -0.03311035,
                0.2228866,
                0.28147942,
                0.28743863,
                0.11600348,
                -0.14479819,
                0.08677603,
                -0.069375716,
                -0.19599184,
                -0.340159,
                -0.08646849,
                -0.009539451,
                0.30074024,
                0.06147193,
                -0.24103223,
                -0.3553336,
                0.007767789,
                -0.48329076,
                0.36815026,
                -0.21770237,
                -0.018509649,
                -0.43855324,
                0.18754798,
                0.007594403,
                0.1021321,
                0.16283578,
                -0.05681007,
                0.0035123117,
                -0.33398214,
                -0.13062374,
                0.21732993,
                0.15896146,
                0.344919,
                -0.12349655,
                -0.14328444,
                -0.26422477,
                0.2189414,
                0.47222182,
                -0.011289788,
                -0.005689282,
                -0.063677885,
                0.28418994,
                -0.0029247738,
                0.27568296,
                0.13008216,
                -0.011570085,
                0.3159826,
                0.02965609,
                0.0056645647,
                -0.26728368,
                0.50290364,
                -0.06639847,
                0.44957328,
                0.040452097,
                0.034389965,
                -0.27285355,
                0.1804243,
                0.09129302,
                -0.14413117,
                -0.14657794,
                -0.103743404,
                0.4232276,
                0.27675045,
                0.13294312,
                0.015997857,
                -0.08447927,
                0.09840995,
                -0.10687442,
                -0.5166211,
                0.029785596,
                -0.049756937,
                0.006181702,
                -0.07748519,
                -0.080659315,
                0.044113617,
                0.149675,
                -0.583999,
                0.23935588,
                0.05120484,
                0.08421737,
                0.21126924,
                0.21638405,
                0.27234596,
                0.33348346,
                -0.103348315,
                -0.05943878,
                0.10623694,
                -0.41930223,
                -0.47435963,
                -0.14040413,
                0.13365456,
                0.009636365,
                -0.3181601,
                0.12112218,
                0.37402606,
                0.041180246,
                -0.024052441,
                -0.21836743,
                0.11832653,
                -0.11290811,
                0.024261247,
                -0.42879727,
                0.14821188,
                -0.15225136,
                -0.0020320565,
                -0.34219626,
                0.04069949,
                0.552418,
                0.07792263,
                0.25820914,
                0.33849108,
                -0.09424956,
                0.3852837,
                0.2451271,
                -0.1764987,
                -0.3140717,
                -0.177819,
                -0.74251014,
                -0.112349525,
                -0.005105365,
                -0.3404858,
                0.07121191,
                -0.0786456,
                0.3141195,
                0.23195069,
                -0.062329795,
                -0.11009954,
                0.2687049,
                -0.5298138,
                0.22861901,
                -0.24872212,
                0.06958776,
                -0.12502548,
                -0.046794113,
                0.22736621,
                0.24938886,
                0.20944911,
                -0.024645168,
                -0.17896867,
                -0.48583212,
                -0.04259237
              ]
            },
            "biases": {
              "v": 1,
              "dim": [
                16
              ],
              "data": [
                0.01594118,
                0.33233732,
                0.01979183,
                0.26273522,
                0.097068645,
                0.23088178,
                -0.13177507,
                0.5211238,
                -0.03870425,
                -0.1378161,
                -0.014774237,
                -0.14887343,
                -0.23389328,
                0.20997027,
                -0.07386256,
                -0.07084119
              ]
            }
          },
          {
            "weights": {
              "v": 1,
              "dim": [
                16,
                16
              ],
              "data": [
                0.039957285,
                -0.36545974,
                -0.06404291,
                0.12420514,
                0.05080476,
                0.013812948,
                -0.18177496,
                0.026667919,
                0.22613049,
                -0.3785469,
                0.17429014,
                -0.2413034,
                -0.17238533,
                -0.3164865,
                -0.40125075,
                -0.15125498,
                0.2118211,
                -0.12687753,
                0.08584859,
                0.24752465,
                0.22406486,
                0.096664846,
                0.52959156,
                0.09634845,
                0.03858674,
                0.30218408,
                -0.41025174,
                0.2878135,
                0.36047572,
                -0.16325757,
                0.14062262,
                0.3786058,
                -0.120269105,
                -0.2372746,
                -0.25057647,
                -0.042422462,
                0.0046472102,
                -0.0032091402,
                -0.1973976,
                0.40145016,
                0.026382517,
                -0.15380219,
                0.11218527,
                0.018802555,
                -0.17348099,
                0.22609204,
                -0.23335806,
                -0.09369686,
                0.06818193,
                -0.09240016,
                -0.3288792,
                0.10166229,
                0.5418739,
                0.14071627,
                0.08624712,
                -0.2904049,
                -0.18378289,
                -0.024085704,
                -0.5350991,
                -0.3985041,
                0.038748946,
                -0.47556663,
                0.28840965,
                -0.267196,
                -0.28887987,
                0.26690185,
                0.1041106,
                -0.15929057,
                0.38988084,
                -0.15132743,
                -0.051803336,
                -0.17329942,
                0.36312518,
                -0.12913081,
                -0.22274753,
                0.23426585,
                0.41771597,
                0.020594496,
                0.13641965,
                -0.07515706,
                -0.41711563,
                0.10358533,
                0.39772087,
                0.22185603,
                -0.24854307,
                -0.16341068,
                -0.0906388,
                -0.0005931668,
                -0.3425974,
                0.25198108,
                0.3223725,
                -0.55474126,
                -0.16653742,
                -0.22193812,
                0.13170421,
                -0.4190039,
                -0.046997674,
                0.047129493,
                -0.07778397,
                -0.19494593,
                0.16426735,
                -0.2733097,
                0.5152244,
                0.78634095,
                -0.321344,
                0.21551152,
                0.10279585,
                -0.08064091,
                0.11177771,
                0.05345613,
                -0.14125526,
                -0.026986044,
                -0.44505352,
                -0.077153996,
                -0.035848197,
                0.1885479,
                0.21414785,
                -0.020742103,
                -0.4080027,
                -0.1216224,
                -0.13095762,
                -0.1901619,
                -0.18820126,
                -0.12599531,
                0.14383325,
                0.19522354,
                -0.52626765,
                -0.15502892,
                0.21608207,
                -0.0370937,
                -0.14184245,
                -0.1314511,
                0.023963444,
                0.23122744,
                -0.19263507,
                -0.13810231,
                -0.26715273,
                -0.5245446,
                0.3045067,
                0.10948025,
                -0.0014355667,
                -0.134731,
                0.3261602,
                -0.18929836,
                -0.32899675,
                -0.11376913,
                0.50789833,
                -0.09623477,
                0.012316316,
                0.15642032,
                0.46523297,
                -0.19097188,
                0.54626244,
                -0.1622403,
                -0.18389362,
                -0.4606942,
                -0.09919213,
                0.0078019984,
                -0.31670287,
                0.080456495,
                0.30588156,
                -0.12645173,
                0.20354499,
                -0.3995689,
                -0.123032466,
                -0.14197874,
                -0.013575446,
                -0.16536132,
                -0.20923242,
                0.057262063,
                0.15163776,
                -0.15357552,
                -0.4306164,
                0.016657226,
                0.045206368,
                0.3792838,
                0.018831465,
                0.38409826,
                -0.08201876,
                -0.01720349,
                0.082289666,
                -0.026558582,
                0.4766943,
                -0.012758592,
                -0.32533035,
                -0.24449368,
                -0.3732303,
                -0.110079125,
                0.31953984,
                -0.31967956,
                -0.33136988,
                -0.24545099,
                0.2512645,
                -0.09760776,
                0.0671732,
                -0.4414476,
                0.1522257,
                -0.121331066,
                -0.37184602,
                -0.27897358,
                -0.094537854,
                -0.020960454,
                0.08241606,
                -0.1960785,
                0.041085847,
                -0.219514,
                -0.699183,
                -0.06857531,
                -0.30694345,
                0.13379253,
                0.03780369,
                0.06770767,
                0.065129936,
                0.48746607,
                -0.014497399,
                -0.24944586,
                0.07293731,
                -0.29736662,
                -0.44679222,
                0.2645915,
                -0.025234845,
                -0.005809024,
                -0.28265584,
                0.07387449,
                -0.46660715,
                0.12778965,
                -0.20234077,
                0.12248126,
                -0.5099783,
                0.1482918,
                -0.12552857,
                -0.13830394,
                0.001270391,
                -0.33664387,
                -0.34605187,
                0.11813637,
                -0.16555494,
                0.026319642,
                0.33805567,
                0.21052493,
                -0.4366061,
                -0.36897686,
                -0.58079696,
                0.6068304,
                -0.08769943,
                0.03361352,
                -0.1421985,
                -0.14213645,
                0.009399634,
                0.6426803,
                0.26187366,
                -0.13123733,
                0.040599573,
                0.031946328,
                -0.15479124,
                0.1192527
              ]
            },
            "biases": {
              "v": 1,
              "dim": [
                16
              ],
              "data": [
                0.10238491,
                -0.16073532,
                -0.24532765,
                -0.3836698,
                -0.04034417,
                0.0002153404,
                0.18006219,
                -0.17680477,
                -0.30833507,
                0.08173564,
                -0.0629572,
                -0.422309,
                -0.011660397,
                -0.27720654,
                -0.11057472,
                0.17642272
              ]
            }
          },
          {
            "weights": {
              "v": 1,
              "dim": [
                19,
                16
              ],
              "data": [
                0.12693962,
                0.108892955,
                0.10786103,
                0.23916216,
                -0.13150232,
                -0.37679365,
                -0.11248882,
                0.19235814,
                0.39564607,
                0.06807239,
                0.009725379,
                -0.11218114,
                0.059871003,
                0.2051998,
                -0.29892147,
                -0.21688394,
                -0.09275825,
                -0.4346943,
                -0.06800356,
                0.07206541,
                0.15711515,
                0.12565923,
                -0.14163402,
                -0.34867376,
                -0.20314373,
                0.1090201,
                -0.15410756,
                -0.38926655,
                0.18049584,
                -0.50037396,
                -0.25427014,
                0.0073664896,
                0.24713805,
                0.0288089,
                0.27754888,
                0.36649463,
                0.48520428,
                0.07448627,
                0.4148469,
                -0.079620525,
                0.31110197,
                0.16228956,
                0.11993864,
                -0.21203369,
                -0.5126152,
                0.27726987,
                -0.016542237,
                0.30783415,
                -0.010598902,
                0.05999962,
                -0.30889037,
                -0.06736483,
                -0.07969092,
                0.119098485,
                0.20156479,
                -0.19290002,
                -0.102126166,
                0.2733635,
                0.41418028,
                -0.031976227,
                -0.051999103,
                -0.20635274,
                0.17566405,
                -0.23070069,
                -0.12209282,
                -0.4328597,
                -0.25352627,
                0.07479196,
                0.051632654,
                -0.031918406,
                -0.12439754,
                -0.29912287,
                0.19186197,
                0.036105707,
                0.01090328,
                0.12764883,
                0.29643342,
                0.095780775,
                -0.14755242,
                0.024609145,
                0.22465342,
                0.053872358,
                -0.36682725,
                0.5774777,
                0.090898015,
                -0.1284191,
                -0.29152146,
                0.32431087,
                -0.11029828,
                0.28662694,
                0.15779859,
                -0.39490032,
                -0.061880156,
                0.0928531,
                -0.10015957,
                -0.15395187,
                -0.25942266,
                0.1587425,
                0.675602,
                0.124589324,
                0.7184567,
                -0.33892277,
                -0.2650543,
                -0.06814474,
                0.3253311,
                0.0072585978,
                -0.668594,
                0.33604676,
                -0.28048244,
                -0.17310277,
                -0.113214806,
                -0.2493898,
                -0.11709978,
                -0.4045228,
                -0.05440894,
                -0.21608916,
                -0.11884622,
                -0.57416975,
                0.102577746,
                -0.43400282,
                -0.17072956,
                -0.09950751,
                -0.094470605,
                0.28384614,
                0.2513046,
                0.0616121,
                0.18523745,
                -0.11214632,
                0.42906442,
                -0.09121692,
                0.027643137,
                0.06693928,
                -0.13405347,
                0.06223239,
                -0.19894733,
                0.39152956,
                0.30298233,
                0.015813228,
                -0.42887166,
                -0.1287054,
                0.20321055,
                0.008219,
                -0.053595573,
                0.20344737,
                0.12081823,
                -0.18884861,
                -0.10329242,
                -0.11583386,
                0.11174168,
                -0.3316302,
                0.34186426,
                0.1778808,
                0.47008047,
                -0.21355224,
                0.31267434,
                0.55869746,
                0.30430612,
                -0.13656592,
                -0.16501403,
                -0.1131282,
                0.26474938,
                0.18592857,
                -0.016241798,
                0.13755225,
                -0.24834657,
                0.3896998,
                -0.09503952,
                0.2658076,
                0.06465954,
                -0.16007274,
                -0.28914225,
                -0.29290217,
                -0.08698556,
                0.3600427,
                0.3727899,
                0.070684016,
                -0.25204867,
                -0.3367299,
                -0.06528612,
                -0.20836404,
                -0.44480076,
                -0.003683444,
                -0.10967247,
                0.17330211,
                0.0509274,
                0.24645099,
                -0.3688627,
                -0.1791065,
                -0.020727918,
                0.14092292,
                -0.028945956,
                0.11570844,
                0.06716828,
                0.03572154,
                -0.37928745,
                -0.12329839,
                -0.026422199,
                -0.15750787,
                -0.025645893,
                0.08012701,
                0.4698555,
                0.16934541,
                -0.15844086,
                0.020739507,
                -0.43449873,
                0.16377373,
                0.29617876,
                -0.037092563,
                0.0900908,
                -0.056384746,
                0.30758148,
                -0.10070495,
                -0.23847552,
                0.21018258,
                -0.07616454,
                0.1305701,
                0.377599,
                0.043785345,
                0.19471501,
                0.07252252,
                -0.12668702,
                -0.1318067,
                0.077333,
                -0.09681408,
                -0.54101014,
                0.05778634,
                0.023165554,
                -0.13908316,
                0.44038096,
                -0.2702919,
                0.075206846,
                0.2935751,
                -0.101486966,
                -0.22945885,
                -0.26410022,
                0.06237909,
                0.39876714,
                0.10610768,
                0.18220904,
                0.37085992,
                -0.023547627,
                -0.03123996,
                0.011429179,
                -0.027214292,
                -0.21788332,
                0.29397717,
                0.27321446,
                0.15250297,
                0.13891082,
                -0.25333732,
                -0.16652204,
                0.27321926,
                0.03604111,
                0.15291876,
                0.22606836,
                0.06636016,
                0.21277447,
                -0.04008191,
                0.14361699,
                -0.17899983,
                0.185737,
                -0.051457662,
                0.31396472,
                0.33679187,
                0.14755799,
                -0.20166846,
                0.2966035,
                -0.0001253672,
                -0.29686934,
                -0.06569798,
                0.015363526,
                0.28628117,
                -0.24915926,
                0.0064233616,
                -0.20573089,
                -0.34422183,
                0.22563814,
                -0.17811924,
                -0.095016025,
                -0.42399406,
                -0.026959278,
                -0.10030538,
                0.1220181,
                0.13416806,
                0.16221046,
                -0.08893907,
                -0.31092113,
                0.23323597,
                -0.10730386,
                0.05246137,
                0.39344484,
                0.3957841,
                0.44274154,
                0.5939154,
                0.2341192,
                0.096892536,
                0.16462171,
                -0.027447991,
                0.22338895,
                0.261986,
                -0.13030769,
                -0.11124669,
                -0.4520643,
                0.042360764
              ]
            },
            "biases": {
              "v": 1,
              "dim": [
                19
              ],
              "data": [
                -0.11971831,
                -0.10715002,
                -0.15870512,
                -0.07417017,
                0.04526255,
                -0.10410929,
                -0.11525996,
                -0.1241862,
                -0.058511157,
                -0.27699283,
                -0.024958853,
                -0.034189258,
                0.25316522,
                0.01969921,
                -0.20215702,
                -0.096034646,
                -0.09040572,
                0.34726486,
                -0.012026321
              ]
            }
          }
        ]
      },
      "attack_cooldown": 0.6999999
    },
    {
      "id": 3963,
      "age": 27.749863,
      "score": 12,
      "pos": {
        "v": 1,
        "dim": [
          2
        ],
        "data": [
          796.8919,
          979.1381
        ]
      },
      "rot": -10.655116,
      "energy": 0.9960557,
      "signal": {
        "v": 1,
        "dim": [
          8
        ],
        "data": [
          0.37155402,
          0.48079404,
          0.44213337,
          0.49604118,
          0.4123359,
          0.40209666,
          0.44059685,
          0.55974704
        ]
      },
      "memory": {
        "v": 1,
        "dim": [
          8
        ],
        "data": [
          -0.4623517,
          -0.6795695,
          -0.10741286,
          0.4880525,
          0.46667358,
          -0.469092,
          0.3196608,
          -0.05370775
        ]
      },
      "brain": {
        "layers": [
          {
            "weights": {
              "v": 1,
              "dim": [
                16,
                44
              ],
              "data": [
                -0.22102427,
                -0.43155777,
                -0.3001839,
                0.25086516,
                0.044454504,
                -0.048106182,
                0.13813336,
                0.011489354,
                -0.23410808,
                0.09248778,
                -0.18693049,
                -0.06849088,
                -0.2392243,
                0.01394123,
                0.040545005,
                -0.079392865,
                0.44878003,
                -0.23842952,
                -0.26213804,
                -0.13753384,
                0.033020448,
                -0.32827646,
                0.1914285,
                -0.091551185,
                0.09953597,
                -0.22056109,
                -0.08476989,
                -0.07737176,
                0.02577287,
                -0.066967085,
                -0.30584094,
                0.013230421,
                -0.086521745,
                0.17062859,
                0.0729219,
                -0.11717774,
                -0.21646394,
                -0.101625815,
                -0.1556614,
                0.39580336,
                -0.039372303,
                0.41879958,
                -0.12027258,
                0.0060918536,
                0.070949614,
                -0.093300804,
                -0.15063465,
                0.2668576,
                -0.041313086,
                -0.2856929,
                -0.18538994,
                -0.023106497,
                -0.1046443,
                -0.18648219,
                0.19114216,
                -0.056016896,
                0.07489711,
                -0.22201252,
                0.06377633,
                0.059167318,
                -0.17923453,
                0.25574654,
                0.032084614,
                0.011362424,
                0.10997546,
                -0.35664657,
                -0.18852267,
                0.21016517,
                0.1419558,
                -0.29145274,
                -0.20369513,
                -0.17399514,
                -0.20320162,
                0.025605628,
                0.21129759,
                -0.33183903,
                -0.019672427,
                -0.35164726,
                -0.116903424,
                0.114170924,
                -0.13734391,
                -0.014506415,
                -0.12654395,
                0.03695448,
                -0.6726514,
                0.09248893,
                -0.10663438,
                0.0017026924,
                -0.18797833,
                0.009459708,
                0.105071165,
                -0.06892851,
                0.4094333,
                0.10269449,
                -0.22378309,
                0.012539299,
                0.24158953,
                0.42642108,
                -0.073330626,
                -0.24680202,
                0.0078088753,
                0.007281274,
                0.31742823,
                -0.23183209,
                0.15112339,
                0.4787456,
                0.33441654,
                0.48325524,
                0.053459633,
                0.18622066,
                -0.079943255,
                0.1864368,
                -0.38899282,
                -0.005243901,
                0.46302518,
                0.16368872,
                0.07862367,
                0.32131046,
                0.056263983,
                -0.18721296,
                -0.28848892,
                0.22898471,
                0.18916465,
                0.22788367,
                -0.050473694,
                -0.20163307,
                0.23108344,
                0.22649497,
                0.07733364,
                -0.1654891,
                -0.12397072,
                -0.15766911,
                0.48823783,
                0.4410676,
                -0.0685118,
                -0.04302577,
                -0.17074649,
                -0.2990426,
                -0.08197692,
                0.14678885,
                -0.060974255,
                0.091096476,
                -0.0957515,
                0.19766694,
                -0.3210212,
                0.30352286,
                -0.28078967,
                -0.044644527,
                0.004393397,
                -0.19503951,
                -0.09402673,
                0.1048498,
                0.25123346,
                0.043118887,
                0.3489252,
                -0.2119233,
                0.6826646,
                0.020633321,
                0.23613104,
                0.22946493,
                -0.14226642,
                -0.029844414,
                0.19706607,
                0.27332002,
                -0.45427886,
                -0.4974448,
                -0.025191842,
                -0.0494308,
                0.13889173,
                0.32273793,
                0.16496077,
                0.13910326,
                0.024620583,
                0.13424774,
                -0.0155771,
                0.050550118,
                0.24667932,
                0.22532824,
                -0.07399614,
                -0.13397475,
                0.268121,
                -0.07313308,
                -0.12553425,
                0.10614711,
                0.21352895,
                0.11597074,
                0.2387391,
                0.3074219,
                0.15940762,
                -0.2935902,
                -0.059014462,
                0.006758148,
                -0.4729459,
                0.38118017,
                0.15779638,
                -0.08374035,
                -0.42411742,
                -0.073253654,
                0.04789072,
                0.11305137,
                0.26290125,
                0.11755535,
                -0.21317782,
                -0.15054962,
                0.031322338,
                -0.14819753,
                0.15979059,
                0.15268391,
                -0.21027122,
                0.17314401,
                -0.19597754,
                0.14857748,
                0.23481148,
                -0.077339604,
                -0.07318933,
                0.033545192,
                -0.07092935,
                -0.18082675,
                0.18993036,
                0.07292326,
                -0.09047009,
                -0.055951227,
                0.1254417,
                0.096021205,
                0.20782124,
                0.08178981,
                0.25869048,
                -0.06329446,
                -0.23145434,
                -0.059293393,
                -0.26614803,
                -0.16326776,
                0.09197484,
                -0.12147567,
                0.103918105,
                0.21707204,
                0.072613984,
                0.02724697,
                -0.26614767,
                -0.049161445,
                -0.17725801,
                -0.08951472,
                0.064466834,
                0.16235806,
                -0.07783547,
                -0.13697676,
                0.1712093,
                0.5455891,
                -0.2061642,
                -0.3440112,
                0.20818733,
                -0.03240595,
                0.21457845,
                0.3488593,
                0.38325205,
                -0.2730492,
                -0.30870703,
                0.5683104,
                0.25354484,
                0.47764024,
                -0.6845324,
                0.2645955,
                0.20560092,
                -0.27663937,
                0.5458278,
                -0.106362075,
                0.089261256,
                0.120798096,
                -0.18150865,
                0.37512448,
                -0.50690365,
                0.2664344,
                -0.040227044,
                0.054378998,
                -0.6036663,
                0.116863236,
                0.17176975,
                0.20214345,
                0.5390872,
                -0.15464053,
                0.60170025,
                0.22577468,
                -0.00919326,
                0.2928724,
                0.2811607,
                0.07257891,
                -0.116810426,
                -0.17092966,
                -0.07636723,
                0.088869706,
                0.0986896,
                0.108989015,
                0.026090167,
                -0.16332628,
                0.11532317,
                0.06989932,
                -0.42206854,
                0.24898043,
                -0.0364586,
                0.109619185,
                0.23208274,
                0.043287374,
                -0.19365254,
                0.0489886,
                0.050668616,
                0.42033494,
                -0.055119112,
                0.110191196,
                0.17770796,
                -0.115771756,
                -0.49804175,
                0.38414732,
                -0.20439859,
                -0.014518339,
                -0.49513674,
                0.3432631,
                0.2930633,
                0.12630722,
                -0.31113163,
                -0.11793247,
                0.06923644,
                -0.029625468,
                -0.010745656,
                0.3569522,
                0.030752476,
                -0.24515039,
                -0.04303791,
                0.10472758,
                0.14417365,
                0.043281328,
                0.38570258,
                0.41433117,
                -0.04543707,
                0.07082321,
                0.45853606,
                -0.16201627,
                0.078984074,
                0.031373814,
                -0.24930073,
                0.15348782,
                -0.45015383,
                -0.14780748,
                -0.10785271,
                -0.37527996,
                -0.44682705,
                0.2716701,
                -0.29816604,
                0.28351524,
                -0.29991528,
                0.05750362,
                -0.207394,
                0.07983363,
                -0.12969527,
                -0.24820766,
                -0.10733506,
                0.14317867,
                0.2165142,
                -0.3045254,
                -0.030091528,
                0.61543316,
                -0.35544795,
                -0.3597407,
                0.09775719,
                0.0953621,
                0.28615,
                0.3576079,
                0.103862904,
                -0.0041245036,
                -0.21104285,
                -0.26187667,
                0.3633197,
                0.16149835,
                -0.36532927,
                -0.20151097,
                0.0954348,
                -0.34884194,
                -0.11804193,
                -0.023397729,
                -0.13613807,
                0.13964385,
                -0.34417602,
                -0.02606501,
                0.038296815,
                0.36699668,
                0.22066909,
                0.24732268,
                0.3765976,
                -0.1891812,
                0.17964447,
                -0.07760632,
                -0.21773355,
                0.009496074,
                0.29279748,
                -0.283272,
                0.1234833,
                0.47439095,
                0.17496358,
                0.4506642,
                0.60316765,
                -0.41897124,
                -0.13515179,
                0.00680897,
                -0.6205023,
                -0.03169385,
                -0.309023,
                -0.13234816,
                -0.10983892,
                -0.101309165,
                -0.2414723,
                -0.026519813,
                -0.04330375,
                -0.027618472,
                -0.13168369,
                0.43581828,
                0.22136949,
                0.0835582,
                0.29519734,
                0.22504734,
                0.32593295,
                -0.22359969,
                -0.15733212,
                0.46973577,
                0.009269275,
                -0.19728434,
                0.060479242,
                0.29760242,
                0.24174806,
                0.07784198,
                0.0799782,
                0.117593005,
                0.21484487,
                -0.08736079,
                -0.037687358,
                -0.067376085,
                -0.00047673285,
                0.15505448,
                -0.27271563,
                0.065459445,
                -0.16430746,
                0.32732052,
                -0.23443009,
                -0.020858381,
                -0.2711211,
                0.044846117,
                -0.09812096,
                0.07169624,
                -0.007854637,
                -0.24880801,
                0.31391454,
                -0.05748639,
                0.058369577,
                -0.109998494,
                0.407112,
                -0.11781645,
                -0.29234946,
                0.22647817,
                -0.16996588,
                -0.5198431,
                0.057757806,
                0.022768307,
                -0.024135627,
                -0.27628037,
                0.38501555,
                0.20567974,
                0.22357112,
                -0.021449309,
                0.11884941,
                -0.061416406,
                0.2424985,
                0.10033022,
                0.2706152,
                -0.2092251,
                0.22253694,
                0.29595852,
                0.045792133,
                0.49315673,
                0.29358885,
                0.21988992,
                0.28038993,
                -0.030409459,
                -0.21443921,
                0.25466424,
                -0.106865525,
                -0.147503,
                0.030238256,
                -0.1526144,
                0.13557158,
                -0.45632994,
                0.034077246,
                -0.11918129,
                -0.124466635,
                -0.41732293,
                0.11082174,
                0.59790325,
                -0.05678959,
                -0.053651307,
                0.045852423,
                0.11165875,
                -0.16987742,
                0.16611701,
                0.036790494,
                -0.15348527,
                -0.18074085,
                0.17011906,
                -0.14186627,
                -0.29163343,
                -0.12019039,
                0.04728706,
                -0.17917222,
                0.32561314,
                -0.38262245,
                0.46977144,
                -0.08397168,
                0.5724609,
                -0.11277814,
                0.17137276,
                0.0643111,
                0.44675148,
                -0.0154080875,
                -0.2439643,
                -0.19194995,
                -0.27185017,
                0.011891345,
                -0.13789578,
                0.32897094,
                -0.330922,
                0.4598245,
                0.31534898,
                -0.120879695,
                0.19775571,
                -0.09099337,
                -0.2925363,
                -0.083029896,
                0.05918266,
                -0.19247764,
                0.0022545084,
                0.14843139,
                -0.058075935,
                -0.21979652,
                -0.15123904,
                0.3331241,
                0.021116115,
                0.13194606,
                0.20954818,
                0.26361516,
                0.20809531,
                -0.069569334,
                0.2536133,
                -0.19664349,
                -0.06940441,
                0.22930036,
                0.41687438,
                -0.4710639,
                0.42012274,
                0.123822376,
                0.1390095,
                -0.27522466,
                0.11382418,
                -0.14818014,
                0.054340955,
                0.046906784,
                0.13880005,
                0.27533767,
                -0.06177662,
                0.121188,
                0.19535722,
                0.17168413,
                0.19929257,
                -0.22734824,
                0.058234368,
                -0.099911645,
                -0.0491185,
                -0.40113312,
                -0.18644664,
                -0.014368851,
                0.31434283,
                0.07147892,
                -0.30603147,
                -0.28191274,
                0.013347808,
                -0.50758785,
                0.27564496,
                -0.20005402,
                0.10793153,
                -0.53959084,
                0.24060819,
                0.024012037,
                -0.000008605421,
                0.045346115,
                0.0036310144,
                -0.040054638,
                -0.20463246,
                -0.075622454,
                0.24273166,
                0.20714495,
                0.2660554,
                -0.13440171,
                -0.20399907,
                -0.38099885,
                0.15733775,
                0.4177366,
                0.044022124,
                -0.022992145,
                -0.006694963,
                0.18397778,
                0.051050153,
                0.40283838,
                0.16669083,
                0.09033923,
                0.3804476,
                0.17979461,
                0.02370079,
                -0.14567785,
                0.41434985,
                0.029151548,
                0.394469,
                0.05436603,
                0.025907751,
                -0.31449756,
                0.21695462,
                0.1686803,
                -0.2262577,
                -0.10993424,
                -0.14658563,
                0.44138122,
                0.2945407,
                0.028134007,
                0.012807146,
                -0.079523236,
                0.15273765,
                -0.15919513,
                -0.5458898,
                0.16508664,
                -0.093053944,
                0.1414636,
                -0.03460266,
                -0.07574613,
                -0.0072569735,
                0.05561335,
                -0.4606091,
                0.18191105,
                0.0889249,
                0.074884586,
                0.25733188,
                0.33422443,
                0.35300323,
                0.24462439,
                -0.15691942,
                0.010888241,
                -0.016732004,
                -0.38330358,
                -0.5001067,
                -0.118186,
                0.11810711,
                -0.10955808,
                -0.40907153,
                0.0022338144,
                0.39633515,
                0.012448572,
                0.056923818,
                -0.25283253,
                0.18453759,
                -0.08632116,
                0.05740486,
                -0.44757652,
                0.08298355,
                -0.1952254,
                0.0016935878,
                -0.30461094,
                -0.10208805,
                0.4583598,
                -0.020611703,
                0.16349293,
                0.3569246,
                0.037922826,
                0.33717063,
                0.17071943,
                -0.19795464,
                -0.28606686,
                -0.16187264,
                -0.6803398,
                -0.15345131,
                0.08474718,
                -0.3291862,
                -0.0046801576,
                -0.20538595,
                0.286374,
                0.22330132,
                -0.12467478,
                -0.09432736,
                0.27398545,
                -0.48209935,
                0.2848457,
                -0.19312556,
