{
  "organisms": [
    {
      "id": 20278,
      "age": 15.30004,
      "score": 8,
      "pos": {
        "v": 1,
        "dim": [
          2
        ],
        "data": [
          688.75116,
          828.7889
        ]
      },
      "rot": -11.007857,
      "energy": 0.69790536,
      "signal": {
        "v": 1,
        "dim": [
          4
        ],
        "data": [
          0.28166252,
          0.421863,
          0.6930032,
          0.49286166
        ]
      },
      "memory": {
        "v": 1,
        "dim": [
          4
        ],
        "data": [
          0.2433268,
          -0.05285824,
          0.24071392,
          0.11432648
        ]
      },
      "brain": {
        "layers": [
          {
            "weights": {
              "v": 1,
              "dim": [
                32,
                24
              ],
              "data": [
                0.11747983,
                -0.021585908,
                0.10770926,
                -0.3484524,
                -0.587366,
                -0.095295385,
                -0.06831564,
                0.08503093,
                0.3949414,
                -0.13788116,
                0.22457993,
                0.15539958,
                -0.0201276,
                0.40128243,
                0.2639569,
                -0.22773816,
                0.2116245,
                -0.050138995,
                -0.46048152,
                -0.19566473,
                -0.29334277,
                -0.5684947,
                -0.22404021,
                -0.20428637,
                -0.5396341,
                0.39029014,
                0.06827579,
                -0.4007804,
                0.31173703,
                -0.37935615,
                -0.42412663,
                -0.3066104,
                -0.14492595,
                -0.05225608,
                0.7191545,
                -0.0032117646,
                0.6041464,
                -0.16711223,
                -0.027692862,
                0.12729287,
                -0.12623826,
                -0.4575723,
                0.024702761,
                -0.15658918,
                -0.12498218,
                0.043304227,
                -0.110212885,
                -0.07098116,
                -0.32190076,
                0.019889073,
                -0.18731569,
                -0.14055929,
                -0.026127176,
                0.029770233,
                -0.058169667,
                0.51216996,
                0.027263053,
                0.050908864,
                -0.28038698,
                0.48155057,
                -0.22211304,
                0.5001616,
                -0.18448052,
                -0.021365177,
                -0.22566998,
                -0.1531083,
                -0.27795416,
                -0.46962446,
                0.07018271,
                -0.22826183,
                0.18319675,
                0.29751384,
                -0.06162768,
                0.3754051,
                0.22636688,
                -0.64020115,
                -0.11028397,
                0.08390282,
                0.3791349,
                0.4107433,
                -0.10154766,
                0.27768028,
                -0.06560354,
                0.032098327,
                -0.09856924,
                -0.22107048,
                0.26670912,
                -0.258381,
                -0.40455908,
                -0.001185663,
                -0.031193135,
                0.18001589,
                -0.11286657,
                0.17104718,
                0.3429537,
                0.379808,
                0.0074128024,
                -0.44888422,
                -0.055011034,
                -0.058877088,
                0.23461825,
                -0.11170474,
                0.29326916,
                0.573388,
                0.18766731,
                0.11616367,
                0.18506694,
                0.12322126,
                0.010336083,
                0.29023445,
                0.40762097,
                -0.039280303,
                0.062620156,
                -0.14723912,
                -0.043255225,
                0.12967013,
                0.23202498,
                0.36363393,
                -0.40983957,
                -0.29537296,
                0.13392213,
                -0.53337,
                0.22926162,
                0.23414189,
                0.11500466,
                0.08529673,
                -0.23576401,
                -0.4482637,
                -0.23398384,
                -0.24610433,
                -0.28549248,
                -0.061798118,
                0.06317006,
                0.08840903,
                -0.028593838,
                -0.42095783,
                -0.15787926,
                -0.121252246,
                0.16133213,
                -0.13235185,
                -0.46654087,
                -0.25840577,
                -0.58376014,
                0.03406942,
                0.28166875,
                0.16393311,
                0.19894147,
                0.09476328,
                0.11464395,
                -0.013939678,
                -0.3577541,
                -0.21375614,
                -0.053340808,
                -0.69192636,
                -0.31454214,
                0.17614299,
                -0.06412886,
                -0.17270796,
                -0.045120545,
                0.1632744,
                0.34365964,
                0.3569246,
                -0.22183257,
                -0.39922374,
                0.44988447,
                -0.116616264,
                0.19760364,
                0.10278897,
                -0.15068533,
                -0.1338678,
                0.28186205,
                -0.14844981,
                0.1273913,
                -0.075629786,
                0.30402744,
                0.5712436,
                -0.11162332,
                -0.10424714,
                -0.039500915,
                -0.03693437,
                -0.1545272,
                -0.18488286,
                0.060741045,
                -0.2905033,
                -0.20290664,
                0.23077112,
                0.102534756,
                -0.097512394,
                0.37171814,
                0.5353622,
                0.03824361,
                -0.16391501,
                -0.066274285,
                0.18330753,
                0.037450485,
                -0.32007813,
                -0.59807,
                0.0040159766,
                -0.41631466,
                0.14469954,
                0.010926889,
                0.1556723,
                -0.12217357,
                -0.14090794,
                0.3255495,
                0.10655541,
                0.07526242,
                -0.09762249,
                0.15648086,
                0.22322136,
                -0.5995457,
                -0.06844503,
                -0.22709644,
                -0.27819654,
                -0.1146129,
                -0.014691991,
                -0.27772608,
                -0.17344564,
                -0.13035363,
                0.09900795,
                -0.12320526,
                0.2832412,
                0.17634761,
                -0.3960755,
                -0.3151788,
                -0.06392319,
                -0.3610055,
                0.14002118,
                0.32289737,
                0.37718657,
                -0.09495659,
                -0.14832278,
                0.15298113,
                -0.060085103,
                0.08299123,
                -0.1551654,
                -0.27152792,
                -0.5782186,
                -0.072540134,
                0.18602946,
                -0.05395217,
                0.4247135,
                -0.3817187,
                -0.26153156,
                0.049596682,
                0.08701938,
                -0.24799725,
                -0.031447977,
                0.37235963,
                0.014306343,
                -0.0038318203,
                -0.29053617,
                0.063637,
                -0.089895815,
                0.09382931,
                0.1439589,
                0.36259496,
                -0.40371123,
                -0.30638257,
                0.009013313,
                -0.08888778,
                0.13905674,
                0.009368038,
                0.018047478,
                0.25040025,
                0.35440212,
                0.24217927,
                0.25425488,
                -0.30882964,
                -0.40367758,
                -0.42815602,
                -0.012783822,
                0.119690076,
                0.11290729,
                0.12655757,
                0.19079944,
                0.19647071,
                0.16363099,
                0.06161256,
                0.32849735,
                -0.10964912,
                -0.27453846,
                -0.0015618932,
                0.018757332,
                -0.20038137,
                0.18840377,
                0.35454267,
                -0.060796432,
                -0.30239373,
                0.7703454,
                0.6759376,
                -0.054442827,
                -0.091248155,
                -0.08616058,
                0.25903362,
                0.33557367,
                -0.24756655,
                0.18204215,
                -0.18444826,
                -0.008852752,
                -0.2120553,
                -0.056115635,
                -0.11185449,
                -0.06210384,
                0.32634717,
                0.041035052,
                0.026520744,
                -0.27748066,
                0.33290303,
                0.26747915,
                0.13994181,
                -0.16657066,
                -0.27476686,
                0.32269564,
                0.2646817,
                0.5151892,
                -0.0429051,
                0.062936805,
                0.19577208,
                -0.343058,
                -0.03158476,
                -0.33303395,
                -0.56674546,
                0.03995695,
                -0.05547962,
                -0.30424008,
                0.3429718,
                0.061385788,
                0.140857,
                0.35219833,
                -0.134036,
                -0.04853452,
                -0.26578814,
                0.031840466,
                0.35936713,
                0.06854552,
                0.27829224,
                -0.46574825,
                0.32639533,
                -0.17227179,
                -0.10694614,
                -0.032542862,
                -0.4687677,
                -0.2818783,
                0.5244728,
                0.018716464,
                -0.13125038,
                0.25357682,
                -0.5838066,
                -0.426162,
                0.5838189,
                -0.6333848,
                -0.32238573,
                0.5244247,
                0.031189576,
                -0.30828458,
                0.058920898,
                0.17599407,
                0.4077427,
                -0.17102648,
                0.049884208,
                -0.107279286,
                0.17103592,
                -0.03350705,
                -0.5356091,
                0.11577296,
                -0.34497958,
                -0.24734277,
                0.15493236,
                0.19966504,
                0.054916717,
                0.0017588101,
                -0.11406395,
                -0.23309198,
                0.10608236,
                -0.39270058,
                0.31572768,
                -0.0611236,
                -0.06479053,
                -0.080336735,
                -0.29603782,
                -0.17788842,
                0.17617458,
                -0.13684615,
                -0.5595414,
                -0.11588403,
                -0.30648595,
                -0.46845245,
                0.24888808,
                0.15030058,
                -0.31963813,
                -0.5988473,
                0.16232643,
                0.2825225,
                0.30769193,
                0.034196354,
                -0.27667472,
                0.4672948,
                -0.085598685,
                0.22598094,
                0.2175194,
                0.11388819,
                0.077091634,
                0.23460898,
                0.42849234,
                -0.105063565,
                -0.03095602,
                -0.34263012,
                0.22119534,
                -0.35542512,
                -0.1747464,
                0.059644878,
                -0.54048955,
                0.26480985,
                0.49881268,
                0.12554197,
                -0.19977888,
                0.16645625,
                0.47461492,
                0.33663154,
                -0.4517418,
                -0.44571614,
                -0.27729532,
                0.46003395,
                -0.24970129,
                0.15459727,
                -0.2996894,
                -0.19367826,
                0.10508215,
                -0.12315585,
                -0.4569267,
                -0.0823458,
                -0.5061054,
                -0.26633936,
                -0.34728277,
                0.3309808,
                -0.08396134,
                0.036145486,
                0.4242999,
                0.10692782,
                -0.23928204,
                -0.14055172,
                0.171879,
                0.12329124,
                0.18104126,
                0.3155077,
                -0.110714875,
                -0.12832354,
                0.3987527,
                0.6451353,
                0.5872024,
                -0.4540118,
                -0.45669502,
                0.12975414,
                -0.4395339,
                0.67842495,
                -0.07218401,
                -0.12786953,
                -0.5490043,
                -0.056694455,
                -0.0113112815,
                -0.65040493,
                0.24683228,
                -0.46706617,
                0.03095973,
                0.018754708,
                -0.07408516,
                0.6660158,
                0.024441717,
                -0.1011444,
                -0.018416535,
                0.09701748,
                -0.048233517,
                0.393264,
                -0.59310246,
                0.20204538,
                -0.049498405,
                0.29329434,
                0.19377267,
                -0.2290132,
                0.14798044,
                0.3098552,
                -0.30348462,
                -0.18379158,
                0.039662067,
                -0.47716182,
                0.19080266,
                0.5343621,
                0.116680816,
                0.316383,
                0.08806108,
                -0.07244259,
                -0.32593164,
                -0.4893141,
                -0.15252876,
                0.22518778,
                0.016183764,
                0.21866179,
                -0.4348311,
                0.076408565,
                0.15241145,
                -0.15381452,
                -0.05959102,
                0.3726527,
                -0.021284007,
                -0.15422001,
                0.04228536,
                -0.20471358,
                0.3003356,
                0.07855527,
                -0.36879247,
                0.19519964,
                0.3465109,
                0.35299754,
                -0.03591612,
                0.34959275,
                -0.29300618,
                -0.5909105,
                0.3628167,
                -0.12501442,
                -0.49176508,
                0.26894468,
                0.18419692,
                -0.35115853,
                0.06737171,
                0.21302602,
                -0.3195454,
                -0.14886487,
                0.16567166,
                -0.095032535,
                -0.107306615,
                -0.12774286,
                0.6623143,
                -0.22633605,
                0.0069816145,
                -0.069131285,
                0.01068645,
                0.14047065,
                -0.34551126,
                0.060695097,
                -0.27109557,
                0.35942954,
                0.27636728,
                0.71480894,
                0.30945706,
                -0.11135551,
                0.2796563,
                -0.4505753,
                -0.13220347,
                -0.12467622,
                -0.3555107,
                -0.23249818,
                -0.054463714,
                -0.32032448,
                -0.04813738,
                0.08398669,
                0.206997,
                0.07521938,
                0.06310417,
                0.07033259,
                -0.35213074,
                0.0993063,
                0.04964026,
                0.37258738,
                -0.008784867,
                -0.37483805,
                0.09669171,
                -0.44878146,
                0.43217444,
                0.31623566,
                0.13952652,
                -0.46065956,
                -0.03195382,
                -0.23449178,
                -0.08571016,
                -0.113236494,
                0.40721905,
                0.29861072,
                0.04076959,
                0.46386367,
                -0.0694988,
                -0.15432951,
                0.34533542,
                0.22950098,
                0.44503635,
                -0.15831967,
                -0.18082497,
                -0.41018867,
                0.29095381,
                0.17982495,
                0.09865625,
                -0.2916637,
                0.1526976,
                -0.020713089,
                0.056515202,
                0.05499535,
                -0.16628456,
                -0.34360188,
                -0.00089975074,
                0.04282308,
                0.12534337,
                0.12507467,
                0.10012972,
                -0.21692675,
                0.1743257,
                0.1829556,
                0.21197906,
                -0.228583,
                -0.6473657,
                0.3460266,
                0.019001996,
                0.36309648,
                -0.77288795,
                0.03892871,
                -0.028775902,
                -0.08607423,
                -0.23189017,
                0.072815955,
                -0.6507139,
                -0.26919827,
                -0.17714593,
                -0.18506914,
                -0.33362013,
                -0.10612431,
                -0.30249548,
                -0.1453082,
                -0.46538123,
                -0.65530974,
                -0.25687587,
                -0.20857373,
                -0.22053164,
                0.5745443,
                -0.473205,
                -0.08789162,
                0.0723089,
                -0.04942838,
                0.1976918,
                -0.02660364,
                -0.14246464,
                0.43021104,
                0.22309819,
                -0.39598104,
                -0.26426414,
                0.022180665,
                0.111516766,
                -0.1803982,
                -0.22503132,
                0.08944228,
                -0.0990549,
                0.17246185,
                -0.09806806,
                -0.12800923,
                0.5508198,
                0.09244045,
                -0.077988975,
                -0.12767246,
                -0.09959392,
                -0.40281987,
                0.026674882,
                0.041134916,
                0.24491306,
                0.020521097,
                -0.12261404,
                -0.13016862,
                0.36210832,
                -0.26974455,
                0.17176923,
                -0.15871483,
                -0.28057396,
                0.31102335,
                0.34293634,
                0.23605472,
                0.039212123,
                -0.395827,
                -0.40895325,
                0.42595297,
                -0.2358065,
                0.1663965,
                -0.41902524,
                -0.45943105,
                -0.47490376,
                0.18552099,
                0.35626134,
                0.36465418,
                0.59180033,
                0.2658971,
                0.137038,
                0.14914629,
                -0.026522283,
                0.1490441,
                -0.50549406,
                -0.5300294,
                -0.5310673,
                0.93397135,
                0.16482702,
                -0.6656922,
                0.22185111,
                0.046262704,
                -0.10383735,
                -0.36538753,
                0.11317033,
                -0.25261745,
                -0.16209678,
                -0.38443685,
                -0.6065049,
                0.3760003,
                0.028817836,
                -0.16952224,
                -0.5318312,
                0.2755744,
                -0.069634415,
                0.2375557,
                0.011385137,
                0.45985073,
                -0.28839308,
                -0.11300868,
                0.1379936,
                -0.070197776,
                0.7375418,
                -0.32273617,
                -0.285774,
                0.38419676,
                0.46274456,
                0.12987478,
                -0.38645247,
                -0.005029723,
                -0.13586706,
                -0.1588049,
                -0.21646139,
                -0.29484403,
                0.10762708,
                0.07057744,
                0.41651633,
                -0.17421249,
                -0.37954724,
                0.017426407,
                -0.09543146,
                -0.17420757,
                0.080432124,
                0.3779841,
                -0.0323032,
                0.54812634,
                0.3894801,
                -0.15858021,
                -0.25583708,
                0.054051667,
                -0.19327977,
                0.1805103,
                -0.3455678,
                0.42554736,
                0.30871338,
                -0.11300523,
                -0.016643612,
                -0.07037114,
                0.23204395,
                0.54643214,
                -0.70205384,
                0.10511989,
                -0.1842429,
                0.19892631,
                -0.293749,
                0.100718975,
                -0.15024388,
                -0.025275769,
                -0.05876851,
                0.13888703,
                -0.07030782,
                0.08208084
              ]
            },
            "biases": {
              "v": 1,
              "dim": [
                32
              ],
              "data": [
                -0.015610395,
                -0.16843523,
                0.16372803,
                0.008339191,
                0.023413463,
                0.20034428,
                0.0842831,
                0.65861,
                0.020594325,
                0.1595466,
                0.019858817,
                -0.03584148,
                -0.41885382,
                0.13704589,
                0.2734455,
                0.11506943,
                0.19916497,
                0.08326683,
                0.19844566,
                -0.08177257,
                -0.06424828,
                0.12156557,
                0.061901167,
                -0.018920941,
                0.13645922,
                0.27748877,
                -0.078823656,
                -0.13701057,
                -0.40051037,
                -0.093331605,
                0.27176446,
                -0.5261928
              ]
            }
          },
          {
            "weights": {
              "v": 1,
              "dim": [
                16,
                32
              ],
              "data": [
                0.6647979,
                0.023498569,
                -0.036730338,
                -0.10039815,
                -0.10025543,
                -0.3348501,
                -0.19376275,
                0.28727162,
                -0.12095514,
                0.11179801,
                0.05800169,
                0.25704813,
                -0.27240157,
                0.63902557,
                -0.08121336,
                -0.09445403,
                -0.064128734,
                -0.036856823,
                -0.19341461,
                0.37875816,
                -0.23316371,
                0.32583565,
                0.3056242,
                -0.009613603,
                -0.17161348,
                -0.06983893,
                0.32817975,
                -0.50386417,
                0.39813596,
                0.33131164,
                -0.4153812,
                0.08402714,
                -0.15375182,
                -0.039947208,
                0.21519817,
                0.09111772,
                0.34684324,
                0.29967558,
                -0.33438373,
                -0.36325085,
                0.24585356,
                -0.3185777,
                0.28346944,
                -0.40251648,
                0.062182777,
                -0.0012206314,
                -0.17776152,
                -0.35675764,
                -0.068406045,
                -0.04156162,
                -0.19735375,
                -0.049144477,
                -0.4201116,
                -0.42239255,
                0.34219855,
                -0.16970986,
                -0.115585536,
                0.20849486,
                0.15766698,
                0.19176517,
                0.21075755,
                -0.21797615,
                0.34479082,
                0.24231245,
                -0.09964329,
                0.19091892,
                0.30046594,
                0.5121413,
                -0.25301462,
                0.053987145,
                0.10711881,
                0.32236105,
                -0.059225984,
                0.5943233,
                -0.30711222,
                -0.32891726,
                -0.16352308,
                -0.24309844,
                0.39412677,
                0.34739637,
                0.22794867,
                0.40350145,
                0.49176228,
                -0.10139611,
                0.4657752,
                -0.04285855,
                -0.1491526,
                -0.20718366,
                0.052404575,
                0.12345317,
                -0.2858902,
                0.07677713,
                -0.46693558,
                -0.06807659,
                -0.1900317,
                -0.2886396,
                -0.4226089,
                0.29569238,
                -0.1333206,
                -0.041254543,
                -0.24324563,
                -0.079117775,
                0.26162013,
                0.099528566,
                -0.00012964476,
                -0.24445914,
                0.5520053,
                0.5576269,
                -0.35654616,
                0.08653722,
                0.6539183,
                -0.28538716,
                -0.4439693,
                0.26757443,
                0.24545816,
                0.5600803,
                0.0010497938,
                -0.29786626,
                0.013664219,
                -0.02210597,
                0.29626656,
                -0.5037862,
                0.11153213,
                0.5239222,
                -0.45845997,
                -0.12940621,
                0.2958842,
                -0.1726188,
                -0.007882664,
                -0.21528947,
                0.04311831,
                -0.38397324,
                0.2273494,
                0.22782186,
                0.20293067,
                -0.32309175,
                -0.52798474,
                0.049845863,
                0.111324936,
                -0.04149773,
                0.5451397,
                -0.13019116,
                -0.06190377,
                -0.28068435,
                -0.08112603,
                -0.28102398,
                -0.28901735,
                -0.22640671,
                -0.21402232,
                -0.28727067,
                -0.2690342,
                0.07304713,
                -0.118575156,
                0.122493416,
                0.3021837,
                0.12637135,
                0.09909711,
                -0.012696605,
                0.38636845,
                -0.241777,
                -0.3832992,
                0.44502515,
                0.12602368,
                0.1305058,
                0.3314569,
                -0.12967104,
                -0.42934507,
                0.07165924,
                0.021355666,
                0.04033607,
                -0.092966795,
                0.35171416,
                0.1329172,
                0.17307478,
                -0.21549146,
                -0.53831613,
                0.24236098,
                0.26928592,
                -0.41665652,
                0.09612487,
                0.5259185,
                0.073844045,
                0.065522596,
                0.021419777,
                -0.17247084,
                0.06603958,
                0.42677432,
                0.48239833,
                -0.013555575,
                -0.31473035,
                0.1717461,
                0.23166311,
                0.16911936,
                -0.040164594,
                -0.06153087,
                -0.4486451,
                -0.5079546,
                -0.041259993,
                0.1839795,
                0.31273413,
                -0.075919375,
                0.3341143,
                0.06000976,
                -0.1329176,
                0.025448823,
                -0.20325887,
                0.2539919,
                -0.2671937,
                0.42429948,
                0.19787517,
                -0.36708632,
                0.27832115,
                -0.57544553,
                -0.09175995,
                -0.34042358,
                -0.052813023,
                0.060929406,
                -0.43682635,
                0.47905937,
                0.40046966,
                -0.3440466,
                0.46803114,
                0.29978687,
                0.3501847,
                -0.045403685,
                0.08008773,
                0.2559101,
                -0.1781098,
                0.6744452,
                -0.23050079,
                0.48615223,
                -0.22428457,
                0.07036772,
                0.18196467,
                -0.05142963,
                0.044578597,
                -0.15292928,
                -0.4623649,
                -0.4056858,
                -0.4891949,
                0.010907135,
                -0.18822438,
                0.13369253,
                0.1835616,
                -0.17203379,
                0.04392395,
                0.04292403,
                -0.024691585,
                0.17082003,
                -0.02018196,
                0.12378022,
                0.6512023,
                0.24654663,
                -0.36009446,
                0.021928484,
                -0.3900834,
                0.60600305,
                -0.071612805,
                -0.13762271,
                0.104576305,
                0.082056396,
                0.11160754,
                0.124304146,
                -0.08111512,
                -0.08733871,
                -0.542889,
                -0.27688682,
                0.22947755,
                0.4224936,
                -0.03220243,
                0.09635849,
                0.47525513,
                0.06908037,
                -0.049975492,
                0.29715806,
                -0.23992684,
                -0.35378134,
                -0.09700065,
                -0.29558492,
                0.72845984,
                -0.28154182,
                -0.30674225,
                -0.5929382,
                0.032293584,
                -0.08921697,
                -0.580647,
                -0.07076055,
                -0.05236414,
                -0.18398908,
                -0.26372194,
                0.05674114,
                0.015366746,
                0.22389153,
                -0.17716171,
                -0.16550666,
                -0.26181012,
                -0.29217118,
                0.010449641,
                -0.31606433,
                0.03607352,
                -0.31934425,
                0.2668757,
                0.12431531,
                -0.06394246,
                -0.27388364,
                -0.78183824,
                -0.030330747,
                -0.03673126,
                0.6646981,
                -0.3474977,
                0.30781913,
                0.25524133,
                0.14453521,
                0.30943573,
                0.2849266,
                -0.3087811,
                0.13938491,
                -0.020241084,
                0.08257861,
                0.1410842,
                0.47982478,
                -0.15826112,
                -0.034541488,
                0.09772709,
                0.12245615,
                -0.06315385,
                -0.32628247,
                0.45065516,
                0.1956873,
                -0.3449347,
                0.105178975,
                -0.0046042604,
                0.030306075,
                -0.06110446,
                0.025039684,
                0.05904155,
                -0.24784455,
                0.40031272,
                0.02444037,
                0.34781033,
                0.0018858984,
                -0.060015924,
                -0.17598504,
                -0.28946972,
                0.09304479,
                0.32538095,
                -0.017663173,
                -0.06388953,
                -0.3886486,
                0.22276074,
                -0.059950955,
                0.33586612,
                -0.91705203,
                -0.16388404,
                -0.0017534718,
                0.2216177,
                0.24169207,
                -0.070122845,
                -0.47140962,
                -0.10316971,
                -0.37912154,
                0.16881008,
                0.07510142,
                0.08314583,
                -0.35073996,
                0.16364312,
                -0.4822277,
                0.26988444,
                -0.02157372,
                0.2630636,
                0.13761774,
                -0.2664704,
                -0.24538991,
                0.14633538,
                0.23271951,
                0.06369403,
                -0.34065497,
                -0.29525387,
                -0.15908358,
                0.3060595,
                0.30541927,
                -0.08321626,
                -0.08464891,
                -0.40422273,
                -0.47222185,
                -0.69679934,
                -0.05403708,
                -0.047267966,
                0.19680816,
                -0.117083505,
                -0.5415105,
                0.33014768,
                -0.32919848,
                -0.4295516,
                -0.26378283,
                -0.18840249,
                -0.31401706,
                0.12020665,
                0.11546455,
                0.0077424133,
                -0.22930957,
                0.015589426,
                0.018545957,
                0.54535484,
                0.048780587,
                -0.12561,
                -0.22151905,
                -0.8619479,
                -0.11882718,
                0.11057289,
                0.13150157,
                -0.41437256,
                0.00073202513,
                0.68025094,
                0.13733447,
                -0.19364865,
                0.014779571,
                0.33274287,
                0.062437244,
                0.02920714,
                0.48500365,
                -0.029389655,
                -0.05411558,
                0.12152213,
                -0.036114767,
                0.035756342,
                0.034273487,
                -0.114118695,
                0.073094234,
                -0.18771702,
                -0.032155808,
                0.019785164,
                0.15952921,
                -0.00817567,
                0.06350043,
                0.5191676,
                0.1938816,
                0.20238723,
                0.4224987,
                0.47674242,
                0.1675506,
                -0.019588133,
                -0.14076053,
                -0.38383812,
                0.59624195,
                0.2528374,
                -0.3080117,
                0.4342453,
                -0.1174417,
                0.34342867,
                -0.50629056,
                0.05703576,
                -0.19710405,
                0.023536475,
                -0.1628194,
                0.51957464,
                0.10253221,
                0.5403074,
                -0.07630637,
                -0.041327126,
                -0.41411215,
                0.068238355,
                -0.32446817,
                0.32773814,
                -0.49943012,
                -0.036724873,
                -0.7050986,
                0.295874,
                -0.23044862,
                0.14507398,
                -0.4130124,
                -0.37456363,
                0.2667607,
                -0.41089687,
                0.16212478,
                0.11611281,
                0.3699304,
                -0.2942228,
                0.06611626,
                0.1513387,
                -0.36705214,
                0.6741443,
                0.1217652,
                0.19639301,
                -0.17359085,
                -0.08761701,
                -0.5834844,
                0.35789472,
                0.050690793,
                -0.24937823,
                -0.24962422,
                -0.12608294,
                0.1065923,
                0.2072969,
                -0.1799996,
                -0.20810518,
                -0.073423356,
                0.2592642,
                0.07639876,
                0.46107632,
                0.012158066,
                0.14981729,
                -0.12271188,
                0.05059572,
                0.30703127,
                0.29575187,
                0.010797391,
                0.07496769,
                -0.18291074,
                0.013439886,
                -0.017645411,
                -0.06080824
              ]
            },
            "biases": {
              "v": 1,
              "dim": [
                16
              ],
              "data": [
                0.22864258,
                -0.060993984,
                -0.44363788,
                0.015702343,
                0.30716264,
                0.18158329,
                -0.32895613,
                0.018302307,
                0.25115758,
                -0.015720569,
                0.21877563,
                -0.10677697,
                -0.013436737,
                -0.35517815,
                0.055585593,
                0.7997863
              ]
            }
          },
          {
            "weights": {
              "v": 1,
              "dim": [
                11,
                16
              ],
              "data": [
                -0.04030203,
                0.5424014,
                -0.39328757,
                -0.1965942,
                0.08514035,
                0.110483415,
                -0.17943999,
                0.07926089,
                -0.26492622,
                0.033946957,
                -0.31697577,
                0.38074413,
                -0.23389846,
                0.094128765,
                0.29054943,
                0.019668426,
                -0.16526873,
                0.07512891,
                -0.47413972,
                0.10512155,
                0.1442661,
                -0.15866199,
                0.26150072,
                -0.017038472,
                -0.41557944,
                0.26882744,
                0.17501017,
                0.32885298,
                -0.08077866,
                0.38740146,
                -0.11931262,
                0.06202641,
                0.24275684,
                0.12972775,
                0.014925088,
                0.28083783,
                -0.033397667,
                -0.13637185,
                -0.19240105,
                -0.24013394,
                -0.18913305,
                0.44552022,
                -0.3680653,
                -0.38259888,
                0.1583058,
                -0.5582068,
                -0.42733556,
                -0.15183827,
                -0.26316994,
                0.105679095,
                0.44004416,
                -0.009561235,
                -0.005207286,
                0.0123947775,
                -0.20257136,
                -0.10500759,
                -0.23715267,
                0.060631122,
                0.074947946,
                -0.13916208,
                -0.4203726,
                -0.06446244,
                -0.1375737,
                -0.16081128,
                -0.14371474,
                0.36906606,
                0.13462129,
                0.20773375,
                0.01580365,
                0.2535593,
                0.13536729,
                0.3758632,
                0.0031186605,
                0.22232033,
                -0.10304727,
                -0.26724163,
                0.115598366,
                -0.09219762,
                -0.09586169,
                0.38407007,
                0.13574788,
                -0.039014757,
                -0.19098406,
                0.018309694,
                0.024459084,
                -0.017082686,
                0.19899029,
                -0.048685253,
                -0.12171748,
                -0.33209658,
                -0.33779866,
                0.3124391,
                0.32802308,
                -0.49402592,
                -0.118776076,
                -0.23205376,
                0.1815343,
                0.2637866,
                -0.0250174,
                0.09996911,
                -0.7031912,
                -0.0060352,
                -0.26161796,
                -0.09672584,
                -0.15305002,
                -0.020013206,
                0.3797694,
                0.69919115,
                -0.090489835,
                -0.09922295,
                -0.35569015,
                -0.2691326,
                -0.11754395,
                -0.23554835,
                -0.17613643,
                -0.047966376,
                -0.33521676,
                -0.07432701,
                -0.028099552,
                -0.1707429,
                0.08052313,
                -0.1886493,
                -0.19230446,
                0.07707739,
                -0.0592113,
                0.38228485,
                -0.10368723,
                0.07395023,
                -0.29913276,
                0.16383739,
                0.3660559,
                0.028527826,
                0.024151199,
                0.30344886,
                0.4530112,
                -0.30453557,
                -0.057329725,
                -0.19659956,
                0.13837439,
                0.24652657,
                0.35295576,
                0.20830142,
                0.124750264,
                0.4974833,
                -0.058363594,
                -0.14008327,
                0.26137042,
                0.004159718,
                0.31578344,
                0.032925233,
                0.038063712,
                0.18297024,
                -0.50676805,
                0.19884904,
                0.18373246,
                0.18233491,
                -0.14081657,
                0.0039513,
                0.05263887,
                -0.70456886,
                0.30708688,
                0.068137944,
                0.02061441,
                0.14696017,
                0.41592464,
                0.18609728,
                0.3504142,
                0.030876942,
                0.17406532,
                -0.014890849,
                -0.45300156,
                -0.20001164,
                0.183344,
                0.34017727,
                0.3127759,
                -0.15494399
              ]
            },
            "biases": {
              "v": 1,
              "dim": [
                11
              ],
              "data": [
                0.027351128,
                0.39610514,
                0.17520618,
                -0.16492873,
                0.10034433,
                -0.021622237,
                -0.06009146,
                0.07972179,
                -0.50981385,
                -0.8527292,
                -0.53651524
              ]
            }
          }
        ]
      },
      "attack_cooldown": 0.10000001
    },
    {
      "id": 20240,
      "age": 25.94989,
      "score": 6,
      "pos": {
        "v": 1,
        "dim": [
          2
        ],
        "data": [
          504.28452,
          155.62915
        ]
      },
      "rot": -19.678364,
      "energy": 0.5559017,
      "signal": {
        "v": 1,
        "dim": [
          4
        ],
        "data": [
          0.35484806,
          0.430329,
          0.61798763,
          0.5022622
        ]
      },
      "memory": {
        "v": 1,
        "dim": [
          4
        ],
        "data": [
          0.44178167,
          0.07014174,
          -0.000598669,
          -0.3532517
        ]
      },
      "brain": {
        "layers": [
          {
            "weights": {
              "v": 1,
              "dim": [
                32,
                24
              ],
              "data": [
                0.17221284,
                -0.046087436,
                0.089150906,
                -0.35407043,
                -0.57890993,
                -0.0667862,
                -0.10422725,
                0.06204375,
                0.39836472,
                -0.17546374,
                0.22917928,
                0.19703817,
                -0.049254008,
                0.43878824,
                0.25539082,
                -0.20480657,
                0.26161826,
                -0.08567899,
                -0.4727016,
                -0.18163496,
                -0.32570863,
                -0.512163,
                -0.19078654,
                -0.1468737,
                -0.50539774,
                0.35133463,
                0.03099417,
                -0.36381596,
                0.32013533,
                -0.36008853,
                -0.438872,
                -0.31998277,
                -0.1796894,
                -0.045160946,
                0.6908856,
                0.010722399,
                0.6725103,
                -0.15553278,
                -0.019175485,
                0.08768308,
                -0.1127179,
                -0.41507885,
                0.01975847,
                -0.12002842,
                -0.13107353,
                0.023962013,
                -0.13084023,
                -0.05926784,
                -0.32214713,
                0.089111194,
                -0.12738328,
                -0.08645604,
                -0.04474486,
                0.016638152,
                -0.025698163,
                0.4648943,
                -0.02167805,
                0.068605654,
                -0.22388905,
                0.50126374,
                -0.21875107,
                0.50518954,
                -0.1724951,
                -0.016201325,
                -0.23427106,
                -0.13988182,
                -0.3079953,
                -0.49449265,
                0.058242373,
                -0.18406788,
                0.15223056,
                0.35011446,
                0.012186438,
                0.38326943,
                0.25976825,
                -0.6081743,
                -0.13172618,
                0.13759123,
                0.3371895,
                0.35243663,
                -0.1613584,
                0.3072409,
                -0.028061679,
                0.037506644,
                -0.095517576,
                -0.3000048,
                0.2875156,
                -0.23853955,
                -0.34778222,
                0.025399357,
                -0.031332877,
                0.18563776,
                -0.17549108,
                0.17810564,
                0.36084154,
                0.31254473,
                0.03720929,
                -0.42301163,
                -0.024045628,
                -0.048511513,
                0.27985927,
                -0.09071517,
                0.27872846,
                0.58444697,
                0.17153312,
                0.09567726,
                0.21477751,
                0.14902723,
                0.005045357,
                0.2963038,
                0.3968457,
                -0.040780835,
                0.08595324,
                -0.11868191,
                -0.038529325,
                0.15162504,
                0.20187415,
                0.40558758,
                -0.38267148,
                -0.3109015,
                0.1820693,
                -0.53376013,
                0.20111501,
                0.25323296,
                0.102154255,
                0.059970766,
                -0.22533396,
                -0.40069488,
                -0.20527922,
                -0.2611048,
                -0.25570363,
                -0.08019441,
                0.018658806,
                0.113844536,
                -0.018640522,
                -0.3864055,
                -0.20388852,
                -0.13720453,
                0.10933747,
                -0.06677715,
                -0.46010038,
                -0.2998271,
                -0.58167994,
                0.03009569,
                0.23616342,
                0.17927137,
                0.24783972,
                0.11026039,
                0.11802636,
                -0.008386245,
                -0.35577753,
                -0.24607256,
                -0.058034264,
                -0.6831919,
                -0.35217366,
                0.14505497,
                -0.08943635,
                -0.14841273,
                -0.021105116,
                0.11080064,
                0.34663743,
                0.37380064,
                -0.23089969,
                -0.4429216,
                0.49587435,
                -0.14198019,
                0.20516631,
                0.14066681,
                -0.1294775,
                -0.08865255,
                0.3159938,
                -0.12740451,
                0.08209949,
                -0.060912423,
                0.3271953,
                0.59487516,
                -0.110005364,
                -0.12474994,
                -0.041884497,
                -0.0033333665,
                -0.13057894,
                -0.14429492,
                0.097549945,
                -0.27894115,
                -0.17730394,
                0.23724273,
                0.072659105,
                -0.114004724,
                0.35905865,
                0.55139,
                0.017201655,
                -0.14133623,
                -0.043976612,
                0.16661544,
                0.07173627,
                -0.34518018,
                -0.5909023,
                -0.034229632,
                -0.43253565,
                0.13886297,
                0.055375703,
                0.15359059,
                -0.1544702,
                -0.11470865,
                0.3584751,
                0.15913422,
                0.05196234,
                -0.15301305,
                0.114835754,
                0.19035655,
                -0.575708,
                -0.04457558,
                -0.21222375,
                -0.29699972,
                -0.13074021,
                0.019524073,
                -0.23577228,
                -0.14567007,
                -0.13184933,
                0.07047334,
                -0.1117452,
                0.28299445,
                0.1871745,
                -0.4167461,
                -0.28979516,
                -0.024653204,
                -0.34978497,
                0.16291736,
                0.31587136,
                0.33786488,
                -0.1254844,
                -0.16928002,
                0.15946126,
                -0.052816577,
                0.15908556,
                -0.19191256,
                -0.2991006,
                -0.5422522,
                -0.08023772,
                0.19772479,
                0.0034423955,
                0.40192926,
                -0.34364924,
                -0.28369913,
                0.070508584,
                0.08446915,
                -0.2754687,
                -0.0253939,
                0.34811226,
                0.023725195,
                0.0076183216,
                -0.33747476,
                0.014800548,
                -0.06353159,
                0.06398219,
                0.17435086,
                0.35828853,
                -0.42518476,
                -0.2790536,
                -0.02520558,
                -0.10841484,
                0.14149785,
                0.03401927,
                0.042388637,
                0.24546927,
                0.33321083,
                0.1746871,
                0.23295723,
                -0.30461982,
                -0.37095365,
                -0.45572376,
                0.020917973,
                0.12816837,
                0.10031409,
                0.086631685,
                0.18527776,
                0.19846174,
                0.16057096,
                0.095805116,
                0.2968223,
                -0.13762477,
                -0.29666692,
                -0.038594175,
                0.04493701,
                -0.18947667,
                0.18972406,
                0.31719032,
                -0.116207585,
                -0.29936633,
                0.78454494,
                0.71559095,
                -0.029201705,
                -0.07806152,
                -0.118142135,
                0.27255338,
                0.33248293,
                -0.263651,
                0.1705972,
                -0.21849269,
                -0.041213572,
                -0.23535398,
                -0.082228184,
                -0.07022237,
                -0.061251976,
                0.2735507,
                0.06148599,
                0.003793877,
                -0.3001216,
                0.3686468,
                0.26071495,
                0.14769414,
                -0.16821629,
                -0.2636181,
                0.29517633,
                0.25350744,
                0.5216775,
                -0.0665715,
                0.09058535,
                0.16846347,
                -0.33283734,
                -0.022454092,
                -0.3017431,
                -0.57485586,
                0.051426943,
                -0.02605228,
                -0.32520378,
                0.31935084,
                0.046249088,
                0.13027693,
                0.35251102,
                -0.08644775,
                -0.040826272,
                -0.3137014,
                -0.036116667,
                0.32289177,
                0.09831181,
                0.24616316,
                -0.4647867,
                0.35576767,
                -0.12723616,
                -0.09858194,
                -0.05293437,
                -0.40639824,
                -0.29588372,
                0.5032748,
                0.051022798,
                -0.08655365,
                0.22544184,
                -0.5699092,
                -0.45124245,
                0.5861155,
                -0.61581874,
                -0.3499097,
                0.5204684,
                0.05647611,
                -0.29986903,
                0.025862915,
                0.17197196,
                0.39258042,
                -0.12014585,
                0.08728744,
                -0.06973492,
                0.19877341,
                -0.02793955,
                -0.5312183,
                0.095576584,
                -0.3257278,
                -0.2876346,
                0.18407345,
                0.2068366,
                0.029737735,
                0.044451702,
                -0.14116406,
                -0.22905971,
                0.10883665,
                -0.37479675,
                0.33993354,
                -0.067750126,
                -0.049383387,
                -0.12965707,
                -0.31262305,
                -0.12761177,
                0.1505467,
                -0.1335583,
                -0.5418434,
                -0.18421702,
                -0.31168085,
                -0.44755572,
                0.26635823,
                0.20007008,
                -0.38141465,
                -0.56763774,
                0.23192674,
                0.26441598,
                0.29660177,
                0.029755976,
                -0.26350108,
                0.48681512,
                -0.04043468,
                0.20378736,
                0.23229273,
                0.107296616,
                0.09961699,
                0.18885438,
                0.4244309,
                -0.11247496,
                -0.067915924,
                -0.37554237,
                0.19508529,
                -0.37054637,
                -0.15682673,
                0.073792264,
                -0.52274483,
                0.2567399,
                0.5382638,
                0.14665315,
                -0.19086227,
                0.17779273,
                0.48927146,
                0.28966916,
                -0.4261883,
                -0.41082007,
                -0.31002367,
                0.44857785,
                -0.29474682,
                0.16040997,
                -0.30122817,
                -0.15033038,
                0.098651975,
                -0.09622857,
                -0.46833026,
                -0.12788191,
                -0.53223616,
                -0.2668607,
                -0.29816753,
                0.3328858,
                -0.11640573,
                0.08317333,
                0.39782268,
                0.09732821,
                -0.23107287,
                -0.15431434,
                0.13956946,
                0.12903944,
                0.11088477,
                0.34165728,
                -0.10853114,
                -0.11959846,
                0.36302358,
                0.6175097,
                0.5900363,
                -0.42574129,
                -0.4881007,
                0.0864394,
                -0.46601394,
                0.70420134,
                -0.081792966,
                -0.17247641,
                -0.5007602,
                -0.07413017,
                0.0032104217,
                -0.6413516,
                0.24208385,
                -0.52120996,
                0.019348256,
                0.012032034,
                -0.10307422,
                0.66961414,
                0.05388573,
                -0.096988976,
                -0.032308593,
                0.0683564,
                -0.05437488,
                0.33696914,
                -0.5750246,
                0.20471022,
                0.00018266216,
                0.32652664,
                0.19035633,
                -0.22917575,
                0.11660531,
                0.27593678,
                -0.31559163,
                -0.14442295,
                0.08354315,
                -0.43308765,
                0.17798653,
                0.51719356,
                0.07288472,
                0.32447362,
                0.09114778,
                -0.078092694,
                -0.31450027,
                -0.48136932,
                -0.170302,
                0.23508564,
                0.034495696,
                0.251164,
                -0.4395544,
                0.08616675,
                0.17673036,
                -0.10459043,
                -0.0751974,
                0.377777,
                0.010617353,
                -0.16966543,
                0.008066714,
                -0.21009713,
                0.2831497,
                0.008627029,
                -0.38075984,
                0.18153241,
                0.30624768,
                0.32905316,
                -0.011981213,
                0.3625509,
                -0.26285538,
                -0.55363643,
                0.3733818,
                -0.08553171,
                -0.47997832,
                0.265813,
                0.20921728,
                -0.3226712,
                0.039518427,
                0.19549407,
                -0.32168123,
                -0.12608497,
                0.20764455,
                -0.15008944,
                -0.060319055,
                -0.1233707,
                0.64671546,
                -0.22254336,
                0.013404647,
                -0.048305444,
                0.04858967,
                0.14802606,
                -0.3257523,
                0.12138377,
                -0.27786002,
                0.35829812,
                0.23481369,
                0.7266224,
                0.36355224,
                -0.11840591,
                0.29664886,
                -0.47621644,
                -0.123014405,
                -0.12767678,
                -0.32640672,
                -0.2259463,
                -0.09391514,
                -0.28920302,
                -0.0501924,
                0.08269143,
                0.15994182,
                0.11041324,
                0.05392772,
                0.0728733,
                -0.33787772,
                0.10032703,
                0.030261878,
                0.41475222,
                -0.0003218241,
                -0.38869953,
                0.1424799,
                -0.47800466,
                0.40774614,
                0.29987654,
                0.071596414,
                -0.4753069,
                -0.021259572,
                -0.25084105,
                -0.09594995,
                -0.16022107,
                0.39182085,
                0.3242799,
                -0.0025876523,
                0.448157,
                -0.092253014,
                -0.13361526,
                0.33510584,
                0.22558564,
                0.46779016,
                -0.1779685,
                -0.21371523,
                -0.41227525,
                0.27534026,
                0.17254107,
                0.07214907,
                -0.2567343,
                0.14342442,
                -0.049557045,
                0.054724485,
                0.01911984,
                -0.13887557,
                -0.3512454,
                -0.028376471,
                0.022969794,
                0.07941831,
                0.08961718,
                0.11968963,
                -0.25631893,
                0.20828214,
                0.22416091,
                0.20430018,
                -0.26165667,
                -0.6558433,
                0.3279747,
                0.030518059,
                0.36926627,
                -0.74382204,
                0.052444384,
                -0.070292026,
                -0.123442635,
                -0.2512818,
                0.056036577,
                -0.6251026,
                -0.29482812,
                -0.20251761,
                -0.22215319,
                -0.33779186,
                -0.07523011,
                -0.2944789,
                -0.13847588,
                -0.4797951,
                -0.6673851,
                -0.28825563,
                -0.24422045,
                -0.1912295,
                0.59555817,
                -0.49601203,
                -0.05265879,
                0.08992931,
                -0.041454054,
                0.18911809,
                -0.0029823957,
                -0.14578505,
                0.472824,
                0.2044785,
                -0.39992964,
                -0.24040747,
                0.024640255,
                0.07429765,
                -0.18344629,
                -0.24174005,
                0.084663406,
                -0.097082734,
                0.17821309,
                -0.11529961,
                -0.12633418,
                0.5557767,
                0.12118521,
                -0.096917495,
                -0.14312759,
                -0.10016233,
                -0.43292156,
                0.069029875,
                0.079968944,
                0.24619946,
                0.014436034,
                -0.13379872,
                -0.099286005,
                0.3800246,
                -0.24746546,
                0.13733321,
                -0.14429618,
                -0.2867394,
                0.30698192,
                0.32970905,
                0.18927357,
                0.010257034,
                -0.3556944,
                -0.37789035,
                0.42717502,
                -0.26220414,
                0.1676327,
                -0.3795037,
                -0.40736026,
                -0.43119222,
                0.22400439,
                0.3475967,
                0.40198037,
                0.61144936,
                0.28784955,
                0.09961174,
                0.1796893,
                0.015648901,
                0.13488582,
                -0.5256483,
                -0.57278365,
                -0.5363976,
                0.9304722,
                0.16984358,
                -0.6110559,
                0.18322943,
                0.07865308,
                -0.045079727,
                -0.36291236,
                0.08286751,
                -0.22902173,
                -0.1548197,
                -0.37819773,
                -0.5590151,
                0.39140546,
                -0.008498013,
                -0.18787584,
                -0.53803056,
                0.25171673,
                -0.08210707,
                0.21923327,
                0.034978643,
                0.4864532,
                -0.2631166,
                -0.045152023,
                0.16010404,
                -0.057929814,
                0.68481934,
                -0.37392366,
                -0.284442,
                0.33193368,
                0.45633578,
                0.12187499,
                -0.41183287,
                -0.03504932,
                -0.0939027,
                -0.17659402,
                -0.18529336,
                -0.29506254,
                0.106624335,
                0.07246894,
                0.42610136,
                -0.21780276,
                -0.33172143,
                0.03133823,
                -0.0279015,
                -0.16943792,
                0.14051035,
                0.36244968,
                -0.060343668,
                0.5366292,
                0.39234138,
                -0.12270961,
                -0.22958505,
                0.05781115,
                -0.22939895,
                0.12803388,
                -0.33916083,
                0.4057315,
                0.30773088,
                -0.108880475,
                -0.0072895456,
                -0.13659701,
                0.21752217,
                0.55729115,
                -0.6656269,
                0.111647636,
                -0.21673506,
                0.23556863,
                -0.29305077,
                0.061051786,
                -0.12785289,
                0.007918058,
                -0.03543789,
                0.1104841,
                -0.09586029,
                0.091487154
              ]
            },
            "biases": {
              "v": 1,
              "dim": [
                32
              ],
              "data": [
                -0.02726835,
                -0.115649566,
                0.16050711,
                0.037593715,
                -0.0011180425,
                0.19849588,
                0.10554743,
                0.6178242,
                -0.019471023,
                0.14709592,
                0.006144448,
                -0.10247168,
                -0.42552638,
                0.09922784,
                0.22350568,
                0.079863966,
                0.19207937,
                0.15230748,
                0.16918866,
                -0.05810168,
                -0.05872024,
                0.10232486,
                0.10050852,
                -0.012745293,
                0.08578835,
                0.2490863,
                -0.11474489,
                -0.16130246,
                -0.34847558,
                -0.05600337,
                0.25026903,
                -0.52268803
              ]
            }
          },
          {
            "weights": {
              "v": 1,
              "dim": [
                16,
                32
              ],
              "data": [
                0.65391743,
                -0.026898459,
                -0.053830326,
                -0.060273774,
                -0.12034161,
                -0.32899362,
                -0.18040134,
                0.26304573,
                -0.13723508,
                0.1676071,
                0.03226587,
                0.27445847,
                -0.30275312,
                0.6074436,
                -0.08022678,
                -0.05442049,
                -0.03855182,
                0.008028599,
                -0.20534012,
                0.37650388,
                -0.21049729,
                0.32975686,
                0.33045685,
                0.0078899,
                -0.18070824,
                -0.050784066,
                0.33682516,
                -0.45022616,
                0.41330987,
                0.30632302,
                -0.36855412,
                0.07033368,
                -0.17468646,
                -0.03728,
                0.2177209,
                0.13345243,
                0.33988056,
                0.29232144,
                -0.36524853,
                -0.38850075,
                0.26666546,
                -0.31836456,
                0.24605799,
                -0.41341817,
                0.117396265,
                0.00810076,
                -0.21094109,
                -0.3721203,
                -0.05154234,
                -0.058453143,
                -0.19939266,
                -0.08477724,
                -0.4151237,
                -0.38960487,
                0.32224864,
                -0.17075112,
                -0.122441046,
                0.23829365,
                0.18031293,
                0.21253781,
                0.19354892,
                -0.24782142,
                0.37399954,
                0.25970155,
                -0.10422206,
                0.18898585,
                0.25714335,
                0.4621256,
                -0.23292178,
                0.07274401,
                0.10726105,
                0.25754195,
                -0.0724649,
                0.6105294,
                -0.26347834,
                -0.3497998,
                -0.15460986,
                -0.1937403,
                0.38235393,
                0.3565339,
                0.22021356,
                0.43193704,
                0.46166036,
                -0.10127853,
                0.43367025,
                -0.06686848,
                -0.15982251,
                -0.15763128,
                0.06951736,
                0.11850659,
                -0.31481493,
                0.057961777,
                -0.43904364,
                -0.06976383,
                -0.20828664,
                -0.3053062,
                -0.42015046,
                0.29847714,
                -0.07103435,
                -0.10309864,
                -0.2735421,
                -0.04119225,
                0.27496564,
                0.09250702,
                0.020798292,
                -0.23759918,
                0.5557542,
                0.5570097,
                -0.39794672,
                0.14305186,
                0.681359,
                -0.32550615,
                -0.49067283,
                0.28118342,
                0.24156918,
                0.53551674,
                0.0011504595,
                -0.2892339,
                0.016692968,
                -0.024566788,
                0.31928638,
                -0.5525682,
                0.09440154,
                0.5209005,
                -0.45295382,
                -0.18915674,
                0.32194296,
                -0.13602453,
                -0.043930896,
                -0.17495999,
                0.022872334,
                -0.36248946,
                0.26542413,
                0.25944036,
                0.17359638,
                -0.31893575,
                -0.56461453,
                0.06354909,
                0.10642662,
                -0.05590001,
                0.5440929,
                -0.10330565,
                -0.052043125,
                -0.23956302,
                -0.0369616,
                -0.26900777,
                -0.26533917,
                -0.20458102,
                -0.18397343,
                -0.29707175,
                -0.2875303,
                0.087157115,
                -0.088321045,
                0.15992796,
                0.274632,
                0.086047456,
                0.05470652,
                -0.032646116,
                0.36752847,
                -0.25149682,
                -0.39285523,
                0.42037898,
                0.1249046,
                0.1499579,
                0.29154724,
                -0.12510134,
                -0.42984602,
                0.07661787,
                -0.0027675317,
                0.025767,
                -0.06821905,
                0.3739838,
                0.13982235,
                0.15985772,
                -0.19837308,
                -0.5547488,
                0.24017712,
                0.2648356,
                -0.37372386,
                0.056141615,
                0.5428653,
                0.051205993,
                0.09366081,
                0.065974765,
                -0.18418083,
                0.08679583,
                0.46669462,
                0.46883819,
                0.003610484,
                -0.28531894,
                0.15599269,
                0.22080612,
                0.21460606,
                -0.044078052,
                -0.013052847,
                -0.4810558,
                -0.55493176,
                -0.052447595,
                0.19762802,
                0.31038982,
                -0.0366323,
                0.34185937,
                0.051874347,
                -0.1477943,
                0.020704988,
                -0.19902891,
                0.26842976,
                -0.23844397,
                0.40194634,
                0.21870351,
                -0.33659798,
                0.24663141,
                -0.5314475,
                -0.15123042,
                -0.30228034,
                -0.07066956,
                0.084275454,
                -0.43693042,
                0.50686955,
                0.40435147,
                -0.3177897,
                0.4713263,
                0.31170946,
                0.30397084,
                -0.040817555,
                0.06544788,
                0.24165891,
                -0.18621294,
                0.67657626,
                -0.22870815,
                0.46316254,
                -0.19478467,
                0.1001445,
                0.1469001,
                -0.018067889,
                0.0230731,
                -0.1770471,
                -0.50700164,
                -0.36707956,
                -0.43760455,
                0.05224191,
                -0.15856043,
                0.16202055,
                0.16216618,
                -0.2095311,
                0.09031885,
                0.090951666,
                -0.006940625,
                0.19525707,
                -0.046067722,
                0.15446165,
                0.63158894,
                0.25541687,
                -0.3050492,
                0.060313117,
                -0.3965897,
                0.5973461,
                -0.124314144,
                -0.1263092,
                0.1341461,
                0.08402908,
                0.13542506,
                0.0686775,
                -0.060729645,
                -0.05029565,
                -0.5197512,
                -0.32224795,
                0.2336478,
                0.3909666,
                -0.041661374,
                0.07308931,
                0.46549806,
                0.046152435,
                -0.052667387,
                0.29993048,
                -0.23168902,
                -0.3753696,
                -0.11526631,
                -0.33878496,
                0.7345747,
                -0.24105027,
                -0.31297213,
                -0.56588334,
                0.010069426,
                -0.12452432,
                -0.5310754,
                -0.09994361,
                -0.03043214,
                -0.16340894,
                -0.28011298,
                0.041209187,
                0.0646337,
                0.24351114,
                -0.18969661,
                -0.15795052,
                -0.21210663,
                -0.28125763,
                -0.014801726,
                -0.3577217,
                0.024562163,
                -0.26119494,
                0.2862354,
                0.13510144,
                -0.062374003,
                -0.27383047,
                -0.780105,
                -0.014009929,
                0.0037911437,
                0.6548527,
                -0.35747436,
                0.3147534,
                0.29413116,
                0.14358014,
                0.3135237,
                0.2737646,
                -0.3019262,
                0.15136942,
                -0.034314662,
                0.07189946,
                0.14791544,
                0.5185987,
                -0.18576422,
                -0.042830147,
                0.13341461,
                0.10187036,
                -0.09940347,
                -0.37998027,
                0.47313845,
                0.24527855,
                -0.32675326,
                0.107594505,
                0.021985076,
                -0.0013070023,
                -0.12153639,
                -0.04145687,
                0.103538945,
                -0.2252816,
                0.41416326,
                0.030985992,
                0.30818456,
                0.04271965,
                -0.08556436,
                -0.20091447,
                -0.28945947,
                0.1487287,
                0.32068747,
                -0.013661249,
                -0.019975763,
                -0.3809783,
                0.2378757,
                -0.0824485,
                0.37313363,
                -0.89222986,
                -0.10119825,
                -0.06109365,
                0.2460071,
                0.23224975,
                -0.12767358,
                -0.47639668,
                -0.07613867,
                -0.3663156,
                0.16743898,
                0.02387983,
                0.10357678,
                -0.30435884,
                0.17566524,
                -0.50814736,
                0.3353783,
                -0.05894125,
                0.24427149,
                0.15506706,
                -0.21359795,
                -0.25922418,
                0.17209706,
                0.23713902,
                0.07856088,
                -0.33547348,
                -0.3217332,
                -0.13502583,
                0.31233835,
                0.33303195,
                -0.11617097,
                -0.09397149,
                -0.4115914,
                -0.48981825,
                -0.7050311,
                -0.01926415,
                -0.03728969,
                0.18342274,
                -0.12781045,
                -0.54423404,
                0.31932032,
                -0.35313404,
                -0.4019365,
                -0.24806766,
                -0.21173857,
                -0.2697993,
                0.09303298,
                0.13701963,
                0.044504642,
                -0.22928175,
                0.013989718,
                0.05180293,
                0.5710813,
                0.043983206,
                -0.10648285,
                -0.15271193,
                -0.83225805,
                -0.1093878,
                0.083505794,
                0.09355396,
                -0.42998302,
                0.01083867,
                0.6495863,
                0.198368,
                -0.20487408,
                0.055103704,
                0.2858068,
                0.011685939,
                -0.017050702,
                0.46978784,
                0.0027311798,
                -0.10351244,
                0.08793052,
                -0.031956814,
                0.08238413,
                0.0051024146,
                -0.104601905,
                0.10732872,
                -0.15663946,
                -0.008525821,
                0.06451501,
                0.17435983,
                0.0027422607,
                0.04917275,
                0.49308816,
                0.19135605,
                0.20558877,
                0.35185212,
                0.4285275,
                0.18217802,
                0.02695904,
                -0.11815102,
                -0.3941416,
                0.59350497,
                0.2061659,
                -0.35414854,
                0.47695336,
                -0.09945963,
                0.33867556,
                -0.5379462,
                0.054761056,
                -0.16864137,
                0.0266918,
                -0.20320888,
                0.46404088,
                0.114130005,
                0.46032423,
                -0.09186177,
                -0.010038801,
                -0.3636294,
                0.070984416,
                -0.32174823,
                0.34232554,
                -0.47558287,
                -0.02557891,
                -0.74043083,
                0.30551296,
                -0.2156694,
                0.16821909,
                -0.40366155,
                -0.37398827,
                0.27335158,
                -0.37826025,
                0.12245907,
                0.08101108,
                0.33453143,
                -0.27815378,
                0.06822325,
                0.18904632,
                -0.39485425,
                0.69638264,
                0.16582671,
                0.23609863,
                -0.15374118,
                -0.033295427,
                -0.53519773,
                0.3578989,
                0.04655905,
                -0.22327414,
                -0.22786877,
                -0.12567532,
                0.14612444,
                0.14115243,
                -0.21589297,
                -0.19104598,
                -0.094224945,
                0.24100602,
                0.120792724,
                0.43675327,
                -0.004262356,
                0.18279472,
                -0.1601873,
                0.000040306593,
                0.33940974,
                0.2954847,
                0.028672047,
                0.05338228,
                -0.1691205,
                0.046207808,
                -0.0058102915,
                -0.041985393
              ]
            },
            "biases": {
              "v": 1,
              "dim": [
                16
              ],
              "data": [
                0.2464198,
                -0.044852726,
                -0.4145922,
                0.050330188,
                0.33835602,
                0.14060643,
                -0.25223416,
                0.0028051375,
                0.2956962,
                -0.005559122,
                0.20543714,
                -0.11668595,
                -0.040020082,
                -0.28529316,
                0.06375477,
                0.84164566
              ]
            }
          },
          {
            "weights": {
              "v": 1,
              "dim": [
                11,
                16
              ],
              "data": [
                -0.04713645,
                0.5388192,
                -0.42119473,
                -0.19646318,
                0.06064123,
                0.13271526,
                -0.22430873,
                0.049384788,
                -0.25747818,
                0.016921705,
                -0.353636,
                0.40410084,
                -0.2094709,
                0.0993159,
                0.34346217,
                0.0472926,
                -0.16677654,
                0.055582162,
                -0.5120517,
                0.107034475,
                0.16494668,
                -0.12757243,
                0.29031825,
                0.041721847,
                -0.42383745,
                0.27868038,
                0.19917056,
                0.30586326,
                -0.14081562,
                0.3721125,
                -0.12533022,
                0.049488258,
                0.2399061,
                0.1576076,
                0.048114225,
                0.30361828,
                0.029369803,
                -0.14665975,
                -0.1698916,
                -0.24469462,
                -0.18853153,
                0.49098825,
                -0.36671317,
                -0.36039862,
                0.20548466,
                -0.50155044,
                -0.45695058,
                -0.1594025,
                -0.2502213,
                0.09864657,
                0.46003407,
                -0.053604126,
                0.018556241,
                0.014382752,
                -0.1423896,
                -0.12704474,
                -0.24145554,
                0.057983447,
                0.030598532,
                -0.13158488,
                -0.40214616,
                -0.048584357,
                -0.121395774,
                -0.1911755,
                -0.09803894,
                0.34614486,
                0.11218217,
                0.21746296,
                -0.02720018,
                0.2538781,
                0.12200474,
                0.40016615,
                -0.00035006227,
                0.22893289,
                -0.121007815,
                -0.28710634,
                0.06722288,
                -0.0859068,
                -0.088118464,
                0.34832305,
                0.12037131,
                -0.057450954,
                -0.17489478,
                0.03218733,
                0.039350532,
                -0.036608133,
                0.17052439,
                -0.045346126,
                -0.10171141,
                -0.3838516,
                -0.31424117,
                0.31308258,
                0.3321963,
                -0.5137317,
                -0.12159941,
                -0.22824968,
                0.15454671,
                0.30300838,
                -0.05698645,
                0.1294536,
                -0.6491359,
                -0.005960419,
                -0.24484655,
                -0.10428557,
                -0.1166136,
                -0.029084258,
                0.36748338,
                0.6807963,
                -0.05043026,
                -0.052262437,
                -0.38174126,
                -0.23142731,
                -0.07410466,
                -0.20784152,
                -0.17876142,
                -0.07669949,
                -0.37709463,
                -0.0772656,
                0.028391268,
                -0.17369163,
                0.06841906,
                -0.14237733,
                -0.18321148,
                0.11582473,
                -0.071449175,
                0.38732845,
                -0.07601824,
                0.045438796,
                -0.28275096,
                0.18931293,
                0.3804116,
                0.06474916,
                0.045856453,
                0.33954513,
                0.41364872,
                -0.34204355,
                -0.08069591,
                -0.17859486,
                0.16387865,
                0.22614719,
                0.373556,
                0.17455196,
                0.1322983,
                0.508215,
                -0.096628524,
                -0.14517549,
                0.28321624,
                -0.0030623274,
                0.3429491,
                0.06339062,
                0.024058795,
                0.213233,
                -0.5171513,
                0.26268622,
                0.15261778,
                0.18172556,
                -0.13826619,
                0.040345535,
                0.037005387,
                -0.6747465,
                0.33465603,
                0.06767162,
                -0.0070267664,
                0.1396156,
                0.36400932,
                0.21725248,
                0.35621494,
                0.04198399,
                0.21383171,
                0.021536734,
                -0.42380866,
                -0.18208487,
                0.20677084,
                0.36457783,
                0.24639705,
                -0.16135216
              ]
            },
            "biases": {
              "v": 1,
              "dim": [
                11
              ],
              "data": [
                0.026503403,
                0.3734847,
                0.22752878,
                -0.18081227,
                0.07105445,
                0.030462112,
                -0.06838253,
                0.11314909,
                -0.4962869,
                -0.83731323,
                -0.500039
              ]
            }
          }
        ]
      },
      "attack_cooldown": 0.05000001
    },
    {
      "id": 20276,
      "age": 15.600041,
      "score": 6,
      "pos": {
        "v": 1,
        "dim": [
          2
        ],
        "data": [
          785.04834,
          473.35834
        ]
      },
      "rot": 1.972697,
      "energy": 0.7737077,
      "signal": {
        "v": 1,
        "dim": [
          4
        ],
        "data": [
          0.36552426,
          0.43413997,
          0.6205782,
          0.50812185
        ]
      },
      "memory": {
        "v": 1,
        "dim": [
          4
        ],
        "data": [
          0.5104431,
          0.07442383,
          0.0855114,
          -0.39492393
        ]
      },
      "brain": {
        "layers": [
          {
            "weights": {
              "v": 1,
              "dim": [
                32,
                24
              ],
              "data": [
                0.17383185,
                -0.049245525,
                0.087521546,
                -0.3548016,
                -0.5771673,
                -0.06395007,
                -0.10142703,
                0.064981766,
                0.39799818,
                -0.17311303,
                0.22580634,
                0.19673951,
                -0.046499323,
                0.44155452,
                0.253035,
                -0.20307234,
                0.26199472,
                -0.084513396,
                -0.47353035,
                -0.18309967,
                -0.32344258,
                -0.5154588,
                -0.1883369,
                -0.14507484,
                -0.50500184,
                0.3485407,
                0.034160554,
                -0.36459813,
                0.32082012,
                -0.36223948,
                -0.442393,
                -0.3173742,
                -0.1792712,
                -0.04366215,
                0.6913117,
                0.008601736,
                0.6697206,
                -0.15388538,
                -0.022541163,
                0.088315636,
                -0.10973939,
                -0.41398478,
                0.019588012,
                -0.11720792,
                -0.13148439,
                0.026114715,
                -0.13370849,
                -0.057387434,
                -0.32291344,
                0.091327876,
                -0.12774688,
                -0.086693525,
                -0.044265885,
                0.0137280645,
                -0.022996156,
                0.46761826,
                -0.018742198,
                0.06861729,
                -0.22079895,
                0.5010993,
                -0.22159624,
                0.5040668,
                -0.16983671,
                -0.01730023,
                -0.232244,
                -0.13700865,
                -0.30635712,
                -0.49457085,
                0.06071374,
                -0.18167894,
                0.15272091,
                0.35039493,
                0.014203686,
                0.38675496,
                0.25733873,
                -0.6103768,
                -0.1291571,
                0.13821043,
                0.34012902,
                0.3518082,
                -0.16130649,
                0.30541596,
                -0.027641363,
                0.037552945,
                -0.098824754,
                -0.30002874,
                0.28889057,
                -0.2393451,
                -0.34653118,
                0.025832493,
                -0.02965615,
                0.18723261,
                -0.1724625,
                0.17933048,
                0.36213586,
                0.3143521,
                0.035833444,
                -0.42258975,
                -0.022322001,
                -0.049065944,
                0.27780214,
                -0.08751062,
                0.27910382,
                0.5863154,
                0.16892405,
                0.097303145,
                0.21554452,
                0.14674558,
                0.0032960158,
                0.29638785,
                0.39967898,
                -0.03993102,
                0.08741343,
                -0.12130158,
                -0.039516624,
                0.14866841,
                0.19979021,
                0.40384182,
                -0.38139504,
                -0.30796123,
                0.1793468,
                -0.5318669,
                0.20373109,
                0.25525,
                0.10237399,
                0.059580952,
                -0.22580473,
                -0.403548,
                -0.20215163,
                -0.25900316,
                -0.25718012,
                -0.08010872,
                0.017743284,
                0.114360824,
                -0.016106749,
                -0.38941568,
                -0.20291087,
                -0.13845563,
                0.112635,
                -0.064593524,
                -0.45977205,
                -0.30121887,
                -0.5803814,
                0.031431224,
                0.23316394,
                0.17624213,
                0.24947818,
                0.10939747,
                0.12031353,
                -0.0068824016,
                -0.35592833,
                -0.24950875,
                -0.059832767,
                -0.6835485,
                -0.35479882,
                0.14671516,
                -0.0920031,
                -0.14615853,
                -0.022550674,
                0.1099811,
                0.34321812,
                0.37148538,
                -0.23443039,
                -0.43967813,
                0.49893013,
                -0.14369011,
                0.20229302,
                0.1427871,
                -0.12901072,
                -0.087663904,
                0.31410196,
                -0.1303353,
                0.079015076,
                -0.06366294,
                0.3304424,
                0.5931158,
                -0.10922078,
                -0.12810582,
                -0.044356607,
                -0.0031580206,
                -0.13019063,
                -0.14157078,
                0.10077377,
                -0.27992085,
                -0.17693445,
                0.23386312,
                0.06990554,
                -0.11170537,
                0.35852826,
                0.5530889,
                0.015455889,
                -0.1381925,
                -0.04619543,
                0.16700444,
                0.070069276,
                -0.34276143,
                -0.593692,
                -0.03351093,
                -0.43001744,
                0.13794638,
                0.058887884,
                0.15531458,
                -0.15777755,
                -0.114554696,
                0.36178988,
                0.15824507,
                0.05165009,
                -0.14993009,
                0.11604333,
                0.19216703,
                -0.5781882,
                -0.045038886,
                -0.21238561,
                -0.29863927,
                -0.133343,
                0.0190806,
                -0.23815908,
                -0.1482843,
                -0.13351683,
                0.072205216,
                -0.11349837,
                0.2808607,
                0.18618909,
                -0.41481823,
                -0.29317456,
                -0.021796808,
                -0.34700733,
                0.15948842,
                0.31636676,
                0.3384537,
                -0.122711346,
                -0.16706266,
                0.16178285,
                -0.054607976,
                0.16031463,
                -0.18905227,
                -0.29637793,
                -0.54058164,
                -0.07985548,
                0.19910178,
                0.0000178162,
                0.40361133,
                -0.34057358,
                -0.28710997,
                0.07198747,
                0.08437106,
                -0.27853847,
                -0.026219254,
                0.34690896,
                0.025086561,
                0.0074356054,
                -0.33590278,
                0.017621495,
                -0.060552232,
                0.060531665,
                0.17159846,
                0.35784924,
                -0.42717656,
                -0.2819125,
                -0.026244072,
                -0.10670409,
                0.1448821,
                0.03714361,
                0.039785873,
                0.24646613,
                0.3345018,
                0.17511618,
                0.23082675,
                -0.30430272,
                -0.372551,
                -0.45886257,
                0.01954778,
                0.12667064,
                0.10012663,
                0.08669833,
                0.18691337,
                0.19695576,
                0.16210991,
                0.09882774,
                0.29735953,
                -0.13916421,
                -0.29339695,
                -0.036903944,
                0.04783134,
                -0.18761553,
                0.18663445,
                0.31866127,
                -0.11297365,
                -0.3002586,
                0.7869127,
                0.7169571,
                -0.030963337,
                -0.081531145,
                -0.118274726,
                0.2701667,
                0.3336904,
                -0.26128668,
                0.16958167,
                -0.2204999,
                -0.04317313,
                -0.2331475,
                -0.079940744,
                -0.06996917,
                -0.05910261,
                0.2751134,
                0.06305301,
                0.0045971926,
                -0.29944777,
                0.36582285,
                0.26004836,
                0.14670996,
                -0.17032893,
                -0.26640356,
                0.29808608,
                0.2538114,
                0.52275443,
                -0.070011266,
                0.092598096,
