{
  "organisms": [
    {
      "id": 3958,
      "age": 33.999767,
      "score": 18,
      "pos": {
        "v": 1,
        "dim": [
          2
        ],
        "data": [
          637.81696,
          334.772
        ]
      },
      "rot": -7.4301867,
      "energy": 0.93517643,
      "signal": {
        "v": 1,
        "dim": [
          3
        ],
        "data": [
          0.49217805,
          0.51882154,
          0.4786659
        ]
      },
      "memory": {
        "v": 1,
        "dim": [
          3
        ],
        "data": [
          0.016658198,
          -0.017607024,
          -0.12432585
        ]
      },
      "brain": {
        "layers": [
          {
            "weights": {
              "v": 1,
              "dim": [
                10,
                16
              ],
              "data": [
                -0.0713746,
                0.054520123,
                -0.025004752,
                -0.02436342,
                -0.056421667,
                -0.026276454,
                -0.09648514,
                -0.025219511,
                -0.11282271,
                -0.034880865,
                -0.16994858,
                0.25484642,
                -0.0046563447,
                -0.20960233,
                0.0268435,
                -0.09520791,
                -0.14536202,
                0.027596742,
                -0.042059455,
                0.027873244,
                -0.27916795,
                0.12842283,
                0.03611072,
                -0.01689943,
                0.16859466,
                0.028970964,
                0.11077946,
                0.012644343,
                -0.04606077,
                0.001352109,
                -0.10800392,
                -0.14050807,
                0.112708256,
                0.057064343,
                0.031919792,
                -0.23831224,
                0.016213454,
                0.004838437,
                -0.03510138,
                0.09904881,
                -0.0054029226,
                0.03808211,
                0.24352983,
                -0.009779647,
                -0.055723988,
                -0.021057375,
                -0.19014093,
                0.24859303,
                -0.17815122,
                0.025962362,
                -0.051991515,
                -0.13224822,
                -0.13130197,
                -0.0046132356,
                -0.045959614,
                -0.080856815,
                -0.16473725,
                0.22128618,
                -0.026665263,
                -0.080314085,
                0.08859077,
                0.21454805,
                -0.15543067,
                -0.07738432,
                0.04443216,
                0.12712318,
                -0.22942394,
                0.023974963,
                -0.08002892,
                0.048274774,
                0.14555204,
                0.12867442,
                0.050172105,
                -0.020531185,
                0.09611686,
                -0.016231462,
                0.0066591064,
                -0.013293289,
                0.2249141,
                0.053985223,
                0.21300122,
                0.0655487,
                0.048111916,
                0.20399389,
                0.0064957663,
                0.114039026,
                -0.047996197,
                0.1307274,
                0.08067872,
                0.14004973,
                -0.046196423,
                -0.076103024,
                -0.038589932,
                0.112889156,
                0.03924904,
                -0.06379643,
                0.03263931,
                0.08507769,
                0.115922876,
                0.013064355,
                -0.18391244,
                -0.16914357,
                0.07043078,
                0.13755032,
                -0.0005902536,
                -0.04776463,
                0.033872124,
                0.044920444,
                0.068997756,
                -0.06372648,
                0.0038165376,
                0.15453348,
                0.061067343,
                -0.02538634,
                -0.14807388,
                0.027992103,
                0.022086322,
                -0.018200718,
                -0.12942502,
                -0.03466498,
                -0.07717464,
                -0.06624041,
                0.024481632,
                0.11967599,
                0.006481938,
                -0.015869625,
                0.0067785643,
                0.044845685,
                0.12544137,
                0.06798117,
                0.09190753,
                -0.15323952,
                0.1981118,
                -0.044255376,
                0.1283132,
                0.117996044,
                -0.21024542,
                -0.10763456,
                -0.11277819,
                -0.021572154,
                -0.01120694,
                -0.12471547,
                0.10287691,
                0.08306034,
                -0.011156529,
                0.04189341,
                0.06893871,
                -0.05452939,
                -0.16510932,
                -0.029031403,
                -0.00974546,
                0.10296389,
                0.027152643,
                0.005946383,
                0.17045239,
                0.021272015,
                0.06346456,
                -0.1279733,
                -0.03393141,
                0.06023886
              ]
            },
            "biases": {
              "v": 1,
              "dim": [
                10
              ],
              "data": [
                -0.051648263,
                -0.068815015,
                0.013512939,
                0.13422076,
                0.05518832,
                -0.033710025,
                -0.11331719,
                0.103464186,
                -0.1714247,
                -0.17264491
              ]
            }
          },
          {
            "weights": {
              "v": 1,
              "dim": [
                8,
                10
              ],
              "data": [
                0.049793355,
                0.018294169,
                -0.032842856,
                -0.13418686,
                -0.0052059675,
                -0.024928968,
                -0.030665703,
                -0.1404475,
                -0.0746894,
                -0.014007308,
                -0.15013072,
                0.11915234,
                0.20932853,
                0.031118978,
                0.0066883266,
                0.12239751,
                0.16664515,
                -0.019799456,
                0.05970665,
                0.11185601,
                0.13039073,
                0.15421349,
                0.025661288,
                -0.17015967,
                -0.12239671,
                -0.006111428,
                -0.13508844,
                0.030490376,
                -0.05674701,
                0.050763078,
                0.011005234,
                0.027473575,
                0.25380653,
                -0.08044845,
                0.03677329,
                -0.049738385,
                -0.043678924,
                0.01834128,
                0.078238405,
                -0.028404444,
                0.040857248,
                0.24225241,
                -0.13632356,
                -0.04983858,
                0.09948774,
                0.05034016,
                0.06373219,
                0.064475276,
                -0.051927786,
                -0.06468448,
                -0.026606925,
                0.021195084,
                -0.065704845,
                0.107905835,
                -0.035006173,
                0.05216866,
                0.13463125,
                0.062228933,
                0.022269145,
                0.03186083,
                0.19464722,
                -0.011292525,
                0.19550371,
                -0.0058562234,
                -0.03419838,
                -0.19744217,
                0.16224033,
                0.11503669,
                -0.053800337,
                0.0046674367,
                0.06963271,
                0.13323417,
                0.1791437,
                0.043763477,
                -0.006262988,
                -0.0073994175,
                0.07188405,
                -0.058149245,
                -0.13711369,
                0.08901936
              ]
            },
            "biases": {
              "v": 1,
              "dim": [
                8
              ],
              "data": [
                0.008084826,
                0.046547078,
                -0.023536839,
                -0.041145034,
                0.046334527,
                -0.115635216,
                -0.11453281,
                0.14046139
              ]
            }
          }
        ]
      }
    },
    {
      "id": 4089,
      "age": 27.449867,
      "score": 14,
      "pos": {
        "v": 1,
        "dim": [
          2
        ],
        "data": [
          518.9161,
          677.8308
        ]
      },
      "rot": -32.2867,
      "energy": 0.62931085,
      "signal": {
        "v": 1,
        "dim": [
          3
        ],
        "data": [
          0.48487493,
          0.4887997,
          0.5052702
        ]
      },
      "memory": {
        "v": 1,
        "dim": [
          3
        ],
        "data": [
          -0.08213365,
          -0.13056578,
          0.0050040362
        ]
      },
      "brain": {
        "layers": [
          {
            "weights": {
              "v": 1,
              "dim": [
                10,
                16
              ],
              "data": [
                0.030038312,
                -0.06626241,
                -0.17290312,
                0.10708483,
                0.02651669,
                -0.06936081,
                0.06341079,
                0.049053445,
                0.17763117,
                0.013787217,
                0.2581374,
                -0.16693047,
                0.03433512,
                -0.05582855,
                0.045270965,
                -0.16791648,
                -0.19195051,
                -0.05539988,
                0.017785087,
                0.086532556,
                -0.14501052,
                -0.1977778,
                0.290205,
                0.11620344,
                -0.050015517,
                -0.16098937,
                0.24515696,
                0.26149094,
                -0.019279383,
                0.06739882,
                -0.032182053,
                -0.12244354,
                -0.064234346,
                0.023866974,
                0.051748775,
                0.10034887,
                -0.007765509,
                0.056312278,
                0.002101615,
                -0.2192106,
                -0.06540057,
                -0.05521056,
                0.14073841,
                -0.025149658,
                -0.0771478,
                -0.23138502,
                -0.1881125,
                0.12048203,
                0.06729882,
                0.0227082,
                0.027874053,
                0.009233303,
                -0.15970273,
                -0.12577748,
                0.13337581,
                0.040914632,
                -0.12048164,
                -0.012621276,
                0.015067272,
                -0.08067932,
                0.056260273,
                0.18726063,
                0.05623003,
                -0.097833835,
                0.08702727,
                -0.052487053,
                -0.05629874,
                -0.29885656,
                -0.15596442,
                -0.06565746,
                -0.003566876,
                0.0042783096,
                -0.031975076,
                -0.17763412,
                0.05109138,
                -0.023581292,
                -0.05940312,
                -0.0083848685,
                0.16912644,
                -0.104196005,
                0.119509876,
                0.09568319,
                0.10420627,
                0.09458021,
                0.03418477,
                0.20130843,
                -0.0762392,
                -0.11708707,
                -0.12059529,
                0.23064986,
                -0.039212078,
                -0.23602499,
                0.0058079883,
                0.07669503,
                -0.023861025,
                -0.0040589273,
                0.024880204,
                -0.04860305,
                0.19237746,
                0.054786365,
                0.0083383545,
                -0.17601272,
                0.14745106,
                0.025264017,
                0.21972793,
                -0.1417084,
                -0.03173238,
                0.0068269297,
                0.026206896,
                -0.16637263,
                -0.13517497,
                0.17421104,
                -0.21749054,
                0.048719235,
                -0.0067073256,
                0.057590634,
                0.030385587,
                -0.12015492,
                -0.018459693,
                -0.06475896,
                -0.18790929,
                -0.11123623,
                -0.005414363,
                0.07122843,
                -0.0281129,
                -0.016751364,
                0.31668395,
                0.029911809,
                0.050106324,
                0.10409853,
                0.024607204,
                -0.29716182,
                -0.15341568,
                -0.055242807,
                0.049248606,
                0.21181062,
                0.1588853,
                -0.065040536,
                0.08044323,
                0.013950154,
                -0.2738313,
                0.156024,
                -0.062058695,
                -0.012087062,
                0.029211573,
                0.015834913,
                -0.22270662,
                -0.1826961,
                -0.14856923,
                -0.12717727,
                0.027160473,
                -0.012095772,
                0.054675497,
                0.1244308,
                -0.02116108,
                0.048741244,
                0.07309179,
                -0.041446675,
                -0.16816072,
                0.10365041
              ]
            },
            "biases": {
              "v": 1,
              "dim": [
                10
              ],
              "data": [
                -0.06702677,
                0.05624365,
                -0.08778484,
                -0.03847289,
                0.037649825,
                0.014627259,
                -0.16244462,
                0.019085497,
                0.096203834,
                -0.03633356
              ]
            }
          },
          {
            "weights": {
              "v": 1,
              "dim": [
                8,
                10
              ],
              "data": [
                0.11903599,
                -0.12313543,
                -0.035512663,
                -0.046167463,
                -0.09855626,
                0.10289388,
                0.16963507,
                0.10748347,
                -0.03563249,
                0.17682897,
                0.025330696,
                0.24575059,
                -0.05875524,
                0.16837564,
                -0.17191654,
                0.042169638,
                -0.14682524,
                0.06962547,
                -0.15227565,
                0.15619247,
                0.03585615,
                0.07231671,
                0.050928935,
                0.1046087,
                0.14376937,
                -0.09322297,
                -0.19163857,
                -0.099363066,
                -0.22419378,
                0.24180588,
                0.0226071,
                -0.18377937,
                0.08584432,
                0.1609821,
                0.0822667,
                -0.010220502,
                0.03646456,
                0.19089198,
                -0.05003774,
                -0.051660568,
                0.067395575,
                0.01679482,
                -0.050121505,
                0.1029023,
                0.050969183,
                -0.029515862,
                -0.16028744,
                0.22208121,
                0.018265769,
                0.053742424,
                -0.058758244,
                -0.023512676,
                -0.1750404,
                0.047166914,
                -0.089806825,
                -0.03174915,
                0.22939023,
                0.19521913,
                -0.02498281,
                -0.15434438,
                0.027663425,
                -0.01383885,
                -0.19584315,
                0.13811994,
                0.23864828,
                -0.24856383,
                -0.040519737,
                0.124621816,
                -0.069906786,
                0.057795357,
                -0.08321951,
                0.23822999,
                0.10353899,
                -0.12433087,
                0.045941614,
                -0.11166679,
                -0.047851898,
                0.0747774,
                -0.15332115,
                -0.07552616
              ]
            },
            "biases": {
              "v": 1,
              "dim": [
                8
              ],
              "data": [
                -0.052269187,
                -0.012945935,
                0.055971045,
                -0.06464037,
                -0.12237654,
                0.008532889,
                -0.063478,
                0.17077222
              ]
            }
          }
        ]
      }
    },
    {
      "id": 4180,
      "age": 22.899937,
      "score": 10,
      "pos": {
        "v": 1,
        "dim": [
          2
        ],
        "data": [
          232.11342,
          225.64783
        ]
      },
      "rot": -24.825077,
      "energy": 0.77172846,
      "signal": {
        "v": 1,
        "dim": [
          3
        ],
        "data": [
          0.46379867,
          0.4663679,
          0.5408282
        ]
      },
      "memory": {
        "v": 1,
        "dim": [
          3
        ],
        "data": [
          0.02242651,
          -0.06810221,
          -0.045464244
        ]
      },
      "brain": {
        "layers": [
          {
            "weights": {
              "v": 1,
              "dim": [
                10,
                16
              ],
              "data": [
                -0.042692363,
                0.17485213,
                -0.016907593,
                -0.0844423,
                0.13291433,
                -0.039205994,
                0.19115272,
                -0.16452157,
                -0.032003894,
                0.024576208,
                0.11282771,
                -0.11385997,
                0.012334369,
                -0.1439951,
                0.06248695,
                -0.24376313,
                0.089341,
                0.045540575,
                0.25621325,
                -0.21945041,
                0.16342527,
                0.049671162,
                0.054015644,
                -0.17275825,
                0.15816712,
                0.038367935,
                0.053538714,
                0.067437254,
                -0.00895413,
                -0.09675865,
                0.02217466,
                0.056143187,
                0.14254165,
                -0.01908507,
                -0.050636508,
                0.06784245,
                -0.06478736,
                0.13473707,
                -0.0025524385,
                0.16027492,
                -0.04681275,
                0.009170389,
                -0.0024700835,
                -0.17440067,
                -0.06877556,
                0.04228097,
                0.013044398,
                -0.061650913,
                0.016660504,
                0.014281832,
                0.056080773,
                -0.1496656,
                0.038916845,
                -0.032448553,
                0.13635302,
                -0.05229368,
                -0.17982042,
                0.059282493,
                0.17273854,
                -0.042838678,
                0.08006886,
                -0.15052688,
                0.11063137,
                0.10481375,
                0.0026391633,
                0.083217025,
                -0.048816465,
                0.07121282,
                -0.08506066,
                -0.15251258,
                -0.03491985,
                0.26962215,
                -0.092019685,
                -0.18895784,
                0.084695734,
                -0.0468617,
                -0.09721583,
                0.11195947,
                0.18178643,
                0.10779577,
                0.16312447,
                0.047069423,
                0.1140604,
                0.06328873,
                0.094472066,
                0.11825685,
                0.021251539,
                -0.041776635,
                0.15110388,
                0.07881945,
                -0.15024863,
                -0.13215807,
                0.33328786,
                0.03958574,
                -0.14437565,
                -0.21295175,
                -0.08486361,
                -0.059392035,
                0.004019089,
                -0.021643918,
                0.060157232,
                0.00616673,
                -0.03957585,
                0.14033252,
                0.121802226,
                -0.073818676,
                0.128183,
                0.24927211,
                0.089978635,
                -0.12645733,
                -0.047211736,
                -0.11767598,
                -0.04628051,
                -0.09620992,
                -0.04318618,
                -0.18922563,
                -0.014821414,
                -0.32942647,
                0.107893586,
                0.1485884,
                -0.073989294,
                -0.27918452,
                -0.072705075,
                0.08518365,
                -0.16884832,
                -0.21718335,
                -0.048520364,
                0.011683196,
                -0.009081541,
                0.035665624,
                -0.27286866,
                -0.0013010763,
                0.05944068,
                0.25710034,
                0.073051065,
                0.0040002987,
                0.00077316165,
                -0.066341884,
                -0.30816376,
                -0.0053082816,
                -0.04830676,
                -0.020660393,
                -0.017400764,
                0.03574194,
                -0.14768359,
                0.015248254,
                0.07233563,
                0.11301416,
                -0.098981164,
                0.19753087,
                0.020495249,
                0.11479807,
                0.08328673,
                0.17291415,
                0.16826731,
                -0.0057495534,
                0.09421931,
                -0.06714781,
                -0.19202134,
                0.118526764
              ]
            },
            "biases": {
              "v": 1,
              "dim": [
                10
              ],
              "data": [
                -0.047289796,
                -0.008570015,
                -0.21846181,
                -0.06370404,
                0.036517248,
                -0.064715624,
                0.14890829,
                0.08252003,
                0.047301978,
                0.1874915
              ]
            }
          },
          {
            "weights": {
              "v": 1,
              "dim": [
                8,
                10
              ],
              "data": [
                -0.15091334,
                0.041515052,
                -0.096709855,
                -0.13485399,
                0.018939607,
                0.22938684,
                0.07218277,
                -0.06879477,
                0.06450884,
                -0.042621523,
                -0.05258932,
                -0.086812235,
                0.07920985,
                0.1025375,
                -0.07591304,
                0.035751805,
                -0.012568377,
                0.040786497,
                -0.09279712,
                -0.030148283,
                0.1420877,
                -0.27386755,
                0.09222379,
                0.015753105,
                0.13151833,
                -0.05570557,
                -0.27398607,
                0.011914462,
                0.038433157,
                0.013111997,
                -0.025793187,
                -0.1876852,
                0.12644511,
                0.0047918744,
                0.1538519,
                0.020375177,
                -0.030066602,
                -0.1619814,
                0.13827476,
                0.029884942,
                0.038500905,
                0.067099705,
                -0.19148941,
                0.048288703,
                -0.0049947724,
                -0.24651809,
                -0.005319603,
                -0.18216181,
                -0.10548183,
                0.15421516,
                0.14910424,
                -0.27583736,
                0.090091586,
                0.066961244,
                -0.18647425,
                0.26223654,
                -0.009158105,
                0.19724175,
                0.05278558,
                -0.11500489,
                0.10950405,
                0.07359098,
                -0.14870203,
                0.16381282,
                0.078733675,
                0.10222554,
                -0.018453466,
                0.16871691,
                -0.08018153,
                0.065923706,
                -0.07133641,
                -0.04803361,
                0.08878049,
                -0.06671632,
                0.062548906,
                -0.011362497,
                -0.064210474,
                0.11399006,
                -0.11806359,
                0.108298704
              ]
            },
            "biases": {
              "v": 1,
              "dim": [
                8
              ],
              "data": [
                -0.14727983,
                -0.09773009,
                0.21824464,
                0.04627195,
                -0.18328013,
                0.105484955,
                -0.101381004,
                0.3236124
              ]
            }
          }
        ]
      }
    },
    {
      "id": 3959,
      "age": 33.949768,
      "score": 10,
      "pos": {
        "v": 1,
        "dim": [
          2
        ],
        "data": [
          640.37634,
          397.6827
        ]
      },
      "rot": -21.191912,
      "energy": 0.8656036,
      "signal": {
        "v": 1,
        "dim": [
          3
        ],
        "data": [
          0.50587094,
          0.53161204,
          0.50555116
        ]
      },
      "memory": {
        "v": 1,
        "dim": [
          3
        ],
        "data": [
          0.061237905,
          -0.010622247,
          -0.08370309
        ]
      },
      "brain": {
        "layers": [
          {
            "weights": {
              "v": 1,
              "dim": [
                10,
                16
              ],
              "data": [
                -0.026206493,
                0.005853452,
                -0.07131968,
                0.005137302,
                -0.049126625,
                0.006429649,
                0.009191275,
                0.10268311,
                0.06360612,
                -0.1018642,
                0.14642707,
                -0.14569771,
                -0.08054358,
                -0.085797496,
                0.009590685,
                -0.12639259,
                -0.20585094,
                -0.085977644,
                0.100302756,
                0.029275693,
                -0.1409029,
                -0.093410894,
                0.16337445,
                0.09717281,
                0.007951349,
                -0.033977497,
                0.14196026,
                0.14855033,
                0.07074196,
                -0.05349697,
                -0.0089697335,
                -0.05832263,
                0.016962294,
                -0.10239097,
                0.08732489,
                0.17543013,
                0.056646377,
                0.13205779,
                -0.12739593,
                -0.12695986,
                -0.058484394,
                0.05825758,
                0.12553048,
                -0.10183178,
                -0.12113884,
                -0.11069094,
                -0.15559831,
                0.025057286,
                -0.03855581,
                0.05993761,
                0.15278368,
                0.07521217,
                -0.14674625,
                -0.07112368,
                0.055917412,
                0.15776414,
                -0.03672558,
                -0.10859553,
                0.062354445,
                0.040932313,
                0.050833926,
                0.080693334,
                -0.008108325,
                0.014397277,
                0.027623225,
                0.016249923,
                -0.09430728,
                -0.20083918,
                -0.2232776,
                -0.05887217,
                0.05326403,
                0.09333951,
                0.011195354,
                -0.14197174,
                -0.0010696873,
                -0.015471544,
                -0.16670975,
                0.06784377,
                0.056611862,
                -0.04138983,
                0.020300414,
                -0.012495145,
                0.06520236,
                0.17533422,
                -0.065921396,
                0.118562095,
                -0.06345834,
                -0.017526671,
                -0.021455117,
                0.12930068,
                -0.15486269,
                -0.19170548,
                0.12556002,
                0.0038889572,
                -0.014562916,
                0.028039977,
                0.0081251,
                -0.06829811,
                0.07769421,
                -0.054863725,
                -0.09868293,
                -0.089879245,
                0.12625065,
                -0.017291032,
                0.098203376,
                -0.039694678,
                0.0946555,
                0.096216656,
                -0.070421904,
                -0.07212278,
                -0.19818263,
                0.08555341,
                -0.12468237,
                -0.06509521,
                -0.12686047,
                0.063670196,
                -0.05872121,
                -0.10869174,
                -0.091431364,
                0.020322312,
                -0.13058428,
                -0.13311252,
                -0.010396522,
                0.047756236,
                -0.045489576,
                -0.060826644,
                0.22530201,
                0.0213928,
                0.094312035,
                0.14598373,
                0.05532664,
                -0.21728772,
                -0.032978952,
                0.023538845,
                0.14800867,
                0.111798145,
                0.060090404,
                -0.01810059,
                -0.042173427,
                -0.00029706955,
                -0.15804057,
                0.1551124,
                -0.049394146,
                -0.013698474,
                0.010951437,
                0.0034917742,
                -0.10187724,
                -0.081315935,
                -0.10796589,
                0.00085189193,
                0.14620563,
                0.019961089,
                0.04794269,
                0.09022889,
                0.083736256,
                0.04983785,
                0.14872836,
                0.05619202,
                -0.11416711,
                0.015857764
              ]
            },
            "biases": {
              "v": 1,
              "dim": [
                10
              ],
              "data": [
                0.044127762,
                -0.028524837,
                -0.1267311,
                0.030871525,
                0.12622067,
                0.0066022538,
                -0.21323822,
                0.073191024,
                0.06725234,
                -0.11107001
              ]
            }
          },
          {
            "weights": {
              "v": 1,
              "dim": [
                8,
                10
              ],
              "data": [
                0.0825298,
                -0.09134085,
                -0.060215436,
                -0.16654669,
                0.016478747,
                0.12954366,
                0.04668641,
                0.06737057,
                0.075136244,
                0.12138796,
                0.016584877,
                0.14076719,
                0.023423277,
                0.11377024,
                -0.06596984,
                0.076278575,
                -0.022478253,
                0.14392754,
                -0.056556486,
                0.14201894,
                0.012752615,
                -0.0077307597,
                0.02439785,
                0.029228225,
                0.10552576,
                -0.012744211,
                -0.1761932,
                -0.017184794,
                -0.14705983,
                0.1456943,
                0.051658932,
                -0.07076031,
                0.050637107,
                0.08728769,
                0.06824581,
                -0.0056801923,
                0.04101168,
                0.08088993,
                0.011617154,
                -0.04089438,
                0.05764962,
                -0.002707433,
                -0.022370476,
                0.09496998,
                0.00018994696,
                -0.11916119,
                -0.054441113,
                0.1228796,
                -0.01439482,
                0.055045336,
                -0.033352405,
                0.03645753,
                -0.092552796,
                0.008742601,
                -0.09683123,
                -0.010792881,
                0.2506762,
                0.09823539,
                0.020101003,
                -0.026691481,
                0.04797127,
                0.06761998,
                -0.100580096,
                0.07678434,
                0.21790615,
                -0.21566507,
                0.0028360132,
                0.069948144,
                -0.030490171,
                -0.046046454,
                -0.20550314,
                0.19489944,
                0.03329082,
                -0.088793516,
                0.14728744,
                -0.06466985,
                -0.012691282,
                0.13877696,
                -0.0658095,
                -0.04505737
              ]
            },
            "biases": {
              "v": 1,
              "dim": [
                8
              ],
              "data": [
                0.038129847,
                0.10762961,
                0.023982871,
                0.04075935,
                -0.065250784,
                -0.06747452,
                -0.093891285,
                0.18242678
              ]
            }
          }
        ]
      }
    },
    {
      "id": 3223,
      "age": 70.74972,
      "score": 8,
      "pos": {
        "v": 1,
        "dim": [
          2
        ],
        "data": [
          565.73254,
          790.20514
        ]
      },
      "rot": 38.191887,
      "energy": 0.14028731,
      "signal": {
        "v": 1,
        "dim": [
          3
        ],
        "data": [
          0.48519892,
          0.5202531,
          0.5210097
        ]
      },
      "memory": {
        "v": 1,
        "dim": [
          3
        ],
        "data": [
          -0.021002265,
          0.09532236,
          -0.033414386
        ]
      },
      "brain": {
        "layers": [
          {
            "weights": {
              "v": 1,
              "dim": [
                10,
                16
              ],
              "data": [
                0.088562734,
                0.07893222,
                0.097811826,
                -0.049156666,
                -0.0039801374,
                0.03229756,
                0.020154282,
                0.08142454,
                0.050419785,
                -0.019285604,
                -0.0019038469,
                0.050607063,
                0.050180145,
                0.008704826,
                -0.015757635,
                0.08942943,
                0.052065395,
                0.09584225,
                0.08847589,
                -0.09348607,
                -0.04245446,
                -0.046545792,
                0.0071829334,
                0.037413903,
                0.08178208,
                -0.09563267,
                -0.035063148,
                -0.08714118,
                -0.09550085,
                -0.087100364,
                0.041316874,
                0.050644882,
                0.092763685,
                0.091702394,
                -0.014496401,
                0.036792688,
                -0.09587794,
                0.02856917,
                0.04225237,
                0.0026818737,
                -0.04824264,
                0.098482184,
                -0.09881299,
                0.0050385,
                0.050423987,
                0.040698297,
                0.020942137,
                -0.05337317,
                0.057455428,
                0.053607352,
                0.08058018,
                0.090126805,
                0.07994538,
                0.0063488483,
                -0.09997504,
                -0.027816676,
                0.06504787,
                0.062374003,
                -0.03803892,
                0.02352409,
                -0.011555813,
                0.09733946,
                0.07293,
                0.07570434,
                0.016497776,
                0.02061443,
                -0.017239712,
                0.06431753,
                -0.050366282,
                0.04120756,
                -0.059505414,
                0.0852635,
                -0.094185285,
                -0.06760321,
                -0.027636573,
                0.093355246,
                0.01666522,
                -0.035224274,
                0.05637393,
                0.016511753,
                0.090754814,
                0.029874735,
                0.08559687,
                -0.09562991,
                0.08461977,
                -0.0547009,
                -0.081105016,
                0.012771055,
                -0.003280118,
                0.015502311,
                0.037352495,
                0.06397373,
                0.070939474,
                0.007322289,
                0.08319578,
                -0.09130626,
                0.07129059,
                0.034639932,
                -0.011542343,
                0.06220109,
                -0.007143855,
                -0.044690657,
                0.021574691,
                0.04265631,
                0.013026334,
                0.09453409,
                -0.089403346,
                0.07160748,
                -0.093702175,
                -0.00931301,
                0.098024376,
                -0.06418977,
                0.062551476,
                0.08512617,
                0.095171265,
                0.09724245,
                -0.02187121,
                0.010664344,
                0.015665725,
                -0.05662048,
                -0.09267574,
                -0.020103596,
                -0.012728073,
                0.08637757,
                -0.07694976,
                -0.038507033,
                0.09898419,
                -0.09053474,
                0.07392795,
                -0.09400065,
                -0.007847786,
                -0.055601384,
                0.05049879,
                -0.011717558,
                -0.018106893,
                0.080373235,
                -0.047573425,
                -0.063287,
                0.030169673,
                -0.06342647,
                -0.029904485,
                0.090377994,
                -0.028933786,
                -0.029192045,
                0.028357677,
                0.04990127,
                -0.024744391,
                -0.024522945,
                0.054551132,
                0.048747085,
                0.03523784,
                0.014558174,
                0.08200719,
                0.021539167,
                -0.003639415,
                -0.062157344,
                -0.020055652,
                0.001278542,
                -0.07764967,
                0.023545362
              ]
            },
            "biases": {
              "v": 1,
              "dim": [
                10
              ],
              "data": [
                0.03856585,
                -0.07929695,
                0.09189043,
                0.055309422,
                0.04692497,
                -0.077171445,
                0.036406584,
                0.018034838,
                0.06870895,
                -0.078773476
              ]
            }
          },
          {
            "weights": {
              "v": 1,
              "dim": [
                8,
                10
              ],
              "data": [
                -0.09126716,
                -0.07485008,
                -0.04326861,
                0.02720604,
                -0.06295498,
                0.07906187,
                0.085447796,
                -0.032426402,
                -0.037601758,
                -0.09652479,
                0.09282834,
                0.054046445,
                -0.09357553,
                0.030773826,
                -0.009651542,
                0.090447165,
                -0.063369945,
                -0.055218864,
                0.0708595,
                -0.09073744,
                -0.020665362,
                0.07264545,
                0.014148928,
                -0.017536737,
                -0.023694322,
                0.00817664,
                -0.048906352,
                -0.030451223,
                -0.046476554,
                -0.07133067,
                0.08594043,
                -0.08846319,
                -0.003935337,
                0.059638165,
                0.015699528,
                0.027258925,
                0.0028556585,
                -0.053915836,
                0.06272509,
                -0.079512976,
                -0.03524916,
                0.045942,
                0.021834016,
                0.00475426,
                -0.039641906,
                -0.08241098,
                0.04738655,
                0.087170415,
                -0.09193196,
                0.015015766,
                0.09129744,
                -0.06592643,
                -0.07557414,
                0.025928266,
                -0.06935708,
                -0.02449508,
                0.063032605,
                0.016589597,
                0.02131097,
                -0.0782058,
                -0.082088545,
                0.02218397,
                0.07107239,
                -0.027121924,
                0.084796555,
                -0.03403993,
                -0.0424937,
                -0.08091579,
                -0.055236723,
                -0.0013838261,
                0.025790952,
                0.021039173,
                0.0930598,
                0.024465516,
                0.07120182,
                0.03150695,
                0.082231574,
                -0.06570232,
                -0.09132097,
                0.031983666
              ]
            },
            "biases": {
              "v": 1,
              "dim": [
                8
              ],
              "data": [
                -0.05497804,
                0.0851912,
                0.09253683,
                -0.04513085,
                0.09965911,
                -0.046830725,
                0.030340336,
                0.06902676
              ]
            }
          }
        ]
      }
    },
    {
      "id": 2834,
      "age": 90.200905,
      "score": 8,
      "pos": {
        "v": 1,
        "dim": [
          2
        ],
        "data": [
          91.85787,
          563.6018
        ]
      },
      "rot": 24.801306,
      "energy": 0.5402683,
      "signal": {
        "v": 1,
        "dim": [
          3
        ],
        "data": [
          0.53521377,
          0.5290142,
          0.469059
        ]
      },
      "memory": {
        "v": 1,
        "dim": [
          3
        ],
        "data": [
          -0.17061184,
          -0.037510376,
          -0.043048996
        ]
      },
      "brain": {
        "layers": [
          {
            "weights": {
              "v": 1,
              "dim": [
                10,
                16
              ],
              "data": [
                0.12577379,
                -0.013413854,
                -0.11261731,
                -0.1621256,
                0.05941411,
                0.032503918,
                -0.004887242,
                0.10951508,
                -0.11192406,
                0.1004955,
                -0.029393684,
                0.059785806,
                0.044995397,
                0.1254825,
                0.013725936,
                0.034669466,
                -0.112063095,
                0.08168981,
                0.012534436,
                0.046242986,
                0.0009210706,
                0.040448137,
                -0.062043976,
                -0.07511778,
                -0.06391434,
                -0.06051151,
                0.119284905,
                0.06512402,
                0.046246372,
                0.014663808,
                0.017521968,
                -0.040400974,
                -0.016830005,
                0.024060652,
                0.0321465,
                -0.009984985,
                -0.09775774,
                0.11757432,
                0.16124935,
                -0.060777586,
                0.10114898,
                -0.012817286,
                0.080909364,
                0.09998736,
                -0.0568958,
                -0.07360263,
                -0.09621901,
                -0.059874274,
                -0.036511935,
                -0.0645404,
                -0.057388175,
                -0.010086756,
                -0.009693438,
                -0.0915105,
                -0.028252926,
                -0.050088648,
                0.061327655,
                0.05885921,
                0.016821075,
                0.10276682,
                -0.08951534,
                0.0047964975,
                -0.049906686,
                -0.029998539,
                0.047747504,
                0.046396434,
                -0.040526316,
                -0.006808359,
                -0.046806064,
                0.007539328,
                0.06077931,
                -0.061985202,
                -0.080105945,
                0.0054497365,
                -0.033419218,
                0.034960542,
                -0.12986009,
                0.14659208,
                0.038737707,
                0.019174747,
                -0.008859273,
                0.010527892,
                -0.03748963,
                0.07090273,
                -0.012366034,
                -0.01157693,
                0.10941196,
                -0.008606326,
                -0.046874892,
                0.029562067,
                0.10060008,
                -0.02252971,
                -0.062311206,
                -0.08852716,
                -0.05811351,
                0.019292269,
                0.021399256,
                0.00726635,
                0.1324003,
                0.0049588233,
                0.108880445,
                -0.05443093,
                0.036696147,
                -0.01077286,
                -0.09598066,
                0.05274235,
                -0.027560309,
                0.016420517,
                0.054633602,
                0.057020552,
                -0.07859547,
                -0.034860503,
                0.073900685,
                0.06992678,
                -0.08210706,
                0.037033997,
                -0.012180835,
                0.023872942,
                -0.08842431,
                -0.02349139,
                0.11863823,
                0.02523138,
                0.14077285,
                0.064508244,
                0.014627509,
                0.031029481,
                -0.018407516,
                0.087597474,
                0.061271578,
                -0.015038963,
                0.052107275,
                -0.04133118,
                0.13939902,
                -0.10916701,
                0.12844917,
                -0.06662159,
                -0.021737978,
                0.04420286,
                -0.114518374,
                -0.052788727,
                -0.022972777,
                -0.08020212,
                -0.1274443,
                -0.23517007,
                0.101026185,
                -0.029075168,
                -0.013720598,
                -0.031701863,
                0.054412615,
                0.13542822,
                -0.0378839,
                0.07876308,
                -0.0086083375,
                -0.022672277,
                0.06159454,
                0.15882012,
                0.13365223,
                -0.063110694,
                -0.02654146,
                -0.003543757
              ]
            },
            "biases": {
              "v": 1,
              "dim": [
                10
              ],
              "data": [
                0.045404933,
                0.07583099,
                0.049205665,
                -0.0702486,
                -0.11885041,
                -0.1106402,
                0.062034793,
                0.06373293,
                -0.06425332,
                0.058864202
              ]
            }
          },
          {
            "weights": {
              "v": 1,
              "dim": [
                8,
                10
              ],
              "data": [
                0.02770473,
                -0.07782652,
                0.075546086,
                -0.120444134,
                -0.07244523,
                -0.09501453,
                -0.08924777,
                0.0471905,
                0.031037323,
                0.0010609869,
                -0.05397751,
                -0.026764877,
                0.054652546,
                0.05338447,
                0.08186154,
                0.10963553,
                0.055085424,
                -0.014193002,
                -0.21003234,
                -0.024110984,
                -0.15170148,
                0.015125256,
                0.05836523,
                0.07352989,
                0.0074577406,
                0.053233642,
                -0.012949076,
                0.06601708,
                0.011084765,
                -0.09715853,
                -0.02359217,
                -0.053886216,
                -0.063773595,
                -0.17710266,
                -0.021310035,
                -0.00019074604,
                0.011651598,
                0.08234592,
                -0.017132338,
                -0.056480125,
                0.025128637,
                0.08678347,
                -0.14846618,
                0.063094065,
                0.01575771,
                -0.115621395,
                -0.09992041,
                -0.11619489,
                -0.071456864,
                -0.037575077,
                0.018572804,
                -0.014044071,
                0.1115747,
                -0.014362093,
                0.037163746,
                0.07314953,
                0.08665862,
                0.037462134,
                0.10032957,
                0.014418064,
                -0.059454843,
                0.13055499,
                -0.026614219,
                0.08783578,
                0.104347765,
                -0.046202093,
                -0.13649166,
                -0.109230034,
                0.18997681,
                0.12152883,
                0.070746005,
                0.051292874,
                0.067716025,
                -0.06818418,
                -0.033875294,
                -0.034745395,
                0.20582476,
                0.0072845593,
                0.0336568,
                -0.09548147
              ]
            },
            "biases": {
              "v": 1,
              "dim": [
                8
              ],
              "data": [
                0.0960657,
                0.102120414,
                -0.06620516,
                -0.19624418,
                -0.0021417327,
                -0.05010616,
                0.08195401,
                0.029518984
              ]
            }
          }
        ]
      }
    },
    {
      "id": 3672,
      "age": 48.29955,
      "score": 8,
      "pos": {
        "v": 1,
        "dim": [
          2
        ],
        "data": [
          165.3797,
          338.4319
        ]
      },
      "rot": -34.045773,
      "energy": 0.6084155,
      "signal": {
        "v": 1,
        "dim": [
          3
        ],
        "data": [
          0.49899733,
          0.5283782,
          0.48235118
        ]
      },
      "memory": {
        "v": 1,
        "dim": [
          3
        ],
        "data": [
          0.19604033,
          0.12236,
          0.12765
        ]
      },
      "brain": {
        "layers": [
          {
            "weights": {
              "v": 1,
              "dim": [
                10,
                16
              ],
              "data": [
                -0.08529222,
                0.06502199,
                -0.21568224,
                -0.05230719,
                0.12363994,
                0.07052847,
                0.08356975,
                0.11630364,
                -0.1601831,
                -0.06425494,
                -0.06415978,
                -0.114799276,
                -0.053558916,
                -0.018426895,
                0.13435134,
                -0.16821048,
                -0.22799009,
                -0.101927124,
                -0.04575626,
                0.02091384,
                -0.17838345,
                -0.059782747,
                -0.035203554,
                0.025898226,
                0.13575783,
                0.07090512,
                0.03716732,
                0.13865289,
                0.020791262,
                -0.012468986,
                0.027648449,
                -0.087886706,
                -0.087925926,
                -0.11328384,
                -0.023875056,
                0.06454137,
                0.093777165,
                0.089363255,
                -0.040430885,
                -0.16378352,
                0.06445995,
                0.0097376,
                0.018507384,
                -0.04603649,
                -0.17835833,
                -0.02136289,
                -0.10758544,
                0.096367255,
                -0.20290044,
                0.17108281,
                -0.016503476,
                0.004740376,
                -0.17797418,
                0.15198368,
                -0.06817508,
                0.10213208,
                -0.10298582,
                0.11102275,
                -0.029235486,
                -0.11744499,
                -0.017131032,
                0.08686401,
                -0.109633476,
                -0.022481602,
                -0.14577588,
                -0.021569733,
                -0.10460297,
                -0.13372318,
                -0.023723774,
                -0.051067233,
                0.103169054,
                0.050074816,
                0.062802166,
                -0.012402467,
                -0.064881295,
                -0.035488464,
                -0.23851368,
                0.009700475,
                0.091871575,
                -0.12399966,
                0.14046824,
                0.12666573,
                0.19207534,
                0.1856161,
                0.07215592,
                0.2559998,
                0.043519568,
                -0.09580874,
                0.029538944,
                0.12021779,
                -0.11189808,
                -0.1650658,
                0.23834315,
                0.030964047,
                0.04968776,
                -0.034330666,
                -0.07907295,
                -0.038445674,
                0.29439077,
                0.05408642,
                -0.20380533,
                -0.09448932,
                0.038353123,
                -0.10826716,
                0.046277203,
                0.026085835,
                0.017391365,
                0.14310673,
                0.094804525,
                -0.014665566,
                0.072520114,
                0.2815122,
                -0.08939722,
                -0.10337394,
                -0.22847483,
                -0.14859968,
                0.06475345,
                0.010135353,
                -0.102849096,
                -0.020741872,
                0.10739429,
                -0.025759429,
                0.08468109,
                0.06838122,
                0.06797935,
                -0.15641454,
                0.13827956,
                0.05039399,
                -0.02623517,
                -0.056169905,
                0.13656548,
                -0.14478394,
                0.20125353,
                0.10883474,
                0.08250176,
                0.06792393,
                0.10675884,
                -0.041366313,
                -0.04295722,
                -0.15403922,
                -0.14003128,
                -0.010180518,
                0.008216538,
                -0.025825782,
                -0.027394079,
                0.07452263,
                -0.16610116,
                -0.057459645,
                -0.3279081,
                0.030108277,
                -0.02487739,
                0.19843331,
                0.017953426,
                0.22522068,
                0.037795134,
                0.06794867,
                0.0954272,
                -0.009051457,
                -0.027281735,
                0.0209359
              ]
            },
            "biases": {
              "v": 1,
              "dim": [
                10
              ],
              "data": [
                -0.1597605,
                0.015111543,
                0.12260388,
                0.3408674,
                0.008915205,
                -0.1064247,
                -0.20997246,
                0.1088585,
                -0.022523321,
                -0.025783064
              ]
            }
          },
          {
            "weights": {
              "v": 1,
              "dim": [
                8,
                10
              ],
              "data": [
                0.130071,
                -0.18112782,
                -0.15197343,
                -0.0831077,
                -0.16726981,
                0.004795499,
                0.118380964,
                0.10233046,
                0.068840176,
                0.10193637,
                -0.06945423,
                0.027062453,
                0.12305927,
                0.08555789,
                -0.037063994,
                0.08762055,
                0.06609373,
                0.08077424,
                -0.11147316,
                0.0170841,
                -0.054918665,
                -0.004204195,
                0.1728024,
                -0.16870913,
                -0.0017797872,
                -0.14124143,
                -0.13517874,
                0.06635666,
                -0.22569159,
                0.014010078,
                -0.14958185,
                -0.20085034,
                0.17838934,
                0.07722978,
                -0.06321201,
                -0.05694341,
                -0.064414404,
                0.11382913,
                0.09515836,
                0.059164554,
                0.020784272,
                0.05693586,
                -0.014407694,
                0.20127729,
                -0.08198323,
                0.009417307,
                0.0066466294,
                0.26133108,
                -0.025557965,
                -0.025897337,
                0.04463601,
                -0.04388562,
                -0.046131287,
                0.18301979,
                -0.018353272,
                -0.034476988,
                0.18882972,
                0.22228026,
                -0.07389777,
                -0.021970145,
                0.099086985,
                0.25510272,
                0.052706957,
                0.004430143,
                0.11432725,
                -0.17121048,
                0.10735587,
                0.154313,
                -0.23054644,
                0.065470904,
                -0.14403898,
                -0.06817627,
                -0.111020595,
                -0.008072507,
                0.04594239,
                -0.12529874,
                0.116671324,
                -0.093033016,
                -0.02086877,
                -0.085449085
              ]
            },
            "biases": {
              "v": 1,
              "dim": [
                8
              ],
              "data": [
                0.042404495,
                0.038800966,
                -0.09142051,
                0.08530561,
                0.021148473,
                0.04722423,
                -0.06522325,
                0.03455241
              ]
            }
          }
        ]
      }
    },
    {
      "id": 4110,
      "age": 26.399883,
      "score": 8,
      "pos": {
        "v": 1,
        "dim": [
          2
        ],
        "data": [
          550.3091,
          175.10078
        ]
      },
      "rot": 14.332377,
      "energy": 0.8531079,
      "signal": {
        "v": 1,
        "dim": [
          3
        ],
        "data": [
          0.4654718,
          0.54277384,
          0.4764069
        ]
      },
      "memory": {
        "v": 1,
        "dim": [
          3
        ],
        "data": [
          0.02458764,
          0.14154747,
          0.088417426
        ]
      },
      "brain": {
        "layers": [
          {
            "weights": {
              "v": 1,
              "dim": [
                10,
                16
              ],
              "data": [
                -0.0021998305,
                -0.041076757,
                -0.045095883,
                -0.044286825,
                -0.084871545,
                -0.14759977,
                -0.110226475,
                -0.078699365,
                0.011007162,
                -0.018129295,
                -0.13043098,
                0.14370579,
                -0.061229564,
                -0.036359616,
                0.16835818,
                0.094047904,
                -0.16405444,
                -0.017993825,
                -0.062447857,
                0.077393815,
                -0.029711314,
                0.045049198,
                0.12813447,
                0.09625745,
                0.23858085,
                0.032769345,
                -0.0080669,
                -0.07245367,
                -0.03009189,
                0.15760925,
                -0.121835805,
                -0.17282814,
                -0.019629875,
                -0.08490479,
                -0.053422805,
                0.07431811,
                -0.10156843,
                0.1460651,
                -0.106516816,
                0.054082464,
                -0.042550694,
                -0.038763642,
                0.19122352,
                0.09359834,
                0.019522002,
                0.034303352,
                -0.09915582,
                0.11442002,
                -0.2226409,
                0.010319555,
                -0.1617613,
                -0.112215996,
                0.062912144,
                0.06993098,
                -0.06508808,
                0.031242987,
                -0.02376009,
                0.20600161,
                -0.04613331,
                -0.11531328,
                0.0059325546,
                0.24030277,
                -0.2657531,
                -0.15221088,
                -0.035979405,
                -0.030088915,
                -0.091614954,
                -0.047761768,
                -0.037416913,
                0.018765537,
                -0.004884327,
                0.17268327,
                0.06988789,
                -0.04831577,
                0.0532417,
                0.032654315,
                -0.0085762665,
                -0.05723221,
                0.11849448,
                -0.119630486,
                0.06887141,
                0.00786615,
                -0.0038077496,
                0.13936003,
                0.11760258,
                0.03382854,
                0.059142143,
                0.027548457,
                0.117915094,
                0.05343113,
                -0.10815356,
                0.05974693,
                0.13611044,
                0.0691803,
                0.04882986,
                -0.065096475,
                0.13529791,
                -0.055812147,
                0.053778425,
                -0.033255894,
                -0.15508021,
                0.09780531,
                0.08534386,
                0.030222306,
                -0.027589845,
                0.09016432,
                0.06537586,
                -0.13912994,
                -0.075917296,
                -0.026846973,
                -0.09776959,
                0.099233374,
                0.064681694,
                -0.10573454,
                -0.058789648,
                -0.008361282,
                -0.023330446,
                0.012717733,
                -0.049394093,
                -0.0318393,
                -0.005080236,
                -0.23866113,
                0.06277477,
                0.14296037,
                0.0050463397,
                0.037013512,
                -0.007189965,
                -0.1316467,
                0.05652981,
                0.05141656,
                -0.00993097,
                -0.080531925,
                0.06210963,
                -0.07009293,
                0.21061713,
                0.10411793,
                0.0733645,
                -0.08388258,
                0.04210023,
                -0.08972885,
                -0.09109079,
                -0.1260903,
                0.14194827,
                0.03670065,
                -0.040942315,
                0.11036976,
                -0.04276572,
                0.012385828,
                -0.08973764,
                0.035226144,
                -0.04952719,
                0.14676647,
                0.21380633,
                0.016981274,
                -0.107183546,
                -0.03943559,
                -0.03893455,
                0.035259046,
                0.07054694,
                0.10276797
              ]
            },
            "biases": {
              "v": 1,
              "dim": [
                10
              ],
              "data": [
                -0.16715068,
                -0.042243622,
                0.000777578,
                0.1128019,
                -0.022703426,
                -0.13933817,
                -0.07551785,
                -0.010373069,
                0.016191835,
                -0.021071298
              ]
            }
          },
          {
            "weights": {
              "v": 1,
              "dim": [
                8,
                10
              ],
              "data": [
                0.02733067,
                0.0298133,
                -0.09580408,
                0.115954,
                -0.09925957,
                0.049394406,
                0.04847283,
                -0.110017024,
                -0.029932076,
                -0.0028128996,
                -0.052335285,
                0.082718335,
                0.14122137,
                -0.03605389,
                -0.022904364,
                -0.05813737,
                0.10150254,
                -0.119385794,
                0.06519478,
                0.07447952,
                0.10059977,
                -0.015767917,
                -0.0101332255,
                0.019975075,
                0.0468369,
                -0.14703894,
                -0.008141253,
                0.09716869,
                -0.11128496,
                -0.00037684664,
                -0.07311943,
                0.12094292,
                0.042825893,
                -0.013873868,
                0.06994252,
                0.09447475,
                0.035873562,
                -0.011481514,
                0.0008054543,
                -0.08066996,
                -0.047241926,
                0.03355085,
                0.03707892,
                0.008760465,
                0.13247979,
                0.075594686,
                0.015746763,
                0.019086152,
                -0.06579295,
                -0.0112455,
                -0.14090994,
                0.035376206,
                -0.024686249,
                0.110620655,
                -0.11035017,
                -0.026520932,
                0.14189373,
                0.092772044,
                -0.056975074,
                0.023409637,
                -0.07178761,
                -0.006586915,
                0.085758984,
                -0.04124198,
                -0.077125765,
                -0.13305224,
                0.017283797,
                0.11649993,
                0.0519657,
                -0.031772267,
                -0.022483077,
                0.020030955,
                0.046141997,
                -0.0013623573,
                0.027458059,
                -0.036915906,
                0.08931651,
                -0.03833685,
                -0.10535187,
                -0.0041182116
              ]
            },
            "biases": {
              "v": 1,
              "dim": [
                8
              ],
              "data": [
                -0.104744546,
                0.018584216,
                0.006441582,
                -0.03167048,
                0.09720665,
                0.075827345,
                -0.01027008,
                0.112873405
              ]
            }
          }
        ]
      }
    },
    {
      "id": 4256,
      "age": 19.099995,
      "score": 8,
      "pos": {
        "v": 1,
        "dim": [
          2
        ],
        "data": [
          35.851105,
          580.1823
        ]
      },
      "rot": -15.595904,
      "energy": 0.8612698,
      "signal": {
        "v": 1,
        "dim": [
          3
        ],
        "data": [
          0.43984345,
          0.48123825,
          0.5695522
        ]
      },
      "memory": {
        "v": 1,
        "dim": [
          3
        ],
        "data": [
          -0.0856241,
          0.115413554,
          0.07704959
        ]
      },
      "brain": {
        "layers": [
          {
            "weights": {
              "v": 1,
              "dim": [
                10,
                16
              ],
              "data": [
                0.15100029,
                -0.14282319,
                -0.058960896,
                0.063362,
                -0.073357925,
                0.13282701,
                0.05355352,
                -0.25187337,
                -0.2370767,
                -0.0056841783,
                -0.0069733523,
                0.07306301,
                0.043058284,
                -0.19053407,
                0.16889337,
                -0.4062335,
                -0.35749295,
                -0.3243132,
                -0.011492262,
                0.24503352,
                -0.06918662,
                -0.1031941,
                0.09898524,
                0.06651834,
                0.17459121,
                -0.11143537,
                0.12764658,
                0.06235725,
                0.013473898,
                -0.027113285,
                0.059998266,
                -0.088696696,
                0.07778709,
                -0.098350495,
                -0.094885126,
                -0.14656912,
                0.060882602,
                0.13070576,
                -0.019722067,
                -0.14242545,
                0.25417003,
                0.20444925,
                0.15860707,
                -0.15542474,
                -0.24058567,
                0.024110317,
                -0.10667691,
                0.16511355,
                -0.06618106,
                -0.0611969,
                0.036400534,
                0.10218626,
                -0.2607003,
                0.032091178,
                -0.19347686,
                0.07478572,
                0.0065221637,
                0.016508747,
                -0.0039567016,
                -0.11882345,
                -0.11334436,
                0.18766052,
                0.009464495,
                0.209802,
                -0.033128105,
                0.14347069,
                -0.07525755,
                -0.04576491,
                -0.079729736,
                -0.2527781,
                0.009227619,
                0.06862059,
                -0.17864618,
                0.07240385,
                0.22654499,
                -0.15399714,
                -0.21430242,
                -0.049568158,
                0.11305734,
                0.017782837,
                -0.06621319,
                -0.06293262,
                -0.040526055,
                0.19807556,
                -0.17082505,
                0.10107675,
                0.13515101,
                -0.19500934,
                0.23328145,
                -0.021201573,
                -0.12321235,
                -0.2616001,
                0.26421493,
                -0.012844317,
                0.01902743,
                0.024300382,
                -0.10329709,
                -0.02198328,
                0.19873148,
                -0.016126368,
                0.012765534,
                -0.07842192,
                0.09891039,
                0.037827235,
                0.20395821,
                -0.24885124,
                -0.07862653,
                0.2052817,
                -0.026090384,
                -0.009680469,
                0.14682171,
                0.25470865,
                -0.1680577,
                -0.1639593,
                -0.08454696,
                0.019995652,
                -0.058854565,
                -0.13036905,
                -0.0019098856,
                0.00057068095,
                0.19023335,
                -0.056044348,
                0.30218303,
                0.14391005,
                0.10116905,
                -0.086754486,
                0.09422253,
                0.15042296,
                0.052324895,
                -0.075056806,
                0.054676346,
                0.0061714128,
                -0.03528353,
                0.09955618,
                0.20142303,
                -0.032180592,
                0.21235782,
                -0.15078796,
                -0.036978394,
                -0.25382212,
                -0.15794773,
                -0.08029694,
                0.11471272,
                -0.28863746,
                -0.12926501,
                0.03671687,
                -0.23135759,
                0.08591533,
                -0.36275184,
                0.0726679,
                0.036267854,
                -0.14305106,
                0.14062387,
                0.20266032,
                0.18358943,
                0.066770926,
                0.037126686,
                0.013514791,
                -0.051147986,
                -0.1596505
              ]
            },
            "biases": {
              "v": 1,
              "dim": [
                10
              ],
              "data": [
                -0.13068555,
                0.18608475,
                0.19392404,
                0.28857377,
                0.03836053,
                -0.26917818,
                -0.03902456,
                0.08068401,
                -0.093182944,
                -0.015823662
              ]
            }
          },
          {
            "weights": {
              "v": 1,
              "dim": [
                8,
                10
              ],
              "data": [
                -0.033804744,
                -0.10438891,
                -0.24244596,
                -0.16094595,
                -0.024121653,
                0.15659276,
                -0.091396555,
                0.061774373,
                0.27787068,
                -0.056274913,
                -0.11010954,
                0.10535323,
                0.049529634,
                -0.003253661,
                -0.2286155,
                0.1517081,
                -0.04970746,
                0.05020069,
                -0.13031176,
                0.17491049,
                -0.012327865,
                -0.025657736,
                0.3548606,
                0.08393326,
                0.06288238,
                -0.22104007,
                0.06789383,
                0.22025877,
                -0.29979628,
                -0.0017728955,
                -0.027132314,
                -0.21154012,
                0.1518938,
                -0.012357816,
                0.05753945,
                0.007380454,
                -0.048353516,
                -0.044103622,
                0.16544333,
                -0.11862987,
                0.03012994,
                0.17772868,
                -0.09322721,
                -0.011448525,
                -0.21172333,
                0.04869213,
                -0.039707042,
                0.11012745,
                -0.12149897,
                0.034796976,
                0.19371471,
                -0.0517752,
                -0.057975985,
                0.2048001,
                0.04542026,
                0.15059017,
                0.07453087,
                0.1837317,
                0.11175931,
                -0.09388914,
                0.019700252,
                0.12766267,
                0.07022553,
                -0.069170006,
                0.026523842,
                0.022228964,
                -0.04901537,
                0.12968582,
                -0.16667384,
                0.2071288,
                0.008567864,
                0.08651545,
                -0.021811675,
                -0.068589106,
                0.031823047,
                -0.22500661,
                0.18246177,
                -0.16999608,
                -0.11593975,
                -0.024749782
              ]
            },
            "biases": {
              "v": 1,
              "dim": [
                8
              ],
              "data": [
                0.033665482,
                -0.10926444,
                -0.08876174,
                -0.07128014,
                0.12860456,
                0.1029096,
                -0.080268525,
                0.25627738
              ]
            }
          }
        ]
      }
    },
    {
      "id": 4228,
      "age": 20.499973,
      "score": 8,
      "pos": {
        "v": 1,
        "dim": [
          2
        ],
        "data": [
          698.2923,
          700.10736
        ]
      },
      "rot": -26.222605,
      "energy": 0.883425,
      "signal": {
        "v": 1,
        "dim": [
          3
        ],
        "data": [
          0.5063703,
          0.5458807,
          0.5081405
        ]
      },
      "memory": {
        "v": 1,
        "dim": [
          3
        ],
        "data": [
          -0.05871967,
          0.09374146,
          -0.09755808
        ]
      },
      "brain": {
        "layers": [
          {
            "weights": {
              "v": 1,
              "dim": [
                10,
                16
              ],
              "data": [
                -0.011693239,
                0.09045304,
                -0.041031063,
                -0.0065735243,
                -0.11091812,
                0.108502135,
                0.042530708,
                0.009323861,
                -0.022508137,
                0.06332997,
                -0.11044483,
                0.19648856,
                -0.03198935,
                -0.081068575,
                -0.044192716,
                -0.107970305,
                -0.22017795,
                0.012166508,
                -0.0068532377,
                0.008056909,
                -0.15784328,
                0.055127166,
                0.01094963,
                -0.20029159,
                0.18470126,
                0.14798038,
                0.1343151,
                0.05733378,
                0.05821289,
                0.015292767,
                -0.034298003,
                -0.0660448,
                0.055337463,
                -0.049759656,
                0.017212883,
                -0.07159833,
                -0.16149962,
                -0.024474185,
                -0.02436576,
                0.038262576,
                -0.025048733,
                -0.17996709,
                0.13837434,
                0.14722085,
                -0.017003704,
                -0.08223279,
                -0.006217569,
                0.13849127,
                -0.04261847,
                0.1107063,
                -0.044670537,
                -0.024072308,
                -0.18595693,
                -0.18792985,
                -0.121546045,
                -0.056373492,
                -0.0433062,
                0.18052655,
                0.075353675,
                -0.0011875331,
                0.10373025,
                0.111761175,
                -0.112123996,
                0.10799327,
                0.0005352292,
                0.03844018,
                -0.01184082,
                -0.054109767,
                -0.1226287,
                0.08849163,
                0.043318048,
                0.2095754,
                0.01627139,
                0.14065608,
                0.06574273,
                -0.06103564,
                0.081699215,
                0.038498685,
                0.07459968,
                0.012786307,
                0.18416777,
                0.055384807,
                -0.0055425465,
                0.030188203,
                0.10436805,
                0.094461404,
                -0.033648185,
                0.036759116,
                0.038912557,
                0.15517423,
                0.024565179,
                -0.12319031,
                -0.13107994,
                0.029077493,
                0.036784906,
                -0.033076655,
                0.017992347,
                -0.032263525,
                0.041643556,
                -0.010996394,
                -0.13805167,
                -0.21101648,
                0.016414851,
                0.091970444,
                -0.0530847,
                -0.040959857,
                0.072207086,
                0.02351737,
                0.06561379,
                -0.2436907,
                0.07258477,
                0.17762922,
                0.07177515,
                -0.14272842,
                -0.21944782,
                0.035227876,
                0.0020920038,
                -0.09251949,
                -0.054893713,
                0.009003371,
                -0.1858519,
                -0.0019275993,
                0.081730396,
                -0.04380345,
                -0.12356986,
                0.007684253,
                0.005162716,
                -0.020527646,
                0.08776146,
                0.19120978,
                0.009882376,
                -0.34100428,
                0.28011096,
                -0.09438755,
                0.18418908,
                0.107029885,
                -0.12696007,
                -0.018399008,
                -0.13070376,
                0.029968163,
                0.1024845,
                -0.17141248,
                0.08980922,
                0.12191153,
                -0.08217728,
                0.030902404,
                0.132635,
                -0.22681716,
                -0.00901559,
                0.13079618,
                -0.05440368,
                -0.047982626,
                0.047060132,
                0.13232166,
                0.084704444,
                0.03388933,
                0.17559463,
                -0.11132671,
                -0.044355877,
                0.04916228
              ]
            },
            "biases": {
              "v": 1,
              "dim": [
                10
              ],
              "data": [
                -0.014034007,
                0.058461215,
                -0.018728707,
                0.0081048235,
                0.117047474,
                0.029584572,
                0.071099564,
                0.006145552,
                -0.15312031,
                -0.11354459
              ]
            }
          },
          {
            "weights": {
              "v": 1,
              "dim": [
                8,
                10
              ],
              "data": [
                -0.042634126,
                0.027860362,
                0.12427096,
                -0.2294966,
                0.044927455,
                -0.015704796,
                0.031920187,
                -0.031665355,
                -0.15370376,
                0.058957573,
                -0.08260954,
                0.028930098,
                0.027720287,
                0.02605322,
                0.19029522,
                0.098364845,
                0.12102934,
                -0.11819387,
                0.1680212,
                0.05990859,
                0.13271572,
                0.12484256,
                -0.06210166,
                -0.0637898,
                -0.053988397,
                0.012869351,
                0.020307004,
                0.0029904768,
                -0.16881979,
                -0.1330077,
                0.025362369,
                -0.034814835,
                0.18584168,
                0.052625105,
                0.05671157,
                -0.0029748082,
                -0.074143656,
                -0.042929675,
                -0.020056587,
                -0.08325271,
                -0.13536994,
                0.073753625,
                -0.13076204,
                0.07612783,
                0.12460001,
                0.13487229,
                0.18704885,
                0.0628227,
                -0.027280442,
                -0.09343353,
                0.00069881976,
                0.12756103,
                -0.05992675,
                0.20207994,
                -0.16713475,
                0.06499472,
                -0.12771066,
                0.13302723,
                0.058542438,
                0.124114506,
                0.22397625,
                0.040952697,
                0.07183829,
                0.18690374,
                -0.0754112,
                -0.106786065,
                0.06562846,
                -0.029970214,
                -0.08881108,
                -0.021131594,
                0.05713279,
                -0.01737855,
                0.09438525,
                0.052348692,
                0.060097106,
                -0.116063744,
                0.183049,
                0.0064736307,
                -0.16138126,
                0.009938102
              ]
            },
            "biases": {
              "v": 1,
              "dim": [
                8
              ],
              "data": [
                0.01770226,
                0.14193207,
                0.03885317,
                -0.081674576,
                0.021066435,
                -0.05629938,
                -0.1334481,
                0.0032732114
              ]
            }
          }
        ]
      }
    },
    {
      "id": 4182,
      "age": 22.799938,
      "score": 8,
      "pos": {
        "v": 1,
        "dim": [
          2
        ],
        "data": [
          104.97605,
          392.905
        ]
      },
      "rot": 7.7374005,
      "energy": 0.9292299,
      "signal": {
        "v": 1,
        "dim": [
          3
        ],
        "data": [
          0.5218155,
          0.4999596,
          0.5542041
        ]
      },
      "memory": {
        "v": 1,
        "dim": [
          3
        ],
        "data": [
          0.1493151,
          0.06987048,
          -0.095232196
        ]
      },
      "brain": {
        "layers": [
          {
            "weights": {
              "v": 1,
              "dim": [
                10,
                16
              ],
              "data": [
                0.09623956,
                0.066954136,
                -0.09199447,
                0.14905393,
                -0.04507824,
                -0.035737842,
                0.08671362,
                0.09123254,
                -0.11193223,
                -0.038924247,
                0.1997524,
                -0.15114997,
                -0.042397596,
                0.036381964,
                0.10121192,
                -0.14985257,
                -0.13973708,
                -0.16501261,
                -0.03453891,
                0.043342832,
                -0.05890368,
                -0.07128997,
                0.12452732,
                0.16572347,
                0.16440651,
                0.082158506,
                -0.055045046,
                0.07945776,
                0.051146463,
                0.014263518,
                0.028372869,
                -0.065180406,
                -0.015513061,
                -0.19859728,
                -0.10637698,
                0.137755,
                0.10288914,
                0.10318467,
                -0.13499013,
                -0.109485276,
                0.122136064,
                -0.047560424,
                -0.07617082,
                -0.15236634,
                -0.19798785,
                -0.06073905,
                -0.16291896,
                -0.02524805,
                -0.07838412,
                0.1458965,
                0.18020086,
                -0.0046240315,
                -0.18022266,
                0.034882292,
                -0.040783353,
                0.08086682,
                -0.06647061,
                -0.11896544,
                -0.054593932,
                0.03734837,
                -0.07670501,
                0.0040671155,
                -0.04877056,
                0.063987345,
                -0.023581069,
                0.052865088,
                0.014932461,
                -0.07658004,
                -0.15891778,
                -0.03626719,
                0.0024408586,
                -0.2062038,
                0.024670094,
                -0.07592478,
                0.17599693,
                0.07133489,
                -0.08689931,
                -0.011499394,
                0.08495495,
                -0.11550248,
                -0.055202927,
                0.07821637,
                0.19921917,
                0.116712734,
                -0.025538452,
                0.19005586,
                0.0202066,
                -0.15243061,
                0.0770648,
                0.12987939,
                -0.07824433,
                -0.28262925,
                0.09339291,
                -0.051069126,
                0.007558195,
                -0.020994801,
                -0.09155758,
                -0.17859267,
                0.11242294,
                -0.022971071,
                -0.03184377,
                -0.035882823,
                0.15692008,
                -0.076270744,
                0.14238483,
                -0.13147852,
                0.02709907,
                0.107585154,
                -0.043501437,
                0.15145758,
                0.042824604,
                0.13820872,
                -0.109159425,
                -0.099643566,
                0.0028707944,
                0.046386562,
                -0.13757059,
                0.041859895,
                0.039493617,
                -0.09904702,
                -0.01747078,
                -0.030353006,
                0.1323119,
                0.024677549,
                0.039031614,
                -0.09015827,
                0.15189353,
                0.15523638,
                -0.08401996,
                -0.065261275,
                0.12047163,
                -0.009603035,
                0.040895253,
                0.013436846,
                -0.06836042,
                0.070043445,
                0.098976254,
                0.080991104,
                -0.010771573,
                -0.031292833,
                -0.2310457,
                0.12685248,
                -0.13111359,
                0.029755978,
                -0.064503714,
                -0.07615488,
                -0.093940966,
                0.042244375,
                -0.14823827,
                -0.00215327,
                0.10433401,
                -0.051668048,
                0.022058867,
                0.1097019,
                0.05012182,
                0.03986569,
                0.097962715,
                -0.07419698,
                -0.13647826,
                0.033229668
              ]
            },
            "biases": {
              "v": 1,
              "dim": [
                10
              ],
              "data": [
                -0.104569346,
                0.028139059,
                0.13413496,
                0.04739479,
                0.16411729,
                0.10531855,
                -0.15143982,
                0.11514185,
                0.049297377,
                -0.13443217
              ]
            }
          },
          {
            "weights": {
              "v": 1,
              "dim": [
                8,
                10
              ],
              "data": [
                0.12905607,
                -0.21149029,
                -0.20860401,
                -0.039445326,
                -0.07756319,
                0.036861002,
                -0.0009982884,
                0.11091486,
                0.01088924,
                0.034645665,
                0.09624498,
                0.07097902,
                0.048390314,
                0.08724768,
                -0.13445929,
                0.049965195,
                0.14027281,
                0.07477527,
                0.1259038,
                0.056933448,
                -0.20591007,
                -0.06049812,
                0.21050902,
                0.06951991,
                0.048556905,
                -0.13576177,
                -0.055446617,
                -0.054194205,
                -0.06282238,
                0.08637396,
                -0.18894118,
                -0.03729984,
                -0.06722908,
                -0.095767,
                0.03942447,
                0.06505215,
                -0.047637396,
                0.089283824,
                -0.054217257,
                0.0016426016,
                -0.05602511,
                -0.13506247,
                -0.040409654,
                0.1322005,
                -0.044922512,
                -0.02947833,
                -0.066924065,
                0.18688372,
                -0.14752966,
                0.054738548,
                0.050134197,
                0.0052546747,
                -0.013708331,
                -0.095774926,
                0.059438158,
                -0.107577756,
                0.21565193,
                0.097543895,
                -0.0682241,
                -0.07380024,
                -0.0008252673,
                0.1935999,
                -0.12665188,
                0.083925456,
                0.22012007,
                -0.09709161,
                -0.003985336,
                -0.12284808,
                -0.032161392,
                -0.014234565,
                -0.19357029,
                0.033919267,
                -0.14950359,
                0.034275953,
                0.039787002,
                0.04356832,
                -0.053782027,
                0.0314284,
                0.10075801,
                -0.24924745
              ]
            },
            "biases": {
              "v": 1,
              "dim": [
                8
              ],
              "data": [
                0.11225266,
                -0.0054571927,
                0.17535271,
                0.09115475,
                0.014617134,
                -0.08383612,
                0.049403023,
                0.11982097
              ]
            }
          }
        ]
      }
    },
    {
      "id": 3829,
      "age": 40.44967,
      "score": 8,
      "pos": {
        "v": 1,
        "dim": [
          2
        ],
        "data": [
          258.38754,
          865.9595
        ]
      },
      "rot": -37.44385,
      "energy": 0.94759625,
      "signal": {
        "v": 1,
        "dim": [
          3
        ],
        "data": [
          0.48694074,
          0.5105621,
          0.5058522
        ]
      },
      "memory": {
        "v": 1,
        "dim": [
          3
        ],
        "data": [
          -0.09127635,
          0.042937845,
          -0.05067552
        ]
      },
      "brain": {
        "layers": [
          {
            "weights": {
              "v": 1,
              "dim": [
                10,
                16
              ],
              "data": [
                -0.05196249,
                0.105812,
                -0.0558925,
                -0.02641236,
                -0.0014755242,
                0.08778785,
                0.095580846,
                0.06451782,
                0.07922871,
                -0.08222118,
                -0.017076567,
                0.05461137,
                0.0071058553,
                -0.12730588,
                0.025691412,
                -0.05629853,
                -0.20796642,
                -0.054061834,
                0.1081417,
                0.051830854,
                -0.18571045,
                0.08421764,
                0.0694859,
                0.009543508,
                0.045086946,
                0.033169616,
                0.14796212,
                0.06941758,
                0.03200052,
                0.037569456,
                -0.09686659,
                -0.13187747,
                -0.059941646,
                -0.01449931,
                0.0690107,
                0.03967982,
                0.01751335,
                0.056100156,
                0.021457903,
                -0.10266711,
                -0.02731141,
                0.06677299,
                0.12904511,
                0.00040839612,
                -0.047633808,
                -0.03932358,
                -0.089822076,
                0.09254587,
                -0.14057231,
                -0.044338975,
                0.09572197,
                0.047503773,
                -0.00013194606,
                -0.046597525,
                0.044045154,
                0.09035686,
                -0.1870073,
                0.05551405,
                0.11291993,
                -0.048655074,
