{
  "organisms": [
    {
      "id": 14939,
      "age": 14.900039,
      "score": 13,
      "pos": {
        "v": 1,
        "dim": [
          2
        ],
        "data": [
          320.60916,
          649.5396
        ]
      },
      "rot": -0.73125386,
      "energy": 0.39385876,
      "signal": {
        "v": 1,
        "dim": [
          4
        ],
        "data": [
          0.48949608,
          0.4633744,
          0.45039043,
          0.5437906
        ]
      },
      "memory": {
        "v": 1,
        "dim": [
          4
        ],
        "data": [
          0.112995684,
          -0.14241263,
          -0.13240933,
          0.19715817
        ]
      },
      "brain": {
        "layers": [
          {
            "weights": {
              "v": 1,
              "dim": [
                32,
                24
              ],
              "data": [
                0.21280594,
                0.06381528,
                0.024318213,
                -0.35552943,
                0.2959645,
                0.18824472,
                -0.10648632,
                -0.16384569,
                0.41338027,
                -0.12756225,
                0.5287358,
                0.04754723,
                -0.14045382,
                -0.02741529,
                -0.16388285,
                0.08928328,
                0.15998085,
                0.1831451,
                -0.18462318,
                0.1348359,
                0.19764955,
                -0.053001627,
                -0.25054133,
                0.070036314,
                -0.028726887,
                0.15107933,
                0.074528,
                0.14039442,
                -0.17241605,
                0.041445505,
                -0.36386532,
                -0.079766974,
                -0.104466476,
                -0.3566763,
                0.087601185,
                0.03437256,
                0.0316746,
                -0.18547046,
                0.05457402,
                0.31097665,
                0.17552052,
                -0.00076231826,
                -0.04449916,
                0.016995352,
                -0.19909611,
                -0.17601012,
                0.116251916,
                0.036560014,
                -0.08725482,
                0.10481933,
                0.17370766,
                -0.3811255,
                0.017580435,
                -0.22178316,
                -0.03209357,
                -0.010901692,
                -0.22849362,
                0.0024747048,
                0.014065849,
                -0.09670383,
                -0.09699414,
                -0.31664473,
                -0.3339655,
                -0.11348251,
                0.27700913,
                -0.20499913,
                -0.207256,
                -0.16915698,
                0.09067343,
                0.122426525,
                0.039454803,
                -0.11378002,
                0.29121777,
                -0.20803288,
                0.02970783,
                0.015429241,
                -0.3158907,
                -0.018966932,
                0.15145224,
                0.078226864,
                0.24506685,
                0.19382778,
                -0.07744332,
                -0.012803884,
                0.13322075,
                -0.17861909,
                -0.2534114,
                -0.27281642,
                -0.08195856,
                0.30715665,
                -0.120268255,
                -0.05254884,
                -0.04832901,
                0.05090389,
                0.04361745,
                -0.09865852,
                -0.27507997,
                -0.08041893,
                0.11371899,
                0.028923804,
                -0.19659017,
                -0.09995687,
                -0.030303448,
                -0.12928471,
                -0.05914539,
                -0.0054394538,
                0.051725216,
                0.052197818,
                0.17426185,
                0.0060912278,
                -0.09063011,
                0.047811106,
                0.11279364,
                -0.022494925,
                0.32361776,
                0.3362685,
                -0.37583244,
                -0.18390183,
                0.31447446,
                -0.15454803,
                0.050271753,
                -0.01662076,
                0.006153683,
                0.106909975,
                -0.026716113,
                -0.2971134,
                0.04015509,
                -0.04999788,
                0.06533338,
                -0.00043321773,
                -0.12748095,
                0.20059909,
                -0.13358532,
                -0.24520363,
                -0.1544454,
                -0.1741986,
                -0.159695,
                0.2606694,
                0.009837233,
                -0.14518343,
                -0.39418662,
                -0.11754726,
                -0.16725522,
                -0.07879016,
                0.14750895,
                0.108187094,
                -0.030437248,
                0.16517183,
                0.2820332,
                0.21546564,
                0.1968894,
                0.38302916,
                -0.0004191529,
                -0.10913482,
                0.1289798,
                0.40894902,
                0.14969584,
                -0.12828544,
                -0.1656169,
                0.1271975,
                -0.07204127,
                -0.32601693,
                0.045214355,
                0.23895796,
                -0.035343833,
                -0.150102,
                -0.14509395,
                -0.050137304,
                -0.14566763,
                -0.019828837,
                -0.101038605,
                -0.042129047,
                -0.12970838,
                -0.21215804,
                -0.17843696,
                -0.064264685,
                0.223816,
                -0.20224035,
                -0.17633127,
                -0.3648442,
                -0.07259998,
                -0.59300774,
                -0.0033004042,
                -0.21290971,
                0.048026994,
                -0.23618673,
                -0.22336271,
                0.053201057,
                0.027969185,
                -0.079652466,
                0.047253728,
                0.054756418,
                -0.053743616,
                -0.33059865,
                -0.25939697,
                0.027352009,
                -0.33246532,
                -0.07786253,
                -0.2546427,
                0.024697341,
                -0.036444716,
                0.06770674,
                -0.041786693,
                0.033599846,
                0.1789668,
                0.026613401,
                -0.30686367,
                -0.08106294,
                -0.058410875,
                -0.031016719,
                -0.07423648,
                0.25035965,
                0.09553538,
                0.037406344,
                -0.1416196,
                -0.1622012,
                0.36766058,
                -0.035398737,
                -0.28053924,
                -0.1381089,
                0.117087945,
                0.27964202,
                -0.04885687,
                -0.1546493,
                -0.0873318,
                -0.031694777,
                -0.21308202,
                -0.08286919,
                -0.028496906,
                -0.13381842,
                0.03872142,
                0.05039396,
                0.081201345,
                0.08776806,
                0.17875022,
                0.07063027,
                0.22836792,
                -0.06171846,
                -0.3452175,
                0.023955451,
                0.24569453,
                -0.16999929,
                0.14092116,
                -0.107022285,
                0.103527345,
                -0.31166747,
                -0.07830323,
                -0.14430322,
                -0.030909315,
                0.03141015,
                -0.24902505,
                -0.24200685,
                0.08374675,
                -0.09154311,
                -0.12378385,
                -0.18354493,
                0.17308648,
                -0.26168463,
                0.012796639,
                -0.049923915,
                0.030614018,
                0.4033015,
                0.3026505,
                -0.19485037,
                -0.23897912,
                -0.14152643,
                0.22828002,
                0.1584916,
                -0.15173106,
                0.15137814,
                -0.003374014,
                -0.043195087,
                0.082546234,
                -0.28130314,
                -0.10965174,
                -0.11957466,
                -0.02709739,
                0.11850713,
                -0.0012740605,
                0.089317456,
                0.28709775,
                0.38303572,
                -0.13808574,
                -0.06482098,
                -0.23511617,
                -0.08072911,
                -0.19784267,
                -0.24037775,
                0.043428533,
                0.033708878,
                -0.10279207,
                -0.054660782,
                0.31811592,
                -0.13514464,
                0.06525697,
                -0.025585748,
                -0.07057653,
                -0.063204594,
                -0.076735444,
                0.07080303,
                0.036888324,
                0.30615586,
                -0.196418,
                -0.0714667,
                -0.02804903,
                0.27324313,
                -0.2063315,
                -0.07142587,
                0.1193253,
                -0.048335098,
                -0.06018467,
                -0.027172878,
                0.17766373,
                -0.0420389,
                -0.015531037,
                -0.3619852,
                0.004223046,
                -0.25539336,
                -0.09134743,
                -0.1227537,
                -0.13654076,
                0.053691134,
                -0.010233615,
                0.10229338,
                0.029927945,
                0.028967617,
                -0.21045448,
                -0.20977269,
                -0.03117374,
                0.10793004,
                0.16704127,
                -0.2904638,
                -0.31065673,
                0.11896764,
                0.18317144,
                0.063929796,
                0.12719545,
                -0.14737916,
                -0.24934335,
                -0.019641493,
                0.024635285,
                -0.029063802,
                0.18379706,
                -0.079398975,
                -0.19244294,
                0.05998886,
                -0.012465237,
                -0.17726353,
                0.091407984,
                -0.101448976,
                0.11252032,
                0.045702767,
                0.009848067,
                0.024539229,
                0.045021866,
                -0.2621846,
                0.041816507,
                0.07608692,
                -0.35316682,
                0.08844855,
                -0.005216137,
                -0.14302032,
                -0.081554264,
                0.059864573,
                0.36106095,
                0.01667953,
                0.1830209,
                -0.076633036,
                0.22641791,
                0.30749294,
                0.10422562,
                -0.048582748,
                0.017011212,
                -0.0828099,
                0.011635408,
                -0.1445627,
                -0.18211617,
                0.24083573,
                0.08006543,
                0.2710322,
                0.07187588,
                -0.081478074,
                0.2748454,
                0.25695708,
                -0.16300867,
                0.1802667,
                -0.10241836,
                -0.15879363,
                0.0057226215,
                0.35439974,
                0.15576562,
                -0.01668746,
                -0.076839656,
                -0.12932628,
                -0.1223849,
                -0.11862603,
                0.19567657,
                0.1075007,
                -0.21415995,
                -0.091135055,
                -0.07155649,
                -0.06595121,
                0.21091159,
                -0.10818302,
                0.1686319,
                -0.48116344,
                0.24391146,
                0.035184264,
                -0.18779239,
                0.15125443,
                0.057522837,
                -0.0014214513,
                -0.063648745,
                0.050447505,
                -0.054810453,
                -0.15768372,
                -0.30437595,
                -0.024509832,
                -0.07116518,
                0.12460019,
                0.03386405,
                -0.01825934,
                -0.102371715,
                0.0009440761,
                0.033397514,
                0.22208373,
                -0.1842336,
                -0.14173274,
                -0.1728662,
                0.47530654,
                -0.31509688,
                0.20854299,
                -0.014228374,
                0.15772183,
                -0.040887825,
                0.1838953,
                -0.22346365,
                0.008061129,
                -0.035999708,
                0.061234266,
                -0.23836786,
                0.0141504705,
                0.10997698,
                -0.29550087,
                0.13584101,
                -0.03082991,
                0.18306217,
                0.081814185,
                -0.4162505,
                -0.020447578,
                -0.338126,
                -0.52934325,
                0.007927838,
                -0.09228349,
                0.014173662,
                0.0040508388,
                -0.2564584,
                0.20557275,
                0.0844428,
                -0.117931955,
                0.07638814,
                0.13802949,
                0.26183155,
                -0.08298123,
                0.08953984,
                -0.16993807,
                0.16560143,
                -0.116101205,
                0.12289762,
                0.097827375,
                -0.17961097,
                -0.023236657,
                0.40138876,
                -0.2401754,
                0.033198133,
                0.07445743,
                -0.21357174,
                -0.13011341,
                0.119468,
                -0.019745927,
                0.29812253,
                0.3254756,
                -0.22028154,
                0.1346603,
                0.03694834,
                -0.118138045,
                0.17130426,
                0.15764706,
                -0.03601035,
                0.00040493347,
                0.46550155,
                -0.16136974,
                -0.12691008,
                -0.005538604,
                0.086594254,
                0.0676141,
                0.21292494,
                0.060158476,
                -0.10649809,
                0.20345572,
                -0.26134133,
                0.083819866,
                -0.12810534,
                -0.2185191,
                0.018687066,
                -0.041949995,
                0.07632266,
                -0.15138562,
                -0.15167479,
                0.34047782,
                -0.16978464,
                0.09355886,
                -0.26582143,
                0.08710762,
                -0.11211704,
                0.3139305,
                -0.10805114,
                -0.10484976,
                -0.1831705,
                0.14388187,
                -0.47192922,
                0.09705187,
                0.16446233,
                -0.18242508,
                0.35157025,
                -0.19021605,
                0.017096503,
                -0.0002853768,
                -0.01733424,
                -0.085437976,
                -0.11681405,
                -0.07493228,
                0.14461656,
                0.17016193,
                0.053311273,
                0.43151245,
                0.30866766,
                0.05154913,
                0.058707178,
                0.11397833,
                -0.026572548,
                -0.018075185,
                0.094633415,
                0.07918012,
                0.08306467,
                0.027628226,
                -0.03137973,
                0.32794547,
                -0.21845518,
                0.040184654,
                0.086582236,
                -0.049426362,
                -0.095475025,
                -0.21027131,
                0.074439645,
                0.16277635,
                -0.049966257,
                -0.01875772,
                0.115638375,
                -0.20808269,
                0.114741415,
                -0.33457547,
                -0.1555345,
                0.011938972,
                0.18488266,
                0.23090297,
                -0.21112166,
                -0.35339773,
                0.17865644,
                -0.023361277,
                0.08592728,
                0.04424685,
                -0.31667373,
                -0.1935982,
                -0.01533942,
                0.1442698,
                -0.28589332,
                0.03430892,
                -0.13861658,
                0.25073382,
                -0.0061717345,
                -0.036438525,
                0.21130064,
                0.26090676,
                -0.3374613,
                -0.062366758,
                0.1052624,
                -0.16357683,
                -0.10589169,
                -0.24961978,
                0.18652205,
                -0.07915742,
                0.10278356,
                -0.091236815,
                -0.06139652,
                0.045171406,
                0.073381834,
                0.20667653,
                0.11558087,
                0.08909322,
                0.11534106,
                -0.19865647,
                -0.16362348,
                0.13739355,
                0.4880308,
                0.14031246,
                0.12815328,
                0.14380953,
                -0.09082386,
                0.45370772,
                0.093434066,
                0.24710353,
                -0.03649407,
                -0.012438194,
                -0.011292363,
                -0.047502197,
                -0.24297936,
                0.1307284,
                0.15777072,
                0.2443145,
                -0.061383456,
                0.038376912,
                -0.11224318,
                -0.11810973,
                0.050709743,
                -0.12736543,
                0.24178179,
                -0.105965294,
                0.1714704,
                0.0046365913,
                -0.12667139,
                0.11005754,
                0.1903664,
                -0.014707943,
                0.0030729799,
                -0.21558827,
                0.26875082,
                -0.17411178,
                0.1637722,
                -0.18664204,
                -0.036169525,
                -0.23039533,
                0.0013693573,
                0.09580743,
                0.3330077,
                0.071513295,
                -0.03215303,
                -0.21874191,
                -0.29819757,
                0.41872367,
                -0.05791782,
                0.12590638,
                -0.0139179565,
                -0.0033090618,
                -0.22262515,
                -0.044220444,
                -0.16892283,
                0.36370754,
                -0.29684535,
                0.0993851,
                0.30861485,
                0.121177256,
                -0.11426945,
                0.29147822,
                -0.031381838,
                -0.09245286,
                -0.35197952,
                0.11685835,
                0.04259357,
                0.17800184,
                -0.13697298,
                -0.1605112,
                0.08783257,
                0.06766428,
                -0.0058320295,
                0.38705245,
                0.09850335,
                -0.0017366819,
                -0.11603009,
                0.30314335,
                -0.21843535,
                0.20726427,
                0.11863514,
                0.2095407,
                -0.13641343,
                0.19422743,
                -0.07296921,
                0.170129,
                0.31366104,
                -0.25897527,
                0.13988258,
                -0.08448242,
                0.29269713,
                -0.11612135,
                -0.10807899,
                0.0890744,
                -0.24972802,
                -0.10600567,
                -0.20006035,
                0.003766358,
                0.023057802,
                0.18031469,
                -0.09521952,
                -0.30767563,
                0.1533419,
                0.023572873,
                0.10078518,
                0.1269523,
                0.20666032,
                -0.030067965,
                0.30153972,
                0.10583104,
                0.2157603,
                -0.028787777,
                -0.048443712,
                0.20833144,
                0.2618057,
                0.10013786,
                0.03843837,
                0.10777682,
                0.24052526,
                -0.13534394,
                -0.27469346,
                -0.23200902,
                -0.097476855,
                0.21544129,
                0.054162502,
                -0.2707261,
                0.4833488,
                -0.11798783,
                -0.07430255,
                -0.3561285,
                -0.13038182,
                -0.107815236,
                -0.01639458,
                0.17941542,
                0.037819635,
                0.03304077,
                0.083702594,
                0.26043743,
                -0.22963464,
                -0.058785476,
                -0.35598207,
                0.38877606,
                0.04279974,
                0.109615676,
                0.013440128,
                0.042190813,
                0.033168383,
                -0.37896106,
                0.06704834,
                0.07769456,
                0.034747206,
                0.116799235,
                0.17111632,
                0.080917634,
                -0.15325317,
                0.06714517,
                0.05046821,
                0.040762886,
                0.024464495,
                -0.14338918,
                -0.25892216,
                0.20257296,
                -0.13528287,
                0.15041555,
                -0.35494083,
                0.13305041
              ]
            },
            "biases": {
              "v": 1,
              "dim": [
                32
              ],
              "data": [
                0.031962257,
                -0.03949448,
                0.040623765,
                0.11710329,
                -0.050950337,
                -0.13597415,
                -0.049371988,
                -0.061067037,
                0.14830425,
                -0.057982564,
                -0.17602098,
                0.17868137,
                0.31689593,
                -0.2144529,
                -0.1195824,
                -0.0984249,
                0.14804894,
                0.0076793055,
                -0.26402608,
                0.27578667,
                -0.08000931,
                0.17350991,
                -0.23722002,
                0.11369966,
                -0.23174661,
                0.114368096,
                -0.056038525,
                0.123233914,
                -0.25174156,
                -0.14434192,
                -0.20624332,
                -0.087730214
              ]
            }
          },
          {
            "weights": {
              "v": 1,
              "dim": [
                16,
                32
              ],
              "data": [
                -0.029577557,
                0.04770413,
                -0.09520374,
                -0.13268082,
                -0.52145904,
                -0.24818343,
                0.14930686,
                -0.26186028,
                -0.10961445,
                0.05004221,
                0.09635991,
                -0.22586976,
                0.036614385,
                0.028922766,
                0.0273296,
                0.049051546,
                0.3098597,
                -0.32096195,
                0.15814334,
                0.20981427,
                -0.17958675,
                0.033105463,
                0.2187347,
                -0.16690934,
                0.14898986,
                0.05589367,
                -0.042030282,
                0.14265639,
                0.12581864,
                0.081266664,
                0.2119793,
                -0.10857467,
                -0.20603222,
                0.14211287,
                -0.12825817,
                -0.0059261173,
                0.2707579,
                0.29478186,
                -0.024157632,
                -0.07422188,
                0.2616862,
                0.12678784,
                -0.104154624,
                -0.117528744,
                -0.063791916,
                0.02017347,
                -0.06431474,
                -0.055360712,
                0.2795078,
                0.12074907,
                -0.22634922,
                -0.0795748,
                0.2345868,
                0.17423822,
                -0.23682262,
                -0.27121428,
                -0.052628193,
                -0.025508493,
                0.047997598,
                0.017269637,
                -0.12808135,
                -0.03838649,
                -0.2569235,
                -0.12280319,
                0.038953584,
                -0.014824668,
                -0.13988225,
                -0.09536439,
                -0.011442758,
                0.25659445,
                -0.3668303,
                0.087809354,
                0.0214958,
                -0.06495455,
                0.10934846,
                -0.06772019,
                -0.18905084,
                -0.10367744,
                -0.22802413,
                -0.021139218,
                -0.07453841,
                -0.01065563,
                -0.17037992,
                -0.10197574,
                0.021218669,
                0.2010305,
                0.04271353,
                -0.058460306,
                0.017060624,
                -0.35621664,
                0.00087413215,
                -0.045944724,
                0.1092506,
                -0.14641654,
                0.08761336,
                0.089980885,
                0.29458126,
                -0.16162556,
                -0.34846005,
                0.13207567,
                0.06425275,
                0.094980545,
                0.12541316,
                -0.028821744,
                -0.15787256,
                0.03183486,
                0.0050045736,
                -0.35157034,
                0.114067,
                -0.15624365,
                0.026396908,
                -0.08531161,
                0.23500241,
                0.028023811,
                -0.051935572,
                0.26031324,
                0.17073528,
                0.18313336,
                -0.13420728,
                0.03570703,
                -0.061008513,
                -0.20112745,
                -0.13927622,
                -0.14420836,
                0.05357739,
                -0.106453046,
                0.013389006,
                -0.048616916,
                0.117398486,
                -0.17066437,
                0.22103079,
                0.26177105,
                0.28167734,
                -0.07274264,
                -0.17732199,
                -0.05522123,
                -0.35442013,
                0.2221049,
                0.08098569,
                0.2128771,
                0.1258039,
                -0.10435635,
                0.21122769,
                -0.16094646,
                -0.3167078,
                0.17812438,
                0.08130656,
                0.338276,
                0.10108474,
                0.14637955,
                -0.14992385,
                -0.30812314,
                0.0938342,
                -0.1702489,
                0.11746647,
                0.22115016,
                -0.0068159727,
                0.27324694,
                -0.2399225,
                -0.043260433,
                0.012477301,
                -0.065877825,
                -0.052647892,
                -0.10912128,
                -0.041363433,
                0.0615605,
                -0.02821428,
                -0.09483977,
                -0.064023845,
                -0.11844993,
                0.08850339,
                0.074126884,
                -0.0012584417,
                0.0139152715,
                0.06178555,
                -0.20024237,
                -0.577777,
                0.020545438,
                0.15745236,
                -0.06170715,
                -0.08237404,
                0.2769289,
                -0.10991327,
                -0.3328302,
                0.17070882,
                -0.30597043,
                0.31287056,
                0.23558812,
                -0.107164085,
                -0.0020235088,
                0.2642176,
                0.007925127,
                -0.27561042,
                -0.28797174,
                0.06590788,
                0.20619161,
                -0.10018874,
                0.09160495,
                0.006742703,
                0.24216178,
                0.20230906,
                0.082376085,
                0.05342114,
                0.07293556,
                -0.1834975,
                0.14637272,
                -0.10745051,
                -0.04103994,
                -0.21863046,
                -0.24170873,
                -0.005181998,
                0.22479615,
                0.014585543,
                0.06474787,
                0.27051672,
                -0.32493052,
                0.1487136,
                -0.21909708,
                0.01402396,
                0.018088184,
                0.020321392,
                -0.23469476,
                -0.043561395,
                -0.0035826298,
                0.1909074,
                -0.25360143,
                0.077984974,
                -0.12883766,
                -0.08449474,
                0.03968358,
                -0.018107668,
                0.19491011,
                0.17250758,
                -0.11383274,
                -0.033041414,
                -0.09103021,
                0.12060084,
                -0.12019163,
                -0.008298511,
                0.18939033,
                0.034535967,
                0.085421346,
                -0.083705954,
                0.073998325,
                0.008841975,
                -0.0897891,
                0.0717444,
                -0.096619576,
                -0.17482984,
                -0.06904679,
                0.08377509,
                -0.2499591,
                -0.17440982,
                -0.00048789196,
                0.32857934,
                0.07786539,
                0.07240642,
                0.20032899,
                0.02345496,
                -0.120720394,
                -0.14373961,
                -0.27881986,
                0.05530689,
                0.17253369,
                0.14012825,
                -0.3217048,
                -0.16509995,
                0.089691386,
                -0.24446627,
                0.11344443,
                -0.10327281,
                -0.12009594,
                0.2069746,
                0.24706958,
                0.07204864,
                0.29036608,
                -0.4449712,
                0.09546751,
                0.03725195,
                0.1055878,
                0.20564705,
                -0.28280446,
                0.14415804,
                -0.016248047,
                0.006055495,
                0.04535941,
                -0.037258253,
                -0.27003664,
                0.079324566,
                0.041660257,
                0.17956707,
                0.02015059,
                -0.07453137,
                -0.019942079,
                -0.26417223,
                0.094538555,
                0.1609019,
                0.3454199,
                0.2477974,
                0.09085887,
                -0.25717318,
                -0.06760142,
                -0.31881672,
                0.2299772,
                0.2749947,
                0.0053663524,
                0.22368416,
                0.0619468,
                -0.4162096,
                0.35996965,
                0.18968892,
                0.025190126,
                0.017057775,
                0.40438804,
                0.23493007,
                0.070614815,
                -0.14101103,
                -0.10457063,
                -0.12376321,
                0.50869185,
                -0.19607966,
                -0.007567412,
                -0.10501106,
                -0.13080099,
                -0.1052168,
                0.035815045,
                0.09951267,
                0.07576169,
                -0.08661671,
                -0.19952303,
                -0.01960101,
                0.09865005,
                -0.26726705,
                0.11901592,
                -0.17235555,
                -0.100494206,
                0.024318479,
                -0.25194833,
                -0.18810847,
                -0.11766639,
                -0.09505713,
                -0.020155089,
                0.07971512,
                -0.22042647,
                0.10945993,
                -0.09484124,
                0.12541401,
                -0.03811927,
                -0.14402688,
                -0.1096453,
                -0.20885733,
                -0.18728358,
                -0.072895855,
                0.021258611,
                0.11958602,
                0.15527193,
                -0.13405915,
                -0.16456887,
                -0.14625162,
                0.3048466,
                0.19157666,
                0.029681524,
                0.035,
                0.29471514,
                0.22814779,
                0.2478633,
                -0.20963232,
                -0.19105077,
                0.100088894,
                0.09779234,
                0.4380289,
                -0.08864093,
                0.044672087,
                0.044905305,
                -0.035831023,
                0.18102197,
                -0.005875363,
                0.22787891,
                -0.27794644,
                -0.16197608,
                -0.02563949,
                -0.07381975,
                0.17338027,
                0.08556723,
                -0.13269767,
                -0.12508675,
                0.1555635,
                -0.1548728,
                0.067253,
                -0.13056856,
                -0.00013654097,
                0.08180914,
                -0.26923808,
                -0.011422902,
                0.01850461,
                0.078645915,
                -0.03719373,
                -0.08726551,
                0.1656585,
                0.06870409,
                0.030332537,
                -0.022767328,
                0.016535502,
                0.43756753,
                -0.19284178,
                -0.23924443,
                -0.04199247,
                0.38281423,
                0.18647723,
                0.038312495,
                0.24341157,
                -0.24569425,
                -0.21754271,
                0.07878728,
                0.0506747,
                0.17420444,
                -0.27310878,
                0.14409392,
                0.045228556,
                -0.030542597,
                0.048636653,
                -0.26104242,
                0.17599612,
                0.10347427,
                -0.14176969,
                -0.19272234,
                -0.09138826,
                0.07659578,
                0.064320624,
                -0.08993678,
                -0.35407844,
                -0.1009586,
                -0.3151584,
                -0.026819669,
                -0.25957686,
                -0.047745705,
                0.00963117,
                0.06388016,
                0.23295249,
                0.08132042,
                0.24460506,
                0.16775942,
                -0.2588106,
                0.25269812,
                0.3533493,
                0.061829396,
                -0.20154485,
                0.39803818,
                0.14536077,
                0.06594865,
                -0.015574155,
                -0.10279584,
                0.11039886,
                0.21158506,
                -0.07269463,
                0.17888276,
                0.13308921,
                -0.17106673,
                -0.15264943,
                -0.1003913,
                0.039783247,
                -0.15827133,
                0.025455594,
                0.0872996,
                -0.05785121,
                -0.099734746,
                -0.014425277,
                -0.21482188,
                0.10198836,
                -0.33416155,
                -0.19124795,
                0.22221266,
                -0.14710459,
                -0.19668642,
                -0.031239744,
                0.17208678,
                0.100706324,
                0.105267435,
                -0.052018765,
                0.22517276,
                0.13277033,
                0.0077496525,
                0.081896506,
                -0.09413591,
                -0.03917875,
                -0.023597078,
                -0.14902891,
                0.12034966,
                0.044986088,
                -0.19957948,
                -0.28591406,
                -0.09343987,
                -0.2120201,
                0.24129482,
                -0.27503464,
                0.23075175,
                -0.10776688,
                0.03370994,
                0.13514726,
                0.053835317,
                0.1527539,
                -0.23425739,
                0.029893141,
                0.008250299,
                0.25875568,
                -0.06812328,
                -0.034435663,
                0.2051586,
                0.07404239,
                -0.07198529,
                -0.1897709,
                -0.0058141425
              ]
            },
            "biases": {
              "v": 1,
              "dim": [
                16
              ],
              "data": [
                0.119312786,
                -0.10035715,
                -0.14248896,
                0.19042557,
                -0.19462863,
                0.32931507,
                0.16842082,
                0.081227,
                -0.19220412,
                -0.22364223,
                -0.13685904,
                0.21597275,
                -0.12543458,
                0.47842476,
                -0.1292806,
                0.15381455
              ]
            }
          },
          {
            "weights": {
              "v": 1,
              "dim": [
                11,
                16
              ],
              "data": [
                -0.62631744,
                0.19805846,
                0.19747604,
                -0.25776267,
                -0.19906335,
                0.2834855,
                0.08101401,
                0.07943829,
                -0.05859586,
                -0.0020752046,
                -0.18552247,
                0.05991559,
                -0.046446353,
                0.13110736,
                0.28016555,
                0.14663143,
                -0.2771247,
                0.31775042,
                0.015797675,
                -0.26325035,
                0.14934956,
                0.14101252,
                0.13288584,
                -0.26927128,
                0.10299003,
                -0.12440651,
                -0.042468645,
                -0.16779083,
                -0.07212058,
                -0.14805819,
                0.06729692,
                0.32311723,
                0.039513394,
                -0.04280925,
                -0.17050964,
                -0.120045856,
                -0.25992474,
                -0.019778728,
                -0.03651793,
                0.061243027,
                -0.038857207,
                -0.0033226535,
                0.15965351,
                0.019647948,
                0.027087219,
                -0.17522036,
                0.3257703,
                -0.14935543,
                -0.25320137,
                -0.2615204,
                -0.019312475,
                0.0021704193,
                0.10957665,
                -0.22277758,
                0.043987647,
                -0.29492536,
                0.27850837,
                0.02124952,
                -0.12371925,
                0.20474954,
                -0.005618289,
                0.03583522,
                0.18067598,
                0.020041717,
                0.2614491,
                -0.08398348,
                0.1331144,
                -0.022741394,
                -0.15454032,
                0.09354995,
                -0.251553,
                -0.22096935,
                0.22562745,
                -0.12326582,
                0.11117881,
                0.27488327,
                -0.1358049,
                -0.10835994,
                -0.034167014,
                -0.2630782,
                0.03703787,
                0.024246985,
                -0.27276438,
                0.0013494925,
                0.080104865,
                0.0073480364,
                -0.11736494,
                -0.10389477,
                0.12962809,
                0.23828568,
                -0.17726511,
                -0.189067,
                0.021134958,
                -0.05377049,
                0.27964598,
                0.023174148,
                0.010396126,
                -0.2485464,
                -0.3008139,
                -0.15747932,
                0.12781435,
                -0.2062501,
                -0.12943709,
                0.11156277,
                -0.34042135,
                0.18205324,
                0.26774272,
                -0.09928612,
                -0.33641773,
                -0.09212604,
                -0.053654097,
                0.18331039,
                -0.10526779,
                -0.21117523,
                -0.19393735,
                -0.08547884,
                -0.030721134,
                -0.012892056,
                -0.36114946,
                0.23457626,
                -0.13147192,
                0.011211065,
                -0.2748636,
                -0.3069636,
                -0.026040863,
                0.2919567,
                0.11402126,
                0.22980374,
                0.18496159,
                -0.22803771,
                -0.29643628,
                -0.07789868,
                0.22879364,
                -0.108283624,
                -0.037076876,
                0.0028435914,
                -0.16393638,
                -0.075969115,
                -0.1905258,
                0.018636307,
                -0.03820651,
                -0.09154321,
                -0.18767259,
                0.13437235,
                -0.08015429,
                0.2527035,
                0.10331476,
                0.2410926,
                0.09287946,
                -0.097698264,
                -0.16147074,
                0.05550138,
                -0.15503141,
                -0.018798722,
                0.12431614,
                0.19016874,
                -0.0402147,
                0.08429893,
                0.27321872,
                0.25640082,
                0.024207443,
                -0.055374883,
                -0.10582362,
                -0.04130904,
                -0.09651896,
                -0.008092821,
                0.2227039,
                -0.046565432,
                -0.11251061,
                0.026165713,
                0.09439774,
                0.052986443,
                0.021427043,
                0.036940843,
                0.15644231,
                -0.103428245
              ]
            },
            "biases": {
              "v": 1,
              "dim": [
                11
              ],
              "data": [
                -0.014231555,
                0.14118916,
                -0.12547305,
                0.1999054,
                0.11924121,
                -0.04424835,
                0.013986125,
                0.033982627,
                -0.11054605,
                0.42943373,
                -0.08505669
              ]
            }
          }
        ]
      },
      "attack_cooldown": 0.15
    },
    {
      "id": 14974,
      "age": 6.800008,
      "score": 6,
      "pos": {
        "v": 1,
        "dim": [
          2
        ],
        "data": [
          235.45139,
          655.707
        ]
      },
      "rot": 6.299455,
      "energy": 0.8947781,
      "signal": {
        "v": 1,
        "dim": [
          4
        ],
        "data": [
          0.46005794,
          0.438944,
          0.4556577,
          0.5439232
        ]
      },
      "memory": {
        "v": 1,
        "dim": [
          4
        ],
        "data": [
          0.16919485,
          -0.05320028,
          -0.18074253,
          0.283217
        ]
      },
      "brain": {
        "layers": [
          {
            "weights": {
              "v": 1,
              "dim": [
                32,
                24
              ],
              "data": [
                0.2184656,
                0.07456902,
                0.02050242,
                -0.35527867,
                0.27362943,
                0.17152451,
                -0.13110547,
                -0.16604094,
                0.38877103,
                -0.14747818,
                0.54757786,
                0.06786751,
                -0.16212411,
                -0.03180365,
                -0.17965189,
                0.11098617,
                0.17067605,
                0.17336936,
                -0.1641049,
                0.14727771,
                0.18853064,
                -0.04324003,
                -0.24951984,
                0.0694968,
                -0.051563904,
                0.15798132,
                0.06268402,
                0.1239785,
                -0.19192342,
                0.058763117,
                -0.37844464,
                -0.082468405,
                -0.1256389,
                -0.3336667,
                0.10784722,
                0.04565964,
                0.0073721996,
                -0.16688955,
                0.074503064,
                0.33381972,
                0.17125054,
                0.004926988,
                -0.03349133,
                0.02143615,
                -0.21521693,
                -0.1847485,
                0.10600111,
                0.02510158,
                -0.110176116,
                0.106239446,
                0.16616501,
                -0.37308022,
                -0.0018410885,
                -0.20333226,
                -0.046272397,
                -0.0032336942,
                -0.23651434,
                -0.0048819575,
                0.0017305331,
                -0.07677738,
                -0.09657482,
                -0.3005049,
                -0.32182783,
                -0.10006154,
                0.26386002,
                -0.21949945,
                -0.20161541,
                -0.1709621,
                0.10701622,
                0.11815758,
                0.040129755,
                -0.108351246,
                0.270963,
                -0.18643977,
                0.019106286,
                -0.004165581,
                -0.29462743,
                -0.00024617123,
                0.1625829,
                0.0652297,
                0.25113082,
                0.2094519,
                -0.057385657,
                -0.026653472,
                0.1276979,
                -0.19147055,
                -0.2494367,
                -0.25211713,
                -0.091981724,
                0.3222522,
                -0.13404933,
                -0.06275476,
                -0.051565338,
                0.03481985,
                0.055813648,
                -0.102248214,
                -0.25140896,
                -0.07756951,
                0.11788957,
                0.03661499,
                -0.17294341,
                -0.11939535,
                -0.040536463,
                -0.10808708,
                -0.05509399,
                -0.011551363,
                0.052536014,
                0.056746583,
                0.16765699,
                0.016735604,
                -0.07715034,
                0.03232236,
                0.09021807,
                0.0020839616,
                0.31283584,
                0.33506578,
                -0.3796033,
                -0.17424788,
                0.2986107,
                -0.14817284,
                0.038448423,
                -0.03043169,
                0.0026103016,
                0.10215442,
                -0.011648731,
                -0.27317986,
                0.05861067,
                -0.059359074,
                0.06222281,
                -0.019824956,
                -0.109352544,
                0.17937244,
                -0.11870161,
                -0.22249651,
                -0.17580272,
                -0.18966872,
                -0.17722443,
                0.2828755,
                -0.0006496217,
                -0.12356959,
                -0.3746404,
                -0.12310045,
                -0.1710985,
                -0.06447937,
                0.13934661,
                0.13153814,
                -0.021092875,
                0.14999963,
                0.26462445,
                0.20433393,
                0.19700423,
                0.37125665,
                -0.022099879,
                -0.104169264,
                0.14851902,
                0.43001235,
                0.14129515,
                -0.11293542,
                -0.16863169,
                0.10521524,
                -0.08667606,
                -0.3356237,
                0.06296638,
                0.22633454,
                -0.025754027,
                -0.15696764,
                -0.12638235,
                -0.045025025,
                -0.16209428,
                0.004692796,
                -0.08612035,
                -0.041564215,
                -0.15057452,
                -0.20670666,
                -0.19589452,
                -0.059710182,
                0.22541662,
                -0.18329611,
                -0.18023652,
                -0.38158908,
                -0.08061636,
                -0.5968555,
                -0.014456389,
                -0.23700465,
                0.037416127,
                -0.2310711,
                -0.22638662,
                0.052119967,
                0.04591645,
                -0.08925157,
                0.026219208,
                0.07898463,
                -0.07793674,
                -0.34887344,
                -0.24423353,
                0.011258137,
                -0.329018,
                -0.098311126,
                -0.25554612,
                0.031415068,
                -0.018902201,
                0.044574175,
                -0.041042052,
                0.027440071,
                0.16829358,
                0.049669355,
                -0.29320052,
                -0.056696974,
                -0.04305023,
                -0.023700835,
                -0.090651765,
                0.2551413,
                0.116485074,
                0.023320315,
                -0.1538538,
                -0.14776655,
                0.37234917,
                -0.032839786,
                -0.27505803,
                -0.15599541,
                0.12636201,
                0.2597737,
                -0.073422216,
                -0.14688799,
                -0.06752424,
                -0.039301038,
                -0.2322748,
                -0.06630103,
                -0.050301984,
                -0.13903165,
                0.041542403,
                0.04729638,
                0.07509907,
                0.073423125,
                0.19018205,
                0.07391377,
                0.22132549,
                -0.066166975,
                -0.3358063,
                0.04306893,
                0.23697704,
                -0.15941428,
                0.16056934,
                -0.1185104,
                0.10815843,
                -0.30177858,
                -0.102615,
                -0.15626268,
                -0.015586492,
                0.01293188,
                -0.2508524,
                -0.25721583,
                0.08630594,
                -0.11367607,
                -0.10986804,
                -0.20741594,
                0.17632267,
                -0.2539086,
                0.015198894,
                -0.044760186,
                0.051301427,
                0.38927698,
                0.29841205,
                -0.18679655,
                -0.2260746,
                -0.12086846,
                0.20461904,
                0.15809353,
                -0.16182242,
                0.15083636,
                -0.00453525,
                -0.047677927,
                0.07048919,
                -0.29054844,
                -0.104526035,
                -0.13342647,
                -0.0066346666,
                0.12572923,
                -0.020628762,
                0.07363027,
                0.30357283,
                0.39082584,
                -0.1509995,
                -0.0795585,
                -0.23570311,
                -0.08469459,
                -0.19788691,
                -0.26005673,
                0.022276351,
                0.054190263,
                -0.11834713,
                -0.058169927,
                0.32095516,
                -0.11086249,
                0.076741405,
                -0.04652859,
                -0.057782758,
                -0.05772059,
                -0.07378423,
                0.079172164,
                0.03558481,
                0.29895237,
                -0.20856403,
                -0.0720446,
                -0.042268015,
                0.25472578,
                -0.19557515,
                -0.08669713,
                0.12962808,
                -0.0409168,
                -0.04492057,
                -0.0289188,
                0.2008545,
                -0.029983263,
                -0.023347957,
                -0.37028247,
                -0.009407239,
                -0.25354555,
                -0.09187919,
                -0.11706782,
                -0.13486695,
                0.053387675,
                -0.02762297,
                0.08261988,
                0.036487043,
                0.0056514437,
                -0.19555177,
                -0.20811191,
                -0.011028756,
                0.120381646,
                0.16717213,
                -0.27088875,
                -0.3145643,
                0.12869048,
                0.1700265,
                0.07281375,
                0.1416094,
                -0.15166515,
                -0.252833,
                -0.0255825,
                0.024144394,
                -0.006455411,
                0.19603309,
                -0.0768646,
                -0.17832574,
                0.0658943,
                0.010050582,
                -0.18418966,
                0.08609688,
                -0.09390331,
                0.09365379,
                0.070225544,
                -0.013285253,
                0.021559505,
                0.03077408,
                -0.24811068,
                0.042263936,
                0.06132928,
                -0.33928198,
                0.08099982,
                0.0006761402,
                -0.15986745,
                -0.07239565,
                0.065458655,
                0.36154634,
                0.024329653,
                0.16343315,
                -0.079551496,
                0.22990507,
                0.28815737,
                0.12116599,
                -0.029415715,
                0.027543703,
                -0.091214225,
                -0.009803886,
                -0.120095216,
                -0.1617952,
                0.22682,
                0.057332724,
                0.25365123,
                0.0666615,
                -0.07387041,
                0.2628306,
                0.23505777,
                -0.14804453,
                0.17205949,
                -0.089968294,
                -0.1499323,
                0.010778481,
                0.34464797,
                0.13952067,
                -0.0014399119,
                -0.073124155,
                -0.12150665,
                -0.11259037,
                -0.13569823,
                0.18693164,
                0.09483941,
                -0.21012913,
                -0.09579208,
                -0.055490043,
                -0.08959959,
                0.20373017,
                -0.093766525,
                0.17132525,
                -0.47740006,
                0.2580858,
                0.026058841,
                -0.20719464,
                0.13931884,
                0.06626261,
                0.0027686132,
                -0.07102535,
                0.026281262,
                -0.048554864,
                -0.15237787,
                -0.31547728,
                -0.042581648,
                -0.08846925,
                0.14405258,
                0.047551423,
                0.00485209,
                -0.080722086,
                0.009204559,
                0.04221064,
                0.24066332,
                -0.20767173,
                -0.13344121,
                -0.1671996,
                0.47181383,
                -0.3203067,
                0.20337112,
                -0.009815372,
                0.18135245,
                -0.0599895,
                0.1787082,
                -0.20452194,
                -0.01448416,
                -0.03794949,
                0.06739785,
                -0.23954898,
                0.035822906,
                0.09084731,
                -0.30676898,
                0.111419365,
                -0.053080335,
                0.15923731,
                0.06913472,
                -0.41407627,
                -0.016083626,
                -0.34139308,
                -0.5053871,
                0.022102991,
                -0.11652007,
                0.030460617,
                -0.0073452257,
                -0.2522964,
                0.18543981,
                0.09456444,
                -0.11000047,
                0.096675664,
                0.1577708,
                0.27079502,
                -0.061141107,
                0.068229586,
                -0.14661145,
                0.17420557,
                -0.097349904,
                0.12228342,
                0.07396968,
                -0.19355132,
                -0.015457061,
                0.3949016,
                -0.25995898,
                0.01331089,
                0.07229429,
                -0.19998157,
                -0.13083993,
                0.11018082,
                -0.014148401,
                0.2758235,
                0.3194688,
                -0.2365754,
                0.13442467,
                0.019933295,
                -0.13689275,
                0.1964919,
                0.13741365,
                -0.050929137,
                0.012568434,
                0.46067858,
                -0.1450013,
                -0.12807555,
                0.008948343,
                0.06580644,
                0.087826535,
                0.19526476,
                0.045760278,
                -0.121190086,
                0.18523553,
                -0.25597203,
                0.0694844,
                -0.112601265,
                -0.20782606,
                0.019413827,
                -0.054000102,
                0.0746124,
                -0.13073733,
                -0.17454202,
                0.3334923,
                -0.15615045,
                0.07004158,
                -0.26867595,
                0.07524965,
                -0.12697762,
                0.30785158,
                -0.11000494,
                -0.08512147,
                -0.19999231,
                0.12578166,
                -0.46501872,
                0.09845907,
                0.17684658,
                -0.1942628,
                0.36180416,
                -0.19387718,
                0.026987504,
                -0.014292369,
                -0.020998629,
                -0.06902056,
                -0.096468344,
                -0.05908894,
                0.1697304,
                0.18842387,
                0.07609682,
                0.44330716,
                0.29065695,
                0.029513938,
                0.065908425,
                0.13534415,
                -0.009311452,
                0.00014608604,
                0.08533871,
                0.07560867,
                0.07532588,
                0.008118593,
                -0.013375329,
                0.30992472,
                -0.2327989,
                0.04261179,
                0.09314877,
                -0.04103235,
                -0.11726621,
                -0.19304115,
                0.08935395,
                0.1421923,
                -0.05741083,
                -0.010831274,
                0.11685855,
                -0.21937022,
                0.13953505,
                -0.31517556,
                -0.16794558,
                0.0024967692,
                0.17244197,
                0.23435883,
                -0.21364161,
                -0.33683774,
                0.18449672,
                -0.034116484,
                0.06382939,
                0.03382366,
                -0.3281304,
                -0.20563295,
                -0.010239516,
                0.15368815,
                -0.27977064,
                0.057179,
                -0.13039823,
                0.23761196,
                0.003882348,
                -0.037197247,
                0.19029358,
                0.2577096,
                -0.33222136,
                -0.06213476,
                0.08266609,
                -0.16118766,
                -0.09528044,
                -0.26253378,
                0.1699909,
                -0.087260485,
                0.12749545,
                -0.10277348,
                -0.063257396,
                0.020429237,
                0.08093499,
                0.21012382,
                0.09611796,
                0.08482886,
                0.11230636,
                -0.19842318,
                -0.17645329,
                0.14805822,
                0.46255615,
                0.14474176,
                0.10619356,
                0.1264438,
                -0.089134656,
                0.4368642,
                0.086775534,
                0.25478065,
                -0.058491975,
                0.008516453,
                0.00059977314,
                -0.036553342,
                -0.22801141,
                0.13850926,
                0.14420432,
                0.26914623,
                -0.060191676,
                0.02916152,
                -0.09834191,
                -0.12576528,
                0.044194065,
                -0.10633796,
                0.23912835,
                -0.09027842,
                0.16262026,
                0.025352443,
                -0.1215483,
                0.108349726,
                0.18335722,
                0.008188602,
                0.009346989,
                -0.2006308,
                0.26286206,
                -0.1706494,
                0.16007009,
                -0.16264755,
                -0.037888143,
                -0.24237238,
                0.0003305411,
                0.08634642,
                0.31806505,
                0.09123737,
                -0.048416752,
                -0.19446704,
                -0.30007184,
                0.42618775,
                -0.059702285,
                0.118762314,
                -0.0356323,
                -0.023775667,
                -0.19954012,
                -0.05254984,
                -0.18283378,
                0.35095719,
                -0.2738232,
                0.12303944,
                0.31424868,
                0.10597571,
                -0.11155458,
                0.30559087,
                -0.04267727,
                -0.09026794,
                -0.33474135,
                0.09439872,
                0.054849163,
                0.15509775,
                -0.14595202,
                -0.13627803,
                0.07795816,
                0.06328547,
                -0.0070047053,
                0.38756496,
                0.082530215,
                -0.015059211,
                -0.092433214,
                0.30015135,
                -0.20958963,
                0.22112252,
                0.13476796,
                0.1883223,
                -0.14356048,
                0.17759226,
                -0.051407322,
                0.16899537,
                0.29360086,
                -0.28148618,
                0.12865472,
                -0.10717371,
                0.30938253,
                -0.113388605,
                -0.11799285,
                0.06488821,
                -0.27026635,
                -0.08356071,
                -0.18513522,
                0.027696816,
                0.003273071,
                0.16318938,
                -0.107010424,
                -0.29589185,
                0.12977318,
                0.046187393,
                0.12124431,
                0.12482586,
                0.22298332,
                -0.03759468,
                0.3114796,
                0.107002325,
                0.2386649,
                -0.031828888,
                -0.04556191,
                0.21756016,
                0.24730624,
                0.079122685,
                0.016579382,
                0.13109663,
                0.26075554,
                -0.117036745,
                -0.27584723,
                -0.24432264,
                -0.1035919,
                0.19716105,
                0.058154773,
                -0.2672207,
                0.488898,
                -0.09323629,
                -0.0631441,
                -0.33966714,
                -0.107495844,
                -0.11164175,
                -0.029984366,
                0.19597577,
                0.03474146,
                0.017342152,
                0.06329609,
                0.24541926,
                -0.2241681,
                -0.059479818,
                -0.38017875,
                0.376189,
                0.041639082,
                0.09666889,
                0.032406643,
                0.021329533,
                0.008113714,
                -0.36306804,
                0.08215429,
                0.06867383,
                0.019454047,
                0.104620576,
                0.14989546,
                0.08464157,
                -0.13984253,
                0.0678213,
                0.029407842,
                0.035042018,
                0.038303867,
                -0.1532112,
                -0.2587736,
                0.22659001,
                -0.13170254,
                0.14496809,
                -0.33370695,
                0.11708183
              ]
            },
            "biases": {
              "v": 1,
              "dim": [
                32
              ],
              "data": [
                0.049230132,
                -0.04445238,
                0.05481992,
                0.13721776,
                -0.07367804,
                -0.12898138,
                -0.037623145,
                -0.076496944,
                0.13397717,
                -0.03393236,
                -0.15322407,
                0.19664906,
                0.3180342,
                -0.23050039,
                -0.10381553,
                -0.092030905,
                0.16299556,
                0.0021684642,
                -0.24813986,
                0.2546735,
                -0.06837401,
                0.19814429,
                -0.2549549,
                0.120167345,
                -0.25471303,
                0.13125226,
                -0.064276345,
                0.1276634,
                -0.2729005,
                -0.124095626,
                -0.21844971,
                -0.08155129
              ]
            }
          },
          {
            "weights": {
              "v": 1,
              "dim": [
                16,
                32
              ],
              "data": [
                -0.04143002,
                0.072902694,
                -0.11798898,
                -0.12437986,
                -0.53755295,
                -0.2704221,
                0.15997568,
                -0.24524458,
                -0.13458848,
                0.064370416,
                0.09452898,
                -0.2292304,
                0.040263977,
                0.050718617,
                0.0032828336,
                0.056188226,
                0.28498247,
                -0.3138204,
                0.15621518,
                0.19510508,
                -0.20257947,
                0.011508546,
                0.23167549,
                -0.17417131,
                0.16308409,
                0.049062975,
                -0.045907207,
                0.15472127,
                0.1343546,
                0.09365984,
                0.20015846,
                -0.11558978,
                -0.19475602,
                0.14233968,
                -0.13297513,
                0.0007602846,
                0.2570695,
                0.29601827,
                -0.034809086,
                -0.061513487,
                0.28118324,
                0.11252791,
                -0.12394903,
                -0.0944885,
                -0.07427135,
                0.00937847,
                -0.075211525,
                -0.044378746,
                0.30000454,
                0.102535255,
                -0.24208191,
                -0.08684724,
                0.24190775,
                0.16144633,
                -0.23027615,
                -0.25137085,
                -0.05427344,
                -0.0054969974,
                0.062917165,
                0.018594367,
                -0.14525883,
                -0.047786083,
                -0.2649972,
                -0.1004357,
                0.018549439,
                -0.019389674,
                -0.13021757,
                -0.097524,
                -0.019333348,
                0.2708231,
                -0.35118654,
                0.076297306,
                0.045474786,
                -0.08067768,
                0.11665707,
                -0.064674266,
                -0.17037219,
                -0.12195726,
                -0.21945722,
                -0.013405867,
                -0.06990722,
                -0.0038631489,
                -0.16320296,
                -0.12628625,
                0.0046636458,
                0.19498615,
                0.05502765,
                -0.07453103,
                0.034606915,
                -0.3411947,
                -0.0014751573,
                -0.06261754,
                0.111727655,
                -0.13807428,
                0.06607645,
                0.08747522,
                0.2732976,
                -0.14946103,
                -0.36106563,
                0.1075729,
                0.076115,
                0.113857105,
                0.12980197,
                -0.021097776,
                -0.17255406,
                0.051314168,
                -0.0022232265,
                -0.35856026,
                0.09142354,
                -0.1558516,
                0.0155825615,
                -0.098254934,
                0.24295379,
                0.022869702,
                -0.058733966,
                0.27008063,
                0.19346844,
                0.1813099,
                -0.15567158,
                0.057835817,
                -0.04659492,
                -0.20481654,
                -0.14514828,
                -0.16535865,
                0.040523823,
                -0.12219492,
                0.034725416,
                -0.05030758,
                0.10524047,
                -0.16698368,
                0.2283167,
                0.28193662,
                0.25943157,
                -0.09138408,
                -0.18902734,
                -0.055881277,
                -0.3290851,
                0.23645267,
                0.09298378,
                0.2240741,
                0.14982489,
                -0.11522575,
                0.2057874,
                -0.16653562,
                -0.29264265,
                0.17480174,
                0.06478396,
                0.350982,
                0.08151786,
                0.13526806,
                -0.15524429,
                -0.33114567,
                0.105336085,
                -0.19121653,
                0.13329802,
                0.21567991,
                -0.01504904,
                0.26243195,
                -0.23775934,
                -0.036972724,
                0.03320744,
                -0.059139296,
                -0.029971598,
                -0.09161877,
                -0.04369668,
                0.05260382,
                -0.034837354,
                -0.08625362,
                -0.06119487,
                -0.118655056,
                0.10199203,
                0.09780812,
                -0.0062917466,
                0.015146136,
                0.04732961,
                -0.19134054,
                -0.57482547,
                0.015072553,
                0.16134384,
                -0.05416767,
                -0.07861731,
                0.2767882,
                -0.12810196,
                -0.3212121,
                0.18354365,
                -0.30017766,
                0.29806992,
                0.22705834,
                -0.106416814,
                0.016084932,
                0.24703082,
                0.01110547,
                -0.2741629,
                -0.28081548,
                0.07023758,
                0.21226592,
                -0.09864361,
                0.068907864,
                -0.004742555,
                0.2198306,
                0.19710614,
                0.09761831,
                0.050634142,
                0.078916855,
                -0.17447552,
                0.1589697,
                -0.11765431,
                -0.05685381,
                -0.19678147,
                -0.25573722,
                -0.017503103,
                0.247167,
                0.037448384,
                0.04791189,
                0.29549527,
                -0.3424463,
                0.13996333,
                -0.21069084,
                0.009356646,
                0.021967936,
                0.019214887,
                -0.21621992,
                -0.06652958,
                -0.00023281385,
                0.17461537,
                -0.254956,
                0.10099392,
                -0.10896479,
                -0.10194401,
                0.054453902,
                -0.010794865,
                0.18186508,
                0.19085824,
                -0.11248026,
                -0.018119419,
                -0.106529295,
                0.1321116,
                -0.09726395,
                -0.02828409,
                0.19462393,
                0.011495162,
                0.104025714,
                -0.06347064,
                0.054387197,
                0.0018052562,
                -0.09410596,
                0.07168369,
                -0.07940082,
                -0.18505669,
                -0.074738644,
                0.07529334,
                -0.27195057,
                -0.18128887,
                0.020669583,
                0.34150824,
                0.07843488,
                0.07211691,
                0.18775186,
                0.026874786,
                -0.11354079,
                -0.15115298,
                -0.3007528,
                0.03443147,
                0.19770336,
                0.11983727,
                -0.3074487,
                -0.1788647,
                0.108949795,
                -0.25698134,
                0.1054632,
                -0.10777252,
                -0.12017683,
                0.2211787,
                0.22531988,
                0.06758446,
                0.27089053,
                -0.42258784,
                0.109797865,
                0.020907061,
                0.09589456,
                0.21693428,
                -0.29744926,
                0.13916552,
                -0.040462364,
                -0.004746356,
                0.030691965,
                -0.033134926,
                -0.29341662,
                0.09125786,
                0.059804488,
                0.1989929,
                0.024983991,
                -0.06930748,
                -0.005758057,
                -0.27401823,
                0.117532365,
                0.17591833,
                0.33094805,
                0.23087369,
                0.08270581,
                -0.25148553,
                -0.046474542,
                -0.33147663,
                0.2490072,
                0.25749826,
                0.0076519097,
                0.21763846,
                0.060234897,
                -0.4014836,
                0.35663182,
                0.18274623,
                0.0041888566,
                0.00076121005,
                0.40609193,
                0.23195983,
                0.093570575,
                -0.16201377,
                -0.091282755,
                -0.1300385,
                0.4927515,
                -0.19819725,
                -0.0044649956,
                -0.1198214,
                -0.117111035,
                -0.111949325,
                0.0454604,
                0.108815745,
                0.09393862,
                -0.08840268,
                -0.20936619,
                -0.039210703,
                0.12095429,
                -0.2915929,
                0.10273495,
                -0.15951568,
                -0.09292143,
                0.0021317475,
                -0.24300809,
                -0.17611,
                -0.12831096,
                -0.07232519,
                -0.007013475,
                0.10112654,
                -0.2012332,
                0.093211256,
                -0.085909225,
                0.13140343,
                -0.028632963,
                -0.13021478,
                -0.11963104,
                -0.22832869,
                -0.18713391,
                -0.09082658,
                0.0049117045,
                0.13810717,
                0.17282712,
                -0.14396527,
                -0.14687863,
                -0.13073833,
                0.3171605,
                0.18148984,
                0.051155526,
                0.011673093,
                0.28110263,
                0.2235035,
                0.26043743,
                -0.21742557,
                -0.2083957,
                0.0767708,
                0.12183472,
                0.44639802,
                -0.06513586,
                0.04762055,
                0.037907995,
                -0.029147306,
                0.1630966,
                0.0006063663,
                0.24809481,
                -0.29205787,
                -0.16607717,
                -0.041626707,
                -0.0837335,
                0.1855592,
                0.107468344,
                -0.15485342,
                -0.12702294,
                0.17993185,
                -0.16255963,
                0.079792,
                -0.14756036,
                0.0032695306,
                0.10637253,
                -0.25509498,
                -0.03433437,
                -0.000460815,
                0.09952014,
                -0.020526223,
                -0.08631575,
                0.15727599,
                0.08820595,
                0.050004154,
                -0.038815863,
                -0.00025685804,
                0.44085166,
                -0.19719857,
                -0.21665126,
                -0.044168748,
                0.3724298,
                0.16691759,
                0.04571846,
                0.23088458,
                -0.23806946,
                -0.21649387,
                0.055673476,
                0.04032809,
                0.16369368,
                -0.26594427,
                0.13575639,
                0.058691613,
                -0.02020627,
                0.033323362,
                -0.26880348,
                0.1538601,
                0.082163274,
                -0.15275173,
                -0.21271868,
                -0.08801727,
                0.081242315,
                0.0519823,
                -0.10791187,
                -0.35336888,
                -0.112739615,
                -0.29103038,
                -0.0057512033,
                -0.27936056,
                -0.023867536,
                0.030556474,
                0.06125739,
                0.21980463,
                0.084783986,
                0.23412375,
                0.18766293,
                -0.27539113,
                0.2437068,
                0.35897034,
                0.06624589,
                -0.22582279,
                0.40661323,
                0.16995691,
                0.074562,
                -0.027414601,
                -0.089194246,
                0.11592074,
                0.20036122,
                -0.068272926,
                0.17629534,
                0.11026257,
                -0.15743807,
                -0.141545,
                -0.10864662,
                0.01643782,
                -0.14040227,
                0.033909466,
                0.07554331,
                -0.07960381,
                -0.10354129,
                -0.013316862,
                -0.22220537,
                0.11628665,
                -0.31031385,
                -0.17597589,
                0.21200107,
                -0.14383213,
                -0.20494623,
                -0.05139508,
                0.19245167,
                0.12235975,
                0.11843194,
                -0.07727335,
                0.24790977,
                0.12601382,
                0.005462541,
                0.05743354,
                -0.10950452,
                -0.04261707,
                -0.0033804816,
                -0.16247858,
                0.10270682,
                0.02878603,
                -0.17488593,
                -0.268565,
                -0.092141636,
                -0.19416285,
                0.23854087,
                -0.26044205,
                0.23797399,
                -0.083440915,
                0.041682553,
                0.14486606,
                0.07574166,
                0.1283915,
                -0.23788539,
                0.010689271,
                -0.00020790615,
                0.24496949,
                -0.049869645,
                -0.028931154,
                0.216188,
                0.07258499,
                -0.08887609,
                -0.20691597,
                -0.02345057
              ]
            },
            "biases": {
              "v": 1,
              "dim": [
                16
              ],
              "data": [
                0.11883026,
                -0.110381864,
                -0.16559479,
                0.19231486,
                -0.2017353,
                0.32936993,
                0.14719597,
                0.060904175,
                -0.17222166,
                -0.214609,
                -0.1358569,
                0.22485349,
                -0.10570524,
                0.460675,
                -0.13121775,
                0.1743508
              ]
            }
          },
          {
            "weights": {
              "v": 1,
              "dim": [
                11,
                16
              ],
              "data": [
                -0.60592604,
                0.1904484,
                0.19523665,
                -0.27875376,
                -0.20045376,
                0.27389064,
                0.065875135,
                0.101247326,
                -0.047173902,
                0.008177457,
                -0.17300168,
                0.08048925,
                -0.056701217,
                0.13167444,
                0.25684142,
                0.13138312,
                -0.2803109,
                0.3084393,
                0.0022226693,
                -0.27410313,
                0.15163387,
                0.14400992,
                0.11325588,
                -0.26302686,
                0.11239228,
                -0.11169498,
                -0.03566759,
                -0.16604395,
                -0.062116507,
                -0.13500184,
                0.062024053,
                0.32721585,
                0.025349788,
                -0.059524857,
                -0.19176686,
                -0.14283144,
                -0.26228726,
                -0.012937334,
                -0.0119036045,
                0.062162314,
                -0.016471166,
                0.0064374013,
                0.17019472,
                0.018406639,
                0.010058306,
                -0.18483865,
                0.31626767,
                -0.13024503,
                -0.26131466,
                -0.2750316,
                -0.020983195,
                -0.01516011,
                0.108525835,
                -0.24784243,
                0.044168565,
                -0.31313258,
                0.26383996,
                0.0067245197,
                -0.13704349,
                0.193818,
                -0.028041493,
                0.046181336,
                0.18663992,
                0.02445011,
                0.2817242,
                -0.09167837,
                0.15789235,
                -0.021774963,
                -0.1683438,
                0.09459068,
                -0.2355826,
                -0.2026381,
                0.2096972,
                -0.100789875,
                0.13320158,
                0.26806223,
                -0.12324372,
                -0.094281234,
                -0.01949253,
                -0.2877811,
                0.018291684,
                0.006241821,
                -0.27982643,
                0.0020752605,
                0.06365144,
                0.021916183,
                -0.11794303,
                -0.08779002,
                0.128601,
                0.26213822,
                -0.18063639,
                -0.18159127,
                0.02554337,
                -0.034447674,
                0.28622013,
                0.03506819,
                -0.014745144,
                -0.24573824,
                -0.3084651,
                -0.17793792,
                0.11092395,
                -0.18713227,
                -0.12533064,
                0.102808274,
                -0.35919815,
                0.19788244,
                0.24887933,
                -0.10524025,
                -0.31863976,
                -0.11256858,
                -0.07292157,
                0.1820099,
                -0.10161562,
                -0.23520859,
                -0.19410628,
                -0.110564955,
                -0.031799316,
                -0.02210809,
                -0.35104463,
                0.24471164,
                -0.121776015,
                0.025544591,
                -0.27543095,
                -0.31483418,
                -0.040586565,
                0.27821618,
                0.12412648,
                0.23846762,
                0.17409779,
                -0.2140829,
                -0.30086657,
                -0.055243053,
                0.21107835,
                -0.1068018,
                -0.05974655,
                -0.010985189,
                -0.18730626,
                -0.09480732,
                -0.18567519,
                -0.0006187797,
                -0.016858919,
                -0.09490736,
                -0.20702985,
                0.1480815,
                -0.067442425,
                0.24220951,
                0.12551327,
                0.26391307,
                0.096592955,
                -0.09329202,
                -0.17552856,
                0.05878345,
                -0.16218568,
                -0.005769258,
                0.10398148,
                0.20088378,
                -0.041194335,
                0.080856964,
                0.2744296,
                0.2463307,
                0.039382324,
                -0.03665161,
                -0.12062486,
                -0.038132798,
                -0.12138486,
                -0.0006835086,
                0.22697613,
                -0.06272372,
                -0.09425999,
                0.0384655,
                0.1037905,
                0.055999253,
                0.003593233,
                0.011982897,
                0.15364471,
                -0.07892055
              ]
            },
            "biases": {
              "v": 1,
              "dim": [
                11
              ],
              "data": [
                -0.004419711,
                0.16240044,
                -0.10852125,
                0.20656712,
                0.13263781,
                -0.03436308,
                0.0098535335,
                0.05914867,
                -0.107612245,
                0.40464428,
                -0.10494576
              ]
            }
          }
        ]
      },
      "attack_cooldown": 0.2
    },
    {
      "id": 14969,
      "age": 9.200017,
      "score": 4,
      "pos": {
        "v": 1,
        "dim": [
          2
        ],
        "data": [
          232.81195,
          358.81448
        ]
      },
      "rot": 7.9291377,
      "energy": 0.028509313,
      "signal": {
        "v": 1,
        "dim": [
          4
        ],
        "data": [
          0.47175115,
          0.5052519,
          0.42515028,
          0.5461592
        ]
      },
      "memory": {
        "v": 1,
        "dim": [
          4
        ],
        "data": [
          0.0900465,
          -0.122096226,
          -0.113079086,
          0.196633
        ]
      },
      "brain": {
        "layers": [
          {
            "weights": {
              "v": 1,
              "dim": [
                32,
                24
              ],
              "data": [
                0.215599,
                0.077460125,
                0.014256712,
                -0.35568112,
                0.27579314,
                0.17708558,
                -0.135685,
                -0.16088638,
                0.38948154,
                -0.1469987,
                0.5423065,
                0.06456652,
                -0.16371296,
                -0.027630927,
                -0.17827895,
                0.11347011,
                0.16980962,
                0.18258923,
                -0.16579741,
                0.15258014,
                0.18772423,
                -0.04141192,
                -0.25068945,
                0.072164714,
                -0.05312553,
                0.15705371,
                0.06318696,
                0.12069504,
                -0.19287448,
                0.051299863,
                -0.3823292,
                -0.083556235,
                -0.12997422,
                -0.3273003,
                0.10616134,
                0.044970453,
                0.008079883,
                -0.16420253,
                0.06989816,
                0.33605978,
                0.17264771,
                0.0064121513,
                -0.03853667,
                0.022591162,
                -0.21396059,
                -0.18112963,
                0.107823335,
                0.028955989,
                -0.1111557,
                0.108343184,
                0.16417722,
                -0.3764341,
                -0.0042537404,
                -0.20647961,
                -0.049201407,
                -0.0038207266,
                -0.24299294,
                -0.0011988867,
                0.00034222857,
                -0.07842287,
                -0.09889284,
                -0.29682422,
                -0.32521203,
                -0.094206356,
                0.26643682,
                -0.22114848,
                -0.20306838,
                -0.17771932,
                0.10485157,
                0.118252836,
                0.04117182,
                -0.11027655,
                0.2770629,
                -0.1874779,
                0.013706509,
                -0.002465903,
                -0.2879691,
                0.001851071,
                0.15579335,
                0.058695957,
                0.2523178,
                0.21280257,
                -0.061468437,
                -0.02836151,
                0.13415538,
                -0.1944035,
                -0.24963103,
                -0.25036833,
                -0.09417244,
                0.32907653,
                -0.12674655,
                -0.06376888,
                -0.044880815,
                0.032256152,
                0.061772108,
                -0.10185602,
                -0.24488302,
                -0.079358116,
                0.12125985,
                0.033800013,
                -0.16984011,
                -0.12053782,
                -0.043862224,
                -0.10548118,
                -0.054947857,
                -0.011426454,
                0.048332047,
                0.05983405,
                0.1627228,
                0.02141593,
                -0.071965426,
                0.029215116,
                0.086275674,
                -0.0017474074,
                0.31446773,
                0.34124523,
                -0.3837816,
                -0.17640783,
                0.29414314,
                -0.15110734,
                0.03955496,
                -0.030690942,
                0.0029054307,
                0.10519389,
                -0.006557183,
                -0.2735734,
                0.06063479,
                -0.057623032,
                0.063158594,
                -0.014734728,
                -0.10902085,
                0.18256044,
                -0.11945189,
                -0.22294126,
                -0.17057458,
                -0.19284993,
                -0.17413965,
                0.28790197,
                -0.001939049,
                -0.12398188,
                -0.37564236,
                -0.1185303,
                -0.17624044,
                -0.06408003,
                0.14254424,
                0.13105786,
                -0.018947434,
                0.14974667,
                0.25920564,
                0.2064423,
                0.1912853,
                0.37396476,
                -0.018808426,
                -0.10381208,
                0.15072659,
                0.4314459,
                0.14083448,
                -0.10905478,
                -0.16994175,
                0.10206666,
                -0.0829145,
                -0.3315167,
                0.06205494,
                0.2261324,
                -0.029964136,
                -0.15867803,
                -0.12759222,
                -0.042789288,
                -0.16195181,
                0.0017837074,
                -0.089427136,
                -0.039796643,
                -0.15661949,
                -0.20490387,
                -0.1985358,
                -0.058308885,
                0.22745669,
                -0.17812884,
                -0.17552459,
                -0.38776192,
                -0.08447911,
                -0.6010132,
                -0.012466877,
                -0.2370453,
                0.03700903,
                -0.23877624,
                -0.22880396,
                0.050311588,
                0.04746928,
                -0.086827576,
                0.021867018,
                0.07886397,
                -0.0767855,
                -0.34571856,
                -0.24455655,
                0.012148594,
                -0.33250958,
                -0.10177815,
                -0.25905794,
                0.03363645,
                -0.0184682,
                0.04728277,
                -0.0405274,
                0.033782378,
                0.16288398,
                0.051127896,
                -0.29822034,
                -0.05466595,
                -0.047526155,
                -0.027299233,
                -0.09068281,
                0.25661898,
                0.11769976,
                0.023129243,
                -0.15689276,
                -0.15130162,
                0.37187767,
                -0.030172143,
                -0.27086663,
                -0.15659064,
                0.12279378,
                0.25926733,
                -0.076677024,
                -0.14848933,
                -0.06544705,
                -0.03990361,
                -0.2276872,
                -0.06888935,
                -0.049004674,
                -0.14007434,
                0.04142167,
                0.044431806,
                0.08087788,
                0.0739225,
                0.1880022,
                0.07783049,
                0.21696925,
                -0.06675011,
                -0.33577293,
                0.043345917,
                0.24461429,
                -0.15876561,
                0.16301695,
                -0.116530724,
                0.110707834,
                -0.29875174,
                -0.1040271,
                -0.16023836,
                -0.019049615,
                0.006615702,
                -0.25366086,
                -0.25389963,
                0.083719164,
                -0.10802802,
                -0.112500876,
                -0.20177944,
                0.17329833,
                -0.25042325,
                0.012016171,
                -0.047396503,
                0.049419653,
                0.39001918,
                0.2980572,
                -0.1820971,
                -0.22640023,
                -0.118413,
                0.20645237,
                0.15439242,
                -0.16432188,
                0.15405682,
                0.00013734517,
                -0.04321208,
                0.06746091,
                -0.28933677,
                -0.10783507,
                -0.13754116,
                -0.00009118952,
                0.11967092,
                -0.014177004,
                0.06868693,
                0.300043,
                0.394484,
                -0.15440497,
                -0.08101696,
                -0.23256853,
                -0.08605219,
                -0.19729427,
                -0.25604865,
                0.019571707,
                0.049834207,
                -0.11817625,
                -0.0675383,
                0.31968576,
                -0.1136155,
                0.06791683,
                -0.04731493,
